{
  "meta": {
    "device": "cpu",
    "seed": 1234,
    "dtype": "model-default",
    "loss": "adapter.loss_fn",
    "loss_value": -402.1798400878906,
    "model_id": "facebook/esm2_t6_8M_UR50D (integration: encoder embeddings, MLM head dropped)",
    "torch_version": "2.11.0+cpu",
    "num_grad_tensors": 101
  },
  "env_lock": "env/versions.txt",
  "outputs": {
    "[0]": {
      "shape": [
        2,
        64,
        320
      ],
      "dtype": "torch.float32",
      "mean": -0.00980960763990879,
      "std": 0.3661983907222748,
      "absmax": 5.485736846923828,
      "slice": [
        0.08447707444429398,
        0.4166015684604645,
        0.1359819620847702,
        0.33666497468948364,
        -0.19912110269069672,
        -0.16203707456588745,
        -0.8131987452507019,
        0.0801774114370346,
        -0.07677233964204788,
        -0.7307904362678528,
        0.45108556747436523,
        0.2512696385383606,
        -0.7321155071258545,
        -0.29049280285835266,
        -0.5324417352676392,
        0.34044307470321655,
        0.2927495539188385,
        -0.06077759712934494,
        0.03994720056653023,
        -0.4581775367259979,
        -0.34584304690361023,
        -0.19445091485977173,
        -0.4125031530857086,
        0.20917357504367828,
        -0.16713395714759827,
        0.5039980411529541,
        -0.04491956904530525,
        0.18951429426670074,
        0.055606648325920105,
        -0.18714861571788788,
        0.0974033921957016,
        -0.09235066175460815,
        -0.3413201868534088,
        0.15959692001342773,
        0.1696731001138687,
        -0.4685541093349457,
        -0.2396487444639206,
        -0.37417498230934143,
        0.41849976778030396,
        -0.30394601821899414,
        0.3268148899078369,
        0.20032726228237152,
        -0.42512354254722595,
        -0.28770026564598083,
        -0.0813896581530571,
        0.366798460483551,
        0.7906370759010315,
        -0.14540261030197144,
        0.01648472435772419,
        0.02401372417807579,
        0.44757944345474243,
        -0.21359851956367493,
        0.5373481512069702,
        -0.15860681235790253,
        -0.21014492213726044,
        0.6081002354621887,
        -0.012003236450254917,
        -0.29832956194877625,
        0.15667802095413208,
        0.007467419840395451,
        -0.47948580980300903,
        -0.34822341799736023,
        -3.808640241622925,
        0.06824193149805069
      ],
      "sha256_16": "8822d1f1e732bf91"
    },
    "[1]": {
      "shape": [
        2,
        2
      ],
      "dtype": "torch.float32",
      "mean": -0.09458207339048386,
      "std": 0.14467187225818634,
      "absmax": 0.2673720419406891,
      "slice": [
        0.05490892380475998,
        -0.2673720419406891,
        0.042056307196617126,
        -0.20792149007320404
      ],
      "sha256_16": "1d9711b1994e9cdc"
    }
  },
  "grads": {
    "backbone.embeddings.word_embeddings.weight": {
      "shape": [
        33,
        320
      ],
      "dtype": "torch.float32",
      "mean": 4.15426315569789e-09,
      "std": 0.5915675759315491,
      "absmax": 6.404467582702637,
      "slice": [
        0.7455829977989197,
        0.11437901854515076,
        0.44698166847229004,
        -0.13892695307731628,
        0.14822959899902344,
        0.24712994694709778,
        -0.31819942593574524,
        -0.5266231298446655,
        0.1424061506986618,
        0.3299349844455719,
        0.3661832809448242,
        -0.08013036847114563,
        1.4392833709716797,
        -2.033369302749634,
        -1.2091611623764038,
        0.26231396198272705,
        0.24823826551437378,
        0.3642754852771759,
        2.1815829277038574,
        -0.05206473171710968,
        -0.0070387027226388454,
        0.2565426230430603,
        1.4193155765533447,
        0.4863869547843933,
        -0.7822514176368713,
        0.29781806468963623,
        0.6933978796005249,
        0.14031851291656494,
        1.505487322807312,
        0.12585754692554474,
        -0.057379014790058136,
        0.42327356338500977,
        1.1936513185501099,
        -0.08982344716787338,
        -0.04081551358103752,
        0.6468974351882935,
        -0.04563325643539429,
        -0.5966978073120117,
        -0.19819387793540955,
        -0.048707686364650726,
        0.23634305596351624,
        -0.06740330904722214,
        0.3631051480770111,
        -0.06779514998197556,
        -0.019025027751922607,
        -0.09273293614387512,
        0.1621515452861786,
        -0.03324650228023529,
        0.008603528141975403,
        0.38532382249832153,
        -0.7051646709442139,
        0.2509937286376953,
        -0.2678965926170349,
        0.16417296230793,
        -0.17504407465457916,
        0.2674214243888855,
        -0.21777868270874023,
        0.01708272472023964,
        0.17486780881881714,
        0.49410033226013184,
        -0.018189169466495514,
        0.7329569458961487,
        0.41955798864364624,
        -0.184417724609375
      ],
      "sha256_16": "9655aa54a0c8a7a0"
    },
    "backbone.encoder.layer.0.attention.self.query.weight": {
      "shape": [
        320,
        320
      ],
      "dtype": "torch.float32",
      "mean": 0.00014241220196709037,
      "std": 0.04557992145419121,
      "absmax": 1.4385766983032227,
      "slice": [
        -0.001092584803700447,
        -0.02738630399107933,
        0.006643188651651144,
        -0.014841611497104168,
        1.881104617496021e-05,
        0.0004935092874802649,
        -0.005301855504512787,
        0.004717955365777016,
        -0.010448983870446682,
        -4.511859060585266e-06,
        0.018651839345693588,
        -9.351070184493437e-05,
        0.0018729829462245107,
        0.020571572706103325,
        0.032541193068027496,
        0.005184204783290625,
        0.011088766157627106,
        -0.00013108558778185397,
        -0.005527554079890251,
        0.013974119909107685,
        -0.0001462321524741128,
        -0.0251200869679451,
        -0.012416609562933445,
        3.5879984352504835e-05,
        0.004103553481400013,
        0.0042481315322220325,
        -0.01029896643012762,
        -7.089480641297996e-05,
        0.01592591032385826,
        6.402478175004944e-05,
        2.3275464627658948e-05,
        7.092109626682941e-06,
        -0.021460605785250664,
        4.395156429382041e-05,
        -0.0013248594477772713,
        0.011571263894438744,
        -0.0002296033053426072,
        -0.00701267970725894,
        0.0026642426382750273,
        -0.00013376549759414047,
        1.3944138117949478e-05,
        0.0011245467467233539,
        -0.0011777179315686226,
        -0.0019576330669224262,
        0.005393411498516798,
        -0.0541604682803154,
        0.012276977300643921,
        0.010325714014470577,
        -5.1527158575481735e-06,
        5.723181311623193e-05,
        -0.00044305171468295157,
        -0.0014308831887319684,
        -0.00019835121929645538,
        9.415567183168605e-05,
        0.0021497230045497417,
        -7.958832429721951e-05,
        0.007738146930932999,
        -0.0010327911004424095,
        0.00020149469492025673,
        0.006779676303267479,
        -0.0037776257377117872,
        -0.028396135196089745,
        -0.0022365155164152384,
        2.1318031940609217e-05
      ],
      "sha256_16": "fa05d58ec265c648"
    },
    "backbone.encoder.layer.0.attention.self.query.bias": {
      "shape": [
        320
      ],
      "dtype": "torch.float32",
      "mean": 0.014421152882277966,
      "std": 0.25331488251686096,
      "absmax": 1.0462135076522827,
      "slice": [
        0.020677726715803146,
        -0.056909989565610886,
        0.07632051408290863,
        -0.2978806495666504,
        -0.2571913003921509,
        -0.09889604151248932,
        0.17807286977767944,
        0.1306159794330597,
        0.09405165165662766,
        0.12044836580753326,
        0.044018879532814026,
        0.3498024344444275,
        -0.13470837473869324,
        0.010438031516969204,
        -0.20316492021083832,
        0.01966298557817936,
        0.05480807647109032,
        -0.06897079944610596,
        0.08969303965568542,
        0.0020619304850697517,
        -0.19349724054336548,
        0.022146131843328476,
        -0.03209245577454567,
        0.08898354321718216,
        -0.0075657060369849205,
        0.16561074554920197,
        0.27450257539749146,
        -0.09781178832054138,
        -0.12176242470741272,
        0.14935964345932007,
        0.09978888928890228,
        -0.36475127935409546,
        0.38524672389030457,
        0.3463555872440338,
        -0.31413155794143677,
        -0.3784972131252289,
        -0.026526547968387604,
        0.19165223836898804,
        0.211629718542099,
        0.06287501007318497,
        -0.21980173885822296,
        -0.05417311564087868,
        -0.13719508051872253,
        -0.11834761500358582,
        0.04341479763388634,
        -0.27779287099838257,
        -0.31053462624549866,
        -0.1044156476855278,
        0.03951180726289749,
        0.10103951394557953,
        0.09843339771032333,
        -0.004647351801395416,
        -0.05016551911830902,
        -0.09786499291658401,
        0.15567760169506073,
        0.11688700318336487,
        0.026287585496902466,
        0.13962244987487793,
        0.3204261362552643,
        -0.20257918536663055,
        -0.3983570635318756,
        0.15187592804431915,
        0.039200980216264725,
        0.08423963189125061
      ],
      "sha256_16": "2d36bb86047d67be"
    },
    "backbone.encoder.layer.0.attention.self.key.weight": {
      "shape": [
        320,
        320
      ],
      "dtype": "torch.float32",
      "mean": -0.00013557332567870617,
      "std": 0.10647112131118774,
      "absmax": 3.186439275741577,
      "slice": [
        -0.002099949400871992,
        0.038552816957235336,
        0.01810961589217186,
        0.008294416591525078,
        -1.3302566003403626e-05,
        0.007042719982564449,
        0.0073814382776618,
        -0.0060565778985619545,
        -0.0007678767433390021,
        1.5335228454205208e-05,
        0.012430185452103615,
        4.9082904297392815e-05,
        0.01844252087175846,
        -0.03351283445954323,
        -0.010805855505168438,
        0.007343675941228867,
        0.007254279684275389,
        -0.00010846840450540185,
        -0.01522368099540472,
        -0.004944716114550829,
        0.0015493265818804502,
        0.02718622423708439,
        -0.009184774942696095,
        2.6865487598115578e-05,
        0.0005772131844423711,
        0.013978324830532074,
        -0.009892362169921398,
        0.00010704225132940337,
        -0.00993270706385374,
        6.321091495919973e-05,
        -3.405283496249467e-05,
        3.8688755012117326e-05,
        -0.009542548097670078,
        -5.5324024287983775e-05,
        0.0006473963148891926,
        -0.024136042222380638,
        -7.505911344196647e-05,
        -0.01821504719555378,
        0.0002850024902727455,
        1.424640572622593e-06,
        -2.404535553068854e-05,
        -3.134166036034003e-05,
        0.002637941623106599,
        -0.004092816263437271,
        -0.005777453538030386,
        0.05220574513077736,
        -0.0026485275011509657,
        -0.017789563164114952,
        1.2883099316240987e-06,
        -1.8147397895518225e-07,
        0.0016889494145289063,
        -0.004163116216659546,
        -0.002146586775779724,
        3.336255394970067e-05,
        -0.0023527517914772034,
        -6.359228427754715e-05,
        -0.001187813701108098,
        -4.759347211802378e-05,
        0.003949404694139957,
        -0.0030519445426762104,
        0.0023792709689587355,
        0.005572741385549307,
        -0.018268227577209473,
        -7.467351679224521e-06
      ],
      "sha256_16": "c91cd55f17775af1"
    },
    "backbone.encoder.layer.0.attention.self.key.bias": {
      "shape": [
        320
      ],
      "dtype": "torch.float32",
      "mean": -0.01999758370220661,
      "std": 0.2208152711391449,
      "absmax": 1.3820077180862427,
      "slice": [
        -0.035627804696559906,
        -0.14184482395648956,
        -0.3353751301765442,
        -0.3282385468482971,
        -0.1331072300672531,
        -0.022491231560707092,
        0.0005812542513012886,
        0.0009289085865020752,
        0.05167752876877785,
        -0.2257377952337265,
        -0.03333190083503723,
        -0.2064024657011032,
        -0.08419965207576752,
        0.05395783483982086,
        0.0003464091569185257,
        0.0013237837702035904,
        -0.08366112411022186,
        -0.07951187342405319,
        -0.09350920468568802,
        0.24404391646385193,
        -0.10719116032123566,
        0.051557108759880066,
        -1.3228505849838257e-05,
        -0.0019954275339841843,
        0.08253615349531174,
        -0.10870156437158585,
        0.3108382523059845,
        -0.2888163924217224,
        -0.15963220596313477,
        0.0021448880434036255,
        0.002295263111591339,
        -0.0006951391696929932,
        -0.5356985926628113,
        0.5983627438545227,
        -0.9407863020896912,
        -0.0698484480381012,
        0.019042283296585083,
        0.054715439677238464,
        0.007811754941940308,
        0.000742793083190918,
        0.19053831696510315,
        -0.4370740056037903,
        0.4722512364387512,
        0.5667664408683777,
        -0.1352442055940628,
        0.003753066062927246,
        0.013088345527648926,
        0.0015159472823143005,
        0.017058078199625015,
        0.03493101894855499,
        -0.07135501503944397,
        -0.21685810387134552,
        -0.09408511966466904,
        0.002388492226600647,
        -0.0005566366016864777,
        -0.0026600584387779236,
        0.0012441780418157578,
        -0.06318384408950806,
        0.19905909895896912,
        0.09028995037078857,
        0.08483385294675827,
        -0.025326775386929512,
        -0.0009123208001255989,
        5.14984130859375e-05
      ],
      "sha256_16": "2ea95f491a3d629b"
    },
    "backbone.encoder.layer.0.attention.self.value.weight": {
      "shape": [
        320,
        320
      ],
      "dtype": "torch.float32",
      "mean": -0.002099948935210705,
      "std": 0.4594191610813141,
      "absmax": 32.50715637207031,
      "slice": [
        -0.08872777223587036,
        -3.9220681190490723,
        -0.03622794896364212,
        0.04111272841691971,
        0.0018158856546506286,
        -0.07666405290365219,
        0.07668054848909378,
        -0.06258714944124222,
        -0.09681365638971329,
        -0.001985223963856697,
        0.1992548704147339,
        -0.00264244107529521,
        -0.00815481599420309,
        0.5107065439224243,
        0.061244361102581024,
        0.036548078060150146,
        -0.07949794828891754,
        0.0005165887996554375,
        -0.028280602768063545,
        0.14436118304729462,
        -0.032217301428318024,
        -0.31271272897720337,
        -0.05056477338075638,
        -0.0012284399708732963,
        0.019087953492999077,
        0.014297949150204659,
        0.17458102107048035,
        0.0008947769529186189,
        0.020491579547524452,
        0.00020963765564374626,
        0.00375466444529593,
        -0.0007761682500131428,
        -0.07614438235759735,
        -0.0023770341649651527,
        -0.008293108083307743,
        3.6195337772369385,
        0.0006946053472347558,
        1.9339406490325928,
        0.013875359669327736,
        0.0014679121086373925,
        0.0002761107461992651,
        -0.059903163462877274,
        -0.04918866604566574,
        0.06305600702762604,
        0.10518407076597214,
        -1.0597118139266968,
        0.17200586199760437,
        -0.015307952649891376,
        -0.0012115637073293328,
        0.0007222319836728275,
        0.04643447697162628,
        0.11300317198038101,
        -0.046855177730321884,
        0.00011392866872483864,
        -0.00793948583304882,
        -0.002787132980301976,
        0.0111381309106946,
        0.014738313853740692,
        -0.008898137137293816,
        -0.016571510583162308,
        0.02730710431933403,
        -0.2898213565349579,
        0.019784800708293915,
        0.00010735336400102824
      ],
      "sha256_16": "b0ab7691ec6b9ec2"
    },
    "backbone.encoder.layer.0.attention.self.value.bias": {
      "shape": [
        320
      ],
      "dtype": "torch.float32",
      "mean": -0.26369982957839966,
      "std": 3.4778780937194824,
      "absmax": 26.686756134033203,
      "slice": [
        3.7379560470581055,
        3.8693463802337646,
        3.5903618335723877,
        -4.9223527908325195,
        4.951910018920898,
        1.6449933052062988,
        1.161379337310791,
        0.8875327110290527,
        -6.0912251472473145,
        3.075998067855835,
        1.118727445602417,
        -2.29508376121521,
        0.514358639717102,
        -0.4456443190574646,
        -3.8575692176818848,
        1.3608365058898926,
        1.922734022140503,
        1.582560420036316,
        0.12606826424598694,
        4.7523722648620605,
        -3.6784205436706543,
        0.7292875051498413,
        1.5891623497009277,
        4.26826286315918,
        -2.4644615650177,
        0.7510565519332886,
        -1.4115451574325562,
        4.730557441711426,
        3.5989532470703125,
        1.619062066078186,
        0.8352417349815369,
        5.326436996459961,
        2.409780979156494,
        3.260443925857544,
        2.1033852100372314,
        3.139613628387451,
        1.7100107669830322,
        -2.026994466781616,
        0.5362258553504944,
        4.01435661315918,
        -2.483919382095337,
        -3.7868473529815674,
        1.5320909023284912,
        -1.02663254737854,
        0.2668747007846832,
        4.580185890197754,
        1.3807872533798218,
        -1.2757794857025146,
        0.7675091624259949,
        -1.9831292629241943,
        0.16241702437400818,
        2.3628110885620117,
        -0.9385088682174683,
        -0.329717218875885,
        -6.4343695640563965,
        0.9316798448562622,
        -1.9745242595672607,
        -1.0442739725112915,
        -0.657200813293457,
        -3.509908676147461,
        -0.7177886962890625,
        -0.9168219566345215,
        -1.3325753211975098,
        4.115316867828369
      ],
      "sha256_16": "f2265949de5c3e38"
    },
    "backbone.encoder.layer.0.attention.output.dense.weight": {
      "shape": [
        320,
        320
      ],
      "dtype": "torch.float32",
      "mean": 7.171183646903501e-10,
      "std": 0.327620267868042,
      "absmax": 4.746051788330078,
      "slice": [
        0.034141186624765396,
        0.04993853718042374,
        0.12252534180879593,
        0.3141460716724396,
        0.04404237121343613,
        0.2709146738052368,
        0.002302117645740509,
        0.04919283464550972,
        -0.26658928394317627,
        -0.1981458216905594,
        0.04321671277284622,
        -0.2573564648628235,
        -0.24337172508239746,
        -0.09957259148359299,
        -0.24356287717819214,
        0.0927421823143959,
        0.2731374502182007,
        0.01896999403834343,
        0.34011295437812805,
        0.051258839666843414,
        0.1534532606601715,
        0.2963394224643707,
        0.18652288615703583,
        -0.0008875602507032454,
        -0.10615284740924835,
        0.08851435035467148,
        -0.0007377104484476149,
        0.10985656082630157,
        -0.034756336361169815,
        -0.21360059082508087,
        0.08192557096481323,
        0.0745401531457901,
        -0.2610611021518707,
        -0.08491022139787674,
        0.028657248243689537,
        0.05829549580812454,
        -0.22821033000946045,
        0.1291479915380478,
        -0.14649462699890137,
        -0.03227083757519722,
        -0.0026363919023424387,
        -0.013747395016252995,
        -0.25804710388183594,
        -0.23277945816516876,
        -0.21381165087223053,
        0.2916450500488281,
        0.3780376613140106,
        0.034235384315252304,
        0.19709104299545288,
        0.0676972046494484,
        0.09053424000740051,
        -4.886919850832783e-05,
        0.05939912796020508,
        0.2221546322107315,
        -0.15146304666996002,
        0.14965513348579407,
        0.04394105449318886,
        0.22201953828334808,
        0.16296683251857758,
        -0.12232373654842377,
        0.24231301248073578,
        -0.20449680089950562,
        -0.03979639708995819,
        0.05612470209598541
      ],
      "sha256_16": "ea6a1877edaad058"
    },
    "backbone.encoder.layer.0.attention.output.dense.bias": {
      "shape": [
        320
      ],
      "dtype": "torch.float32",
      "mean": 1.01327898960335e-07,
      "std": 2.7335190773010254,
      "absmax": 8.808311462402344,
      "slice": [
        -0.04704345017671585,
        5.32698917388916,
        3.0259575843811035,
        -1.9906708002090454,
        -4.412456512451172,
        5.936265468597412,
        -2.2113656997680664,
        -0.94798344373703,
        -1.3852922916412354,
        0.470857173204422,
        3.7943882942199707,
        -1.9397684335708618,
        1.9466044902801514,
        4.026971817016602,
        -0.5924786329269409,
        4.086843967437744,
        -0.7219289541244507,
        0.9794961214065552,
        -1.8021934032440186,
        -0.021475359797477722,
        -0.037567153573036194,
        -1.7699953317642212,
        4.751156330108643,
        1.4016000032424927,
        2.549351453781128,
        -3.5002756118774414,
        -1.280630350112915,
        -1.8451919555664062,
        2.2356269359588623,
        -1.280287265777588,
        3.1966447830200195,
        4.760124683380127,
        -4.933566093444824,
        4.936188697814941,
        3.803614377975464,
        2.5126633644104004,
        1.8528263568878174,
        -1.3965346813201904,
        -0.7216595411300659,
        -0.7131515741348267,
        2.188671112060547,
        3.120744466781616,
        3.724637269973755,
        -1.18686044216156,
        -1.788507342338562,
        -4.638026714324951,
        -6.799001693725586,
        5.003278732299805,
        -1.021307110786438,
        -2.092665910720825,
        -8.226758003234863,
        -2.7124183177948,
        2.5001938343048096,
        2.7117128372192383,
        1.5495988130569458,
        -0.5744942426681519,
        -0.8814569711685181,
        2.6018967628479004,
        0.17650353908538818,
        -1.4943211078643799,
        -3.1941819190979004,
        6.244604587554932,
        -7.046979904174805,
        -1.5744324922561646
      ],
      "sha256_16": "19287e3e8dffb176"
    },
    "backbone.encoder.layer.0.attention.LayerNorm.weight": {
      "shape": [
        320
      ],
      "dtype": "torch.float32",
      "mean": -0.9321862459182739,
      "std": 1.8779537677764893,
      "absmax": 14.247949600219727,
      "slice": [
        -0.702894926071167,
        -3.617103338241577,
        -0.22663791477680206,
        -0.18527716398239136,
        0.10512413084506989,
        2.500560760498047,
        -3.301241636276245,
        -0.11031610518693924,
        -0.5468024611473083,
        -0.10138162970542908,
        -2.1951711177825928,
        0.2537652552127838,
        -2.955805778503418,
        -6.544918537139893,
        0.21800130605697632,
        -1.9447920322418213,
        0.9068969488143921,
        -0.10693400353193283,
        -6.160965919494629,
        -1.4974365234375,
        -0.6001304388046265,
        -0.5783249139785767,
        -3.0247349739074707,
        -0.18987096846103668,
        -7.249383926391602,
        -1.2165279388427734,
        2.9804461002349854,
        0.08339262008666992,
        -4.835002899169922,
        0.197599858045578,
        0.292772114276886,
        0.15826916694641113,
        -2.200545072555542,
        0.08506230264902115,
        -1.0257632732391357,
        -1.7906825542449951,
        0.10965417325496674,
        0.0800703838467598,
        -0.7446472644805908,
        -0.09101217985153198,
        -0.049861662089824677,
        -2.730351209640503,
        -0.6055418252944946,
        -0.15868474543094635,
        -0.18370407819747925,
        -4.37069845199585,
        -5.066524028778076,
        -0.04610370099544525,
        -0.14092391729354858,
        -0.012722618877887726,
        -2.440380334854126,
        0.043644875288009644,
        -1.4632790088653564,
        -0.45921823382377625,
        -1.2573816776275635,
        -0.21156854927539825,
        -2.8897523880004883,
        -1.5535311698913574,
        -2.663320541381836,
        -1.1916189193725586,
        -0.9978195428848267,
        -1.9273465871810913,
        -1.413841724395752,
        -0.20984750986099243
      ],
      "sha256_16": "5815db228d95cd92"
    },
    "backbone.encoder.layer.0.attention.LayerNorm.bias": {
      "shape": [
        320
      ],
      "dtype": "torch.float32",
      "mean": -0.007372478488832712,
      "std": 3.9875125885009766,
      "absmax": 15.923505783081055,
      "slice": [
        1.1425846815109253,
        0.06676417589187622,
        1.6495150327682495,
        -0.5428318977355957,
        -0.07009486854076385,
        -4.845351219177246,
        -4.639793872833252,
        -1.8427549600601196,
        2.536881923675537,
        0.6970329880714417,
        -0.8107591867446899,
        -0.441987007856369,
        5.1259765625,
        -2.5550944805145264,
        -6.037391662597656,
        -1.074902057647705,
        2.564244508743286,
        -0.017588771879673004,
        15.923505783081055,
        2.8422563076019287,
        -4.796479225158691,
        -2.0914297103881836,
        9.73746395111084,
        -0.1379324197769165,
        -6.77396821975708,
        1.0322221517562866,
        5.595090389251709,
        0.008648553863167763,
        9.029389381408691,
        0.362348347902298,
        -0.16057541966438293,
        -0.21704727411270142,
        0.661716878414154,
        0.07967301458120346,
        1.8011467456817627,
        -0.8661540746688843,
        -0.08333291113376617,
        -0.4998698830604553,
        0.4464626908302307,
        -0.14268553256988525,
        -0.26910266280174255,
        3.0378870964050293,
        0.14107412099838257,
        1.7070627212524414,
        -2.1678736209869385,
        3.040372133255005,
        -4.546432018280029,
        -3.3412632942199707,
        0.02913740649819374,
        0.02371542528271675,
        -5.8638434410095215,
        2.87617564201355,
        -5.998028755187988,
        -0.19881677627563477,
        -0.055644214153289795,
        -0.12660333514213562,
        -0.33402520418167114,
        1.1457581520080566,
        0.8890098929405212,
        4.3373870849609375,
        0.3706917464733124,
        -2.329681634902954,
        9.487066268920898,
        -0.16501204669475555
      ],
      "sha256_16": "d5f656c2a5ddcd80"
    },
    "backbone.encoder.layer.0.intermediate.dense.weight": {
      "shape": [
        1280,
        320
      ],
      "dtype": "torch.float32",
      "mean": -0.00025897807790897787,
      "std": 0.15806713700294495,
      "absmax": 15.512760162353516,
      "slice": [
        -0.059618279337882996,
        0.1311769187450409,
        0.08500261604785919,
        0.06977947801351547,
        0.007815192453563213,
        -1.2327148914337158,
        0.03717938810586929,
        -0.09047503024339676,
        -0.048100631684064865,
        -0.07333732396364212,
        0.12220410257577896,
        -0.02320895716547966,
        0.07379774749279022,
        0.1580512970685959,
        0.029742736369371414,
        0.0552307590842247,
        -0.0651697888970375,
        -0.06383314728736877,
        -0.01060838345438242,
        0.005619997624307871,
        -0.025427568703889847,
        -0.11548352241516113,
        -0.05120886489748955,
        -0.0020029235165566206,
        -0.012606664560735226,
        -0.10512672364711761,
        0.004000280983746052,
        -0.03087647631764412,
        -0.0653223767876625,
        -0.008938618004322052,
        0.10156036913394928,
        0.20964820683002472,
        0.004946588072925806,
        -0.06085071712732315,
        -0.016928281635046005,
        -0.052186157554388046,
        -0.011608137749135494,
        -0.03296179696917534,
        0.06908757239580154,
        -0.012952062301337719,
        0.13153494894504547,
        -0.0570613257586956,
        0.015300823375582695,
        0.07629680633544922,
        -0.03011654131114483,
        -0.13440197706222534,
        -0.17905691266059875,
        0.07333137094974518,
        0.07764153927564621,
        -0.1726870834827423,
        0.004154389724135399,
        -0.005456015467643738,
        -0.07626477628946304,
        0.0027661581989377737,
        0.031757086515426636,
        0.05160469561815262,
        -0.06226910278201103,
        0.004604910500347614,
        0.03567744046449661,
        -0.025777870789170265,
        0.058649346232414246,
        -0.5349704623222351,
        0.4293484687805176,
        -0.04692339897155762
      ],
      "sha256_16": "0960aa968c2240df"
    },
    "backbone.encoder.layer.0.intermediate.dense.bias": {
      "shape": [
        1280
      ],
      "dtype": "torch.float32",
      "mean": -0.03020709753036499,
      "std": 0.47623899579048157,
      "absmax": 4.482842445373535,
      "slice": [
        -0.48847663402557373,
        -0.5236634612083435,
        0.017719648778438568,
        -0.8642828464508057,
        0.2942664921283722,
        -0.17591536045074463,
        0.9743310213088989,
        0.8297039270401001,
        -0.16879239678382874,
        -0.028650347143411636,
        0.24056245386600494,
        -0.3254154324531555,
        -0.2345198541879654,
        -0.04856418818235397,
        0.009892274625599384,
        -0.05960765480995178,
        0.07576051354408264,
        -0.02037518471479416,
        -0.015361852943897247,
        0.47997450828552246,
        0.6713953018188477,
        0.3106727600097656,
        -0.09045616537332535,
        0.12677118182182312,
        0.029253501445055008,
        -0.18232546746730804,
        0.028301386162638664,
        0.49531203508377075,
        0.045403458178043365,
        0.4541400372982025,
        -0.019433781504631042,
        -0.5393218994140625,
        -0.3089701533317566,
        -0.18318377435207367,
        0.20646987855434418,
        0.8204967975616455,
        0.12245777249336243,
        -0.8325666785240173,
        -0.13154035806655884,
        -0.042521484196186066,
        0.8693107962608337,
        0.03473793715238571,
        -0.12545053660869598,
        -0.20526598393917084,
        -0.0476098358631134,
        -0.21916240453720093,
        0.27393537759780884,
        0.09399932622909546,
        -0.16874685883522034,
        -0.0857970118522644,
        -0.00957129430025816,
        -0.1513994187116623,
        -0.2968405485153198,
        0.111307293176651,
        -0.06793403625488281,
        -0.08917073905467987,
        0.029896866530179977,
        1.024277925491333,
        0.24334514141082764,
        -1.7471896409988403,
        0.03760417923331261,
        0.05531258508563042,
        -0.05533677712082863,
        -0.14022618532180786
      ],
      "sha256_16": "c34064bc160b4c77"
    },
    "backbone.encoder.layer.0.output.dense.weight": {
      "shape": [
        320,
        1280
      ],
      "dtype": "torch.float32",
      "mean": -7.688067960032186e-09,
      "std": 0.20920594036579132,
      "absmax": 3.954352378845215,
      "slice": [
        0.32119885087013245,
        0.2604653835296631,
        0.2977495789527893,
        -0.01961730793118477,
        0.20864659547805786,
        0.3326658010482788,
        -0.44112372398376465,
        0.12826918065547943,
        0.38854148983955383,
        0.006216053385287523,
        0.30220651626586914,
        -0.12444523721933365,
        0.4480302333831787,
        0.4680858552455902,
        0.19591237604618073,
        0.37572160363197327,
        0.4668327569961548,
        0.37434816360473633,
        0.11310724914073944,
        0.4635884165763855,
        -0.5442084670066833,
        0.3384552001953125,
        0.26628735661506653,
        0.17480933666229248,
        0.006467044353485107,
        0.26633578538894653,
        0.15264137089252472,
        0.12238936871290207,
        0.3381045162677765,
        0.17179453372955322,
        0.46861761808395386,
        0.30588626861572266,
        -0.003219584934413433,
        0.41124284267425537,
        0.18239423632621765,
        0.012868735939264297,
        0.35514944791793823,
        -0.2617460787296295,
        0.27068573236465454,
        0.4340358376502991,
        -0.37419426441192627,
        0.3602112829685211,
        -0.3145335912704468,
        0.0647578239440918,
        0.42249688506126404,
        0.11497227847576141,
        -0.23918987810611725,
        0.28301623463630676,
        0.26748618483543396,
        0.4525884985923767,
        0.01430877111852169,
        0.4439292848110199,
        0.44631093740463257,
        0.11037362366914749,
        -0.0010857104789465666,
        0.39914917945861816,
        -0.29513123631477356,
        -0.17231059074401855,
        0.36281415820121765,
        -0.7088948488235474,
        0.2088787704706192,
        0.21136058866977692,
        0.27431684732437134,
        -0.1433429718017578
      ],
      "sha256_16": "d1c6dae03ec073a9"
    },
    "backbone.encoder.layer.0.output.dense.bias": {
      "shape": [
        320
      ],
      "dtype": "torch.float32",
      "mean": 9.164214276324856e-08,
      "std": 1.7229608297348022,
      "absmax": 6.377753257751465,
      "slice": [
        -3.0345458984375,
        -0.31115061044692993,
        3.3841545581817627,
        -3.1827478408813477,
        0.2119627445936203,
        -1.032047986984253,
        0.705880343914032,
        0.34958702325820923,
        1.423710584640503,
        -0.21798865497112274,
        0.03159765899181366,
        0.5119932889938354,
        1.9926103353500366,
        3.1724071502685547,
        -1.1090021133422852,
        -1.106948971748352,
        0.11208054423332214,
        0.06822410225868225,
        0.23615266382694244,
        -0.4113585650920868,
        -0.09812727570533752,
        1.6401764154434204,
        3.572408437728882,
        1.3605997562408447,
        1.2733834981918335,
        -0.9694913625717163,
        -0.8582865595817566,
        -2.021317958831787,
        -0.039185166358947754,
        -0.37927109003067017,
        0.368565171957016,
        1.7321510314941406,
        -0.5132591128349304,
        0.2778186798095703,
        0.9960628747940063,
        2.3562722206115723,
        0.07913385331630707,
        -3.216904401779175,
        -1.4118263721466064,
        -0.12768658995628357,
        0.35934245586395264,
        -1.43264901638031,
        0.6485271453857422,
        -1.2716245651245117,
        1.6227866411209106,
        -0.5879981517791748,
        -4.255919933319092,
        1.8238985538482666,
        0.6893892288208008,
        -1.2505048513412476,
        -2.8494768142700195,
        -1.8324251174926758,
        0.40294894576072693,
        1.8072781562805176,
        1.3759738206863403,
        2.68833327293396,
        0.2866867184638977,
        -1.755612850189209,
        -3.0213730335235596,
        -3.58683443069458,
        -2.2364983558654785,
        2.5402965545654297,
        -5.069652557373047,
        -1.1378991603851318
      ],
      "sha256_16": "d391a04aac75b011"
    },
    "backbone.encoder.layer.0.LayerNorm.weight": {
      "shape": [
        320
      ],
      "dtype": "torch.float32",
      "mean": -0.4007789194583893,
      "std": 1.499997854232788,
      "absmax": 9.83877182006836,
      "slice": [
        0.8787249326705933,
        -1.4984110593795776,
        -0.9277747273445129,
        -1.9171123504638672,
        -0.750491201877594,
        9.589786529541016,
        -0.41820859909057617,
        -1.0462063550949097,
        0.17864197492599487,
        -0.5465635657310486,
        -0.011239584535360336,
        -1.0722888708114624,
        -0.9822263717651367,
        -1.9326045513153076,
        -1.6973322629928589,
        -0.7462142705917358,
        -2.8000736236572266,
        -1.214232325553894,
        -0.8813247084617615,
        -0.5080915689468384,
        0.2110285460948944,
        -1.306593894958496,
        0.7822235822677612,
        -1.3768484592437744,
        -3.111938238143921,
        -1.0704455375671387,
        -1.452001929283142,
        0.18368667364120483,
        0.7810837626457214,
        -0.03141564130783081,
        1.5268076658248901,
        -3.8994455337524414,
        -1.130518913269043,
        -0.11039531230926514,
        -2.5548508167266846,
        -0.8924950361251831,
        -0.9315999150276184,
        0.4631556272506714,
        -1.1797510385513306,
        -0.03106793761253357,
        -0.978305459022522,
        1.4882252216339111,
        0.44202062487602234,
        0.9856777191162109,
        -2.6061086654663086,
        -3.5969045162200928,
        -3.634927988052368,
        -0.7421095371246338,
        0.7962011098861694,
        -2.247884750366211,
        -0.49162906408309937,
        0.6045341491699219,
        2.6480724811553955,
        -1.661035180091858,
        -0.29617783427238464,
        1.8831655979156494,
        -0.5108014941215515,
        2.842754602432251,
        -0.8498879671096802,
        -1.209515929222107,
        -0.27085158228874207,
        3.0257856845855713,
        1.5518416166305542,
        -0.40649110078811646
      ],
      "sha256_16": "d3cfe9eaf8a15616"
    },
    "backbone.encoder.layer.0.LayerNorm.bias": {
      "shape": [
        320
      ],
      "dtype": "torch.float32",
      "mean": -0.10132155567407608,
      "std": 1.9155497550964355,
      "absmax": 5.305495738983154,
      "slice": [
        1.8976597785949707,
        4.639856338500977,
        -0.3037826418876648,
        0.9647135734558105,
        -4.87432861328125,
        2.690445899963379,
        -2.9075491428375244,
        -1.2587263584136963,
        -1.7964227199554443,
        0.2342594861984253,
        3.194244384765625,
        -2.4732580184936523,
        0.21427446603775024,
        0.5658962726593018,
        0.24584154784679413,
        4.121225357055664,
        -0.5069820284843445,
        0.7734367847442627,
        -1.5156817436218262,
        0.5227615833282471,
        -0.28206124901771545,
        -2.4748175144195557,
        0.683292031288147,
        0.19033023715019226,
        1.421795129776001,
        -2.369330644607544,
        -0.3793703615665436,
        -0.11981743574142456,
        1.5587568283081055,
        -0.9520524144172668,
        2.269575357437134,
        3.866866111755371,
        -3.8301634788513184,
        4.396115303039551,
        2.6292426586151123,
        -0.11313503980636597,
        1.4775643348693848,
        1.4326753616333008,
        0.8615195751190186,
        -0.6684896349906921,
        2.009443998336792,
        3.502411127090454,
        2.3496508598327637,
        0.25631844997406006,
        -3.4549784660339355,
        -3.7157461643218994,
        -3.2086758613586426,
        2.4191102981567383,
        -1.1001191139221191,
        -0.9240719079971313,
        -4.266855716705322,
        -0.6032641530036926,
        2.0478196144104004,
        0.9107943773269653,
        0.14507178962230682,
        -3.130885124206543,
        -1.1992847919464111,
        3.5795979499816895,
        2.9576478004455566,
        1.5072879791259766,
        -0.7643533945083618,
        1.8251703977584839,
        -0.5336443185806274,
        -0.4765419661998749
      ],
      "sha256_16": "2739d3fb76409a60"
    },
    "backbone.encoder.layer.1.attention.self.query.weight": {
      "shape": [
        320,
        320
      ],
      "dtype": "torch.float32",
      "mean": 2.9020045531069627e-06,
      "std": 0.03783116117119789,
      "absmax": 2.633878231048584,
      "slice": [
        -0.002418861025944352,
        0.0062522138468921185,
        0.016108280047774315,
        0.016172097995877266,
        0.00579254562035203,
        0.0248650461435318,
        0.002457456896081567,
        0.007555440068244934,
        0.007776932325214148,
        0.010657355189323425,
        -0.033185891807079315,
        0.017863305285573006,
        -0.0030182721093297005,
        -0.003779955441132188,
        -0.021193353459239006,
        0.02992883138358593,
        -0.021029427647590637,
        0.015326827764511108,
        -0.002061661798506975,
        0.005487187299877405,
        0.0037296744994819164,
        0.005425405688583851,
        0.00957115925848484,
        0.014222171157598495,
        -0.027094576507806778,
        0.0021758556831628084,
        -0.016803935170173645,
        -0.001754552824422717,
        0.0004225644515827298,
        0.00029696166166104376,
        -0.006528670433908701,
        0.048333846032619476,
        -0.005496129859238863,
        -0.03777290880680084,
        0.012605349533259869,
        -0.02449432946741581,
        0.009455875493586063,
        -0.016103219240903854,
        0.0018399687251076102,
        0.010544746182858944,
        0.003768227994441986,
        0.007241143845021725,
        -0.019782913848757744,
        -0.03305775672197342,
        0.0028707748278975487,
        0.010571138001978397,
        -0.002037837402895093,
        -0.01638648472726345,
        -0.005733005702495575,
        0.03578445315361023,
        0.01940745674073696,
        -0.0170078594237566,
        0.00015107828949112445,
        -0.02216457575559616,
        0.01771211437880993,
        -0.02753019519150257,
        0.001384228584356606,
        -0.0295187346637249,
        0.01642495207488537,
        -0.010252333246171474,
        -0.0037932901177555323,
        -0.0017894688062369823,
        -0.1513853520154953,
        0.023567819967865944
      ],
      "sha256_16": "4fe67877793fa739"
    },
    "backbone.encoder.layer.1.attention.self.query.bias": {
      "shape": [
        320
      ],
      "dtype": "torch.float32",
      "mean": 0.0006571096600964665,
      "std": 0.14208586513996124,
      "absmax": 0.9119301438331604,
      "slice": [
        0.04517412185668945,
        -0.41488897800445557,
        0.364288866519928,
        0.25197142362594604,
        0.015797097235918045,
        -0.03985397517681122,
        -0.033017419278621674,
        -0.01950661838054657,
        0.176018625497818,
        -0.04293108731508255,
        -0.027771607041358948,
        -0.18932954967021942,
        -0.11751406639814377,
        0.05336909741163254,
        -0.08435826748609543,
        0.10326902568340302,
        -0.03391952067613602,
        -0.044003285467624664,
        0.018549002707004547,
        -0.07298583537340164,
        0.006498756818473339,
        0.024450214579701424,
        -0.028539547696709633,
        0.008094629272818565,
        0.13510340452194214,
        -0.008577515371143818,
        0.05996829643845558,
        0.10948897153139114,
        -0.007823747582733631,
        0.0013999085640534759,
        0.002139914780855179,
        0.012741286307573318,
        0.002572705503553152,
        0.08712393045425415,
        -0.029531462118029594,
        0.08304433524608612,
        -0.01443270593881607,
        0.24578483402729034,
        0.03157922625541687,
        -0.1703108251094818,
        -0.017516307532787323,
        -0.03597421199083328,
        -0.045627813786268234,
        0.018233049660921097,
        -0.012921396642923355,
        -0.15574102103710175,
        -0.27974846959114075,
        0.2504536211490631,
        0.5837498903274536,
        0.025283869355916977,
        -0.16679666936397552,
        0.05162809044122696,
        0.09305623918771744,
        0.000992791261523962,
        0.0031715393997728825,
        -0.07077475637197495,
        0.12296009063720703,
        0.13147935271263123,
        0.007552429102361202,
        0.06322863698005676,
        0.034803349524736404,
        0.06691738963127136,
        0.009829657152295113,
        -0.034326259046792984
      ],
      "sha256_16": "7626a8889c0c8f03"
    },
    "backbone.encoder.layer.1.attention.self.key.weight": {
      "shape": [
        320,
        320
      ],
      "dtype": "torch.float32",
      "mean": 2.404602309979964e-05,
      "std": 0.0508871003985405,
      "absmax": 2.3042893409729004,
      "slice": [
        0.01192169263958931,
        0.01931324414908886,
        -0.008129269815981388,
        0.02009802684187889,
        0.031710751354694366,
        0.057223692536354065,
        -0.0320843905210495,
        -0.017341002821922302,
        -0.007531759794801474,
        0.019817085936665535,
        0.019238457083702087,
        0.009911608882248402,
        -0.010614079423248768,
        -0.007226748391985893,
        0.008231453597545624,
        -0.023068472743034363,
        -0.007239098660647869,
        0.05070829764008522,
        0.02409849688410759,
        0.0023350392002612352,
        -0.037351008504629135,
        0.009822625666856766,
        0.004494963679462671,
        0.021949494257569313,
        -0.0018608140526339412,
        0.004730834160000086,
        -0.036044247448444366,
        -0.029222726821899414,
        -0.006861142814159393,
        0.0021218075416982174,
        0.01214293297380209,
        0.08583208173513412,
        0.023565497249364853,
        -0.030701851472258568,
        -0.021781334653496742,
        0.024173766374588013,
        0.0071952505968511105,
        -0.03709311783313751,
        -0.03831779956817627,
        0.015188323333859444,
        0.005095231346786022,
        -5.9437450545374304e-05,
        0.009346037171781063,
        -0.0028672360349446535,
        -0.015589171089231968,
        -0.004415164701640606,
        0.025586657226085663,
        0.0249363724142313,
        0.011053984984755516,
        0.016666129231452942,
        -0.012154652737081051,
        -0.028938602656126022,
        0.0771101787686348,
        -0.0003553806454874575,
        0.023020410910248756,
        0.05137794092297554,
        -0.04462885111570358,
        0.0025743753649294376,
        0.05202097445726395,
        0.002368518617004156,
        -0.012968180701136589,
        -0.0014662423636764288,
        -0.21768970787525177,
        -0.029706301167607307
      ],
      "sha256_16": "c740a796f248d20a"
    },
    "backbone.encoder.layer.1.attention.self.key.bias": {
      "shape": [
        320
      ],
      "dtype": "torch.float32",
      "mean": -0.006050695665180683,
      "std": 0.09812688082456589,
      "absmax": 0.8243265748023987,
      "slice": [
        0.07722150534391403,
        0.30354544520378113,
        0.04465567320585251,
        -0.11113269627094269,
        -0.03250102326273918,
        0.0064784083515405655,
        -0.0041596125811338425,
        0.0023817699402570724,
        0.12137206643819809,
        -0.17021521925926208,
        0.03752904385328293,
        0.00057988241314888,
        0.01828901283442974,
        0.013776935636997223,
        0.00424734503030777,
        0.0004263147711753845,
        0.0030447011813521385,
        -0.03868935629725456,
        -0.012367140501737595,
        -0.061273615807294846,
        0.0015009779017418623,
        0.0021977005526423454,
        0.0009041605517268181,
        -2.158014103770256e-05,
        0.03166184574365616,
        0.035993482917547226,
        0.03155270218849182,
        -0.0005065922159701586,
        0.014977853745222092,
        0.004393199924379587,
        -0.0020879623480141163,
        0.0006014571990817785,
        -0.01890227012336254,
        -0.029748301953077316,
        -0.004732873290777206,
        -0.1819557100534439,
        -0.020515456795692444,
        -0.022709473967552185,
        0.0005669668316841125,
        0.0020739510655403137,
        0.021731890738010406,
        -0.013982618227601051,
        -0.06193827465176582,
        -0.0958758294582367,
        0.028282055631279945,
        -0.01871631294488907,
        0.003999490290880203,
        0.0012027472257614136,
        0.02451290190219879,
        -0.11268332600593567,
        0.10680896043777466,
        -0.041120100766420364,
        -0.009384721517562866,
        5.95971941947937e-05,
        0.00047063129022717476,
        0.00017954688519239426,
        -0.44603705406188965,
        0.018016129732131958,
        -0.007049622945487499,
        0.01688440330326557,
        0.005314572714269161,
        -0.0025174051988869905,
        -0.0002914806827902794,
        -0.0002015046775341034
      ],
      "sha256_16": "79aa09375d5db738"
    },
    "backbone.encoder.layer.1.attention.self.value.weight": {
      "shape": [
        320,
        320
      ],
      "dtype": "torch.float32",
      "mean": -4.211164196021855e-05,
      "std": 0.5547460913658142,
      "absmax": 20.285701751708984,
      "slice": [
        0.09391049295663834,
        -0.06487402319908142,
        0.0162016861140728,
        0.0722460225224495,
        -0.011891404166817665,
        -0.043452005833387375,
        -0.08588104695081711,
        -0.028124680742621422,
        0.12534913420677185,
        0.06352768838405609,
        0.006464989855885506,
        -0.11572835594415665,
        0.09204120934009552,
        0.014812463894486427,
        0.11829636245965958,
        -0.048406362533569336,
        0.14389586448669434,
        0.004507671110332012,
        -0.04280073195695877,
        0.015582622028887272,
        -0.0288283359259367,
        -0.001812948496080935,
        -0.00196335231885314,
        0.025885503739118576,
        -0.017142631113529205,
        -0.004185929428786039,
        -0.011997431516647339,
        -0.05618847534060478,
        -0.013468111865222454,
        -0.036527324467897415,
        -0.05037008970975876,
        -0.2390059381723404,
        0.018310625106096268,
        -0.06358116120100021,
        0.054839737713336945,
        0.0915340855717659,
        0.10180675983428955,
        0.15187697112560272,
        -0.013170597143471241,
        -0.11236132681369781,
        -0.014987117610871792,
        0.009414603002369404,
        -0.0038607274182140827,
        0.05199218541383743,
        -0.06225094199180603,
        -0.030826114118099213,
        -0.08623578399419785,
        0.11649726331233978,
        -0.012765255756676197,
        -0.1038077250123024,
        -0.05974053964018822,
        -0.01552167534828186,
        -0.06648476421833038,
        0.07629308849573135,
        0.015811650082468987,
        0.012590810656547546,
        -0.0020606108009815216,
        -0.006679459474980831,
        0.11454165726900101,
        0.07490376383066177,
        0.05264618992805481,
        0.04803464934229851,
        0.9819591045379639,
        -0.10742969065904617
      ],
      "sha256_16": "5ce4e131af70eed5"
    },
    "backbone.encoder.layer.1.attention.self.value.bias": {
      "shape": [
        320
      ],
      "dtype": "torch.float32",
      "mean": -0.15671506524085999,
      "std": 2.295341730117798,
      "absmax": 7.171902179718018,
      "slice": [
        -0.3344065248966217,
        -2.0760042667388916,
        -0.8128921985626221,
        4.0583176612854,
        0.5727678537368774,
        2.021876096725464,
        -1.4693272113800049,
        0.2197209596633911,
        -1.429548740386963,
        -0.741783857345581,
        0.7961568236351013,
        3.178222179412842,
        -1.0589113235473633,
        0.8866903185844421,
        0.015073716640472412,
        0.7701897621154785,
        3.712139844894409,
        -1.720668077468872,
        -0.9116709232330322,
        -0.7301550507545471,
        1.450029730796814,
        -0.6347029805183411,
        2.5760133266448975,
        -1.0421230792999268,
        2.64485502243042,
        -0.5301719903945923,
        -1.3267769813537598,
        1.9911904335021973,
        -2.9328513145446777,
        -0.9099636077880859,
        5.159549236297607,
        1.7750523090362549,
        2.305840492248535,
        3.0116045475006104,
        0.0865895003080368,
        0.25220787525177,
        -4.959120273590088,
        -0.04338303208351135,
        -0.6147278547286987,
        0.6305112242698669,
        1.4704275131225586,
        -3.287179708480835,
        -0.8390069007873535,
        3.5059452056884766,
        -1.4433377981185913,
        1.347454309463501,
        1.4837716817855835,
        -3.4913086891174316,
        0.255985826253891,
        4.083688735961914,
        -2.4614791870117188,
        -1.2341597080230713,
        -2.3322184085845947,
        -2.0870068073272705,
        -0.36290186643600464,
        1.307328224182129,
        -0.3389734923839569,
        -0.9125819206237793,
        -0.12852318584918976,
        -0.03409335017204285,
        -3.4241294860839844,
        1.1932950019836426,
        -1.390093445777893,
        -2.1825103759765625
      ],
      "sha256_16": "ff984f36dec594c1"
    },
    "backbone.encoder.layer.1.attention.output.dense.weight": {
      "shape": [
        320,
        320
      ],
      "dtype": "torch.float32",
      "mean": -7.264315815547207e-10,
      "std": 0.24510298669338226,
      "absmax": 2.053806781768799,
      "slice": [
        -0.06326895207166672,
        0.18939857184886932,
        0.05888846144080162,
        -0.06244077906012535,
        -0.06302136927843094,
        0.009338846430182457,
        0.0396297462284565,
        -0.021546822041273117,
        -0.019207904115319252,
        0.12734483182430267,
        -0.04163409769535065,
        0.13891614973545074,
        -0.05810555815696716,
        0.030025186017155647,
        -0.012472817674279213,
        0.08553493022918701,
        0.0014718365855515003,
        0.06839067488908768,
        -0.2461778223514557,
        0.03861720860004425,
        0.13290658593177795,
        -0.08201931416988373,
        -0.12898264825344086,
        0.16432350873947144,
        -0.16550904512405396,
        -0.04736023768782616,
        0.01114899292588234,
        0.3469620645046234,
        0.13489241898059845,
        -0.1474858820438385,
        -0.14064545929431915,
        -0.025509368628263474,
        -0.05348649621009827,
        -0.03996977210044861,
        0.11184032261371613,
        -0.012919469736516476,
        0.015922147780656815,
        0.15089930593967438,
        0.025661377236247063,
        -0.0664217472076416,
        -0.15459661185741425,
        -0.006123168859630823,
        0.0505032017827034,
        0.08741403371095657,
        0.12451355159282684,
        0.04318759962916374,
        0.20947732031345367,
        -0.05345367640256882,
        0.03457409515976906,
        -0.05165259167551994,
        -0.06846082955598831,
        -0.07107140123844147,
        -0.03361890837550163,
        0.11873766779899597,
        -0.047220952808856964,
        0.014831005595624447,
        -0.051948487758636475,
        -0.0023271034006029367,
        -0.027194323018193245,
        0.03354131430387497,
        0.08456800878047943,
        -0.02839522436261177,
        -0.03459518402814865,
        -0.02668786235153675
      ],
      "sha256_16": "461d21ab3941cf87"
    },
    "backbone.encoder.layer.1.attention.output.dense.bias": {
      "shape": [
        320
      ],
      "dtype": "torch.float32",
      "mean": 8.046627186786282e-08,
      "std": 1.93340003490448,
      "absmax": 6.368131637573242,
      "slice": [
        -0.41330486536026,
        -3.467244863510132,
        2.025428295135498,
        -2.9274919033050537,
        1.8809244632720947,
        -0.10398946702480316,
        0.14911986887454987,
        -0.5864745378494263,
        0.40596774220466614,
        0.5688492059707642,
        -3.5264546871185303,
        1.2016857862472534,
        0.5826084613800049,
        3.8221824169158936,
        -3.0532071590423584,
        -0.27660036087036133,
        -0.8327217698097229,
        0.6113201975822449,
        4.692574977874756,
        -1.0597772598266602,
        -1.3755910396575928,
        -1.2232930660247803,
        2.238640069961548,
        1.7059992551803589,
        2.0777289867401123,
        1.3427386283874512,
        0.16084171831607819,
        -3.496910333633423,
        1.2195701599121094,
        -3.6907284259796143,
        2.5887465476989746,
        1.690921664237976,
        -0.9854238033294678,
        3.361706256866455,
        5.215174674987793,
        -0.11796142160892487,
        0.40416669845581055,
        -1.5320922136306763,
        -0.25765419006347656,
        0.5276607275009155,
        0.6157176494598389,
        -1.121960163116455,
        0.4943915605545044,
        -0.6451805233955383,
        0.20080816745758057,
        -2.6399364471435547,
        -1.3568694591522217,
        0.2650250494480133,
        -1.726833462715149,
        -2.415069103240967,
        -3.017552375793457,
        -3.6053805351257324,
        2.4296083450317383,
        0.3635708689689636,
        1.3175667524337769,
        0.428591251373291,
        -1.012455940246582,
        2.534977674484253,
        -1.8408952951431274,
        0.2800813615322113,
        -3.7329676151275635,
        3.0817103385925293,
        -5.259004592895508,
        0.6601049304008484
      ],
      "sha256_16": "e423e592b8e586cf"
    },
    "backbone.encoder.layer.1.attention.LayerNorm.weight": {
      "shape": [
        320
      ],
      "dtype": "torch.float32",
      "mean": 0.17055627703666687,
      "std": 1.4495760202407837,
      "absmax": 11.60672378540039,
      "slice": [
        -0.8618758916854858,
        -0.27402910590171814,
        -1.0009156465530396,
        0.5013967752456665,
        0.39982590079307556,
        -0.9914402961730957,
        -0.07585626095533371,
        -0.31175023317337036,
        0.2659165859222412,
        0.1112862154841423,
        -2.7411351203918457,
        -0.012474504299461842,
        1.0202550888061523,
        -1.836142897605896,
        -0.744645357131958,
        -0.06355131417512894,
        0.5566086769104004,
        -0.24989736080169678,
        -2.331935405731201,
        -0.10932125151157379,
        -0.12024737894535065,
        0.3924825191497803,
        -0.15131151676177979,
        -0.532066822052002,
        0.9616628885269165,
        -1.1323542594909668,
        1.4272122383117676,
        0.19324550032615662,
        0.10996051877737045,
        1.2535557746887207,
        0.4918518662452698,
        2.670008897781372,
        -0.08522912859916687,
        -0.0011091679334640503,
        1.2394108772277832,
        2.6246509552001953,
        0.4607856869697571,
        1.3804302215576172,
        1.331038475036621,
        -0.11474195122718811,
        -0.07485665380954742,
        0.6859917640686035,
        -0.9461420774459839,
        -0.6486759781837463,
        -0.834058940410614,
        2.781247615814209,
        -3.3224682807922363,
        -0.9918544292449951,
        1.227522611618042,
        0.05072769522666931,
        0.30015912652015686,
        -0.1472008228302002,
        -4.2497429847717285,
        -0.6248435378074646,
        -0.17041322588920593,
        0.603054404258728,
        0.6602166891098022,
        0.16469305753707886,
        -0.21558111906051636,
        -2.233161211013794,
        -0.08972866088151932,
        -1.950118064880371,
        11.60672378540039,
        -0.1257491260766983
      ],
      "sha256_16": "7f360a7f0001fe7e"
    },
    "backbone.encoder.layer.1.attention.LayerNorm.bias": {
      "shape": [
        320
      ],
      "dtype": "torch.float32",
      "mean": 0.07305941730737686,
      "std": 3.0558297634124756,
      "absmax": 9.967024803161621,
      "slice": [
        -4.312435626983643,
        5.776376724243164,
        2.307084560394287,
        -0.41744548082351685,
        -2.49289870262146,
        -1.1905628442764282,
        1.0737167596817017,
        1.3571248054504395,
        1.5539977550506592,
        -1.4572820663452148,
        6.64121150970459,
        -1.157510757446289,
        2.3365869522094727,
        -1.2940038442611694,
        3.0228869915008545,
        -1.2718451023101807,
        1.695096731185913,
        -0.681864857673645,
        -6.366649627685547,
        0.7595553398132324,
        2.0889012813568115,
        4.8933329582214355,
        2.0985677242279053,
        -0.5966384410858154,
        -1.2841838598251343,
        -3.817124366760254,
        -1.801013708114624,
        2.614074945449829,
        -2.1865978240966797,
        5.338372707366943,
        -3.689605951309204,
        0.8852360844612122,
        1.0290441513061523,
        -5.431354522705078,
        -7.193446636199951,
        3.9667234420776367,
        -0.6197106838226318,
        -2.9694137573242188,
        -2.3429744243621826,
        -0.8966631293296814,
        -0.1810964047908783,
        -0.23677974939346313,
        0.20225584506988525,
        -1.0023059844970703,
        2.6553282737731934,
        4.267550468444824,
        -6.1363701820373535,
        2.970644950866699,
        5.048297882080078,
        1.8020509481430054,
        -0.023559603840112686,
        2.6461594104766846,
        -3.8488717079162598,
        2.331010103225708,
        -0.023386269807815552,
        4.094081401824951,
        2.093829393386841,
        -6.573010444641113,
        -1.734687089920044,
        -5.465387344360352,
        3.2517921924591064,
        -1.2555108070373535,
        -1.135633111000061,
        -3.246957778930664
      ],
      "sha256_16": "e82f196f1e46d037"
    },
    "backbone.encoder.layer.1.intermediate.dense.weight": {
      "shape": [
        1280,
        320
      ],
      "dtype": "torch.float32",
      "mean": 2.813086666719755e-06,
      "std": 0.17386873066425323,
      "absmax": 19.700084686279297,
      "slice": [
        -0.0638618916273117,
        0.05849269777536392,
        -0.05468171462416649,
        0.009920849464833736,
        0.0058772084303200245,
        -0.08828980475664139,
        -0.004437436815351248,
        0.22171038389205933,
        -0.051955774426460266,
        -0.13326500356197357,
        0.08737269043922424,
        0.05321922153234482,
        0.061268847435712814,
        -0.11049995571374893,
        -0.07322408258914948,
        0.0874950960278511,
        -0.01779158227145672,
        0.05945053696632385,
        -0.024670924991369247,
        0.005113217514008284,
        -0.1346399486064911,
        0.03703516349196434,
        -0.3643314242362976,
        -0.07944033294916153,
        -0.01918059028685093,
        0.23833030462265015,
        -0.012467962689697742,
        0.0434388667345047,
        0.2004007250070572,
        -0.012471450492739677,
        0.0053435624577105045,
        -0.5686052441596985,
        0.01608659140765667,
        -0.07195576280355453,
        0.08999008685350418,
        0.0870169922709465,
        -0.13335993885993958,
        -0.11745986342430115,
        -0.0800735130906105,
        -0.02272188849747181,
        0.05593029409646988,
        0.055218085646629333,
        -0.17866088449954987,
        0.12750817835330963,
        0.009767268784344196,
        -0.022301191464066505,
        -0.10000307112932205,
        0.016217654570937157,
        0.2283393293619156,
        -0.10772702842950821,
        -0.026815811172127724,
        -0.05029802396893501,
        -0.1787441074848175,
        -0.11313390731811523,
        -0.02333926409482956,
        0.02912982366979122,
        -0.20495514571666718,
        -0.06727535277605057,
        0.019385719671845436,
        -0.03436161205172539,
        0.009077848866581917,
        -0.41347143054008484,
        1.9044827222824097,
        0.18951164186000824
      ],
      "sha256_16": "649354becfeb6ea6"
    },
    "backbone.encoder.layer.1.intermediate.dense.bias": {
      "shape": [
        1280
      ],
      "dtype": "torch.float32",
      "mean": 0.0010143216932192445,
      "std": 0.4541305601596832,
      "absmax": 5.552358627319336,
      "slice": [
        -0.5217280983924866,
        -0.1176183745265007,
        0.16428212821483612,
        -0.3112584054470062,
        -0.4745199382305145,
        0.006739623844623566,
        0.2148115038871765,
        0.07458815723657608,
        0.055000245571136475,
        0.801817774772644,
        -0.04711141064763069,
        -0.18706411123275757,
        -0.4960925281047821,
        0.020325759425759315,
        -0.34359705448150635,
        -0.9088009595870972,
        0.3651241064071655,
        0.15989910066127777,
        -0.0030326396226882935,
        -0.017613979056477547,
        -0.13477392494678497,
        0.055810365825891495,
        0.035275332629680634,
        0.21357685327529907,
        -0.041199952363967896,
        0.292477011680603,
        0.0075968969613313675,
        0.19157670438289642,
        -1.2984131574630737,
        -0.11266526579856873,
        -0.12027330696582794,
        0.43423134088516235,
        0.16383907198905945,
        -0.03498498722910881,
        -0.05747923254966736,
        -0.10435451567173004,
        -0.02667367272078991,
        0.08095525950193405,
        -0.27402329444885254,
        0.09169457852840424,
        -0.34238386154174805,
        -0.19311337172985077,
        -0.2924165725708008,
        0.6544502377510071,
        -0.04551805928349495,
        -0.26174575090408325,
        -0.1171693503856659,
        0.0002256032166769728,
        0.0762532576918602,
        0.05659695714712143,
        0.021011631935834885,
        0.5122680068016052,
        0.09062358736991882,
        -0.011803236790001392,
        0.15263132750988007,
        -0.11099011451005936,
        0.0893186554312706,
        -0.0686786025762558,
        -0.17127364873886108,
        -1.013991117477417,
        -0.07053136825561523,
        1.3202050467953086e-05,
        -0.07779617607593536,
        -0.051504842936992645
      ],
      "sha256_16": "df1e0ee14e43594b"
    },
    "backbone.encoder.layer.1.output.dense.weight": {
      "shape": [
        320,
        1280
      ],
      "dtype": "torch.float32",
      "mean": -6.854534273514901e-09,
      "std": 0.20314660668373108,
      "absmax": 2.78882098197937,
      "slice": [
        0.06356660276651382,
        0.1283986121416092,
        0.09413368999958038,
        0.0005019477102905512,
        0.046270858496427536,
        0.07340305298566818,
        -0.15140196681022644,
        0.03186870738863945,
        0.03514581918716431,
        0.0944535955786705,
        0.11755691468715668,
        -0.003169473959133029,
        -0.04655114933848381,
        0.02304704673588276,
        -0.0060471463948488235,
        0.08596531301736832,
        0.07643597573041916,
        0.04659377783536911,
        0.08033449947834015,
        0.055840618908405304,
        0.2421923577785492,
        0.11671142280101776,
        0.009881137870252132,
        0.04381641000509262,
        0.11911579221487045,
        -0.07934048771858215,
        0.07864245027303696,
        0.08704035729169846,
        -0.12011831998825073,
        0.14862078428268433,
        0.004593878984451294,
        -0.15478749573230743,
        0.022320525720715523,
        0.13750262558460236,
        0.04645342752337456,
        0.08479449152946472,
        0.09137900173664093,
        0.11657911539077759,
        -0.023845987394452095,
        0.09692409634590149,
        0.06956864893436432,
        0.10657666623592377,
        -0.010581867769360542,
        0.011905881576240063,
        0.0837412104010582,
        0.03737114742398262,
        0.02612980268895626,
        4.2360152292530984e-05,
        0.05046192184090614,
        -0.0014461432583630085,
        0.03584684804081917,
        -0.2860190272331238,
        0.031039129942655563,
        0.005780765321105719,
        0.10028880834579468,
        0.005701359827071428,
        -0.019032198935747147,
        0.06381169706583023,
        0.046547673642635345,
        -0.5748822689056396,
        0.07407539337873459,
        -2.2068744609526902e-09,
        -0.0026241964660584927,
        0.14536432921886444
      ],
      "sha256_16": "3a1db26f6f41f1cf"
    },
    "backbone.encoder.layer.1.output.dense.bias": {
      "shape": [
        320
      ],
      "dtype": "torch.float32",
      "mean": 1.0728835775353218e-07,
      "std": 2.080739736557007,
      "absmax": 6.105792045593262,
      "slice": [
        -0.6805276274681091,
        -3.7239794731140137,
        1.7172508239746094,
        -3.4405508041381836,
        1.3202074766159058,
        -0.924919068813324,
        1.3910413980484009,
        -2.228174924850464,
        2.6040477752685547,
        1.6027178764343262,
        -3.83079195022583,
        1.3478081226348877,
        -0.953444242477417,
        5.0269060134887695,
        -0.3111836314201355,
        -1.8104619979858398,
        -2.390359401702881,
        2.160541296005249,
        4.173008918762207,
        -1.7499611377716064,
        -3.1417365074157715,
        -2.051048517227173,
        2.5529870986938477,
        1.9557156562805176,
        0.6757863163948059,
        -0.3419773578643799,
        1.6444156169891357,
        -1.8454605340957642,
        1.2976561784744263,
        -3.9755029678344727,
        1.9890947341918945,
        0.7773386240005493,
        -1.1195156574249268,
        1.7178349494934082,
        4.374887466430664,
        0.1847650706768036,
        0.5633119344711304,
        -0.8866345882415771,
        -1.1905796527862549,
        -0.09178119897842407,
        0.004403341561555862,
        -1.1605181694030762,
        -0.3498651385307312,
        -1.644040822982788,
        0.3241170346736908,
        -2.0398306846618652,
        -5.155120849609375,
        1.0667176246643066,
        -4.2688307762146,
        -2.507214069366455,
        -3.1621859073638916,
        -4.185276508331299,
        -0.05302199721336365,
        0.04791688919067383,
        0.6184367537498474,
        0.6263854503631592,
        0.4796617031097412,
        3.1852011680603027,
        -3.522939443588257,
        1.016356348991394,
        -2.8467767238616943,
        1.9213626384735107,
        -5.150312900543213,
        0.3585447371006012
      ],
      "sha256_16": "b95a75e603e7b0e1"
    },
    "backbone.encoder.layer.1.LayerNorm.weight": {
      "shape": [
        320
      ],
      "dtype": "torch.float32",
      "mean": 0.036340244114398956,
      "std": 0.9337149858474731,
      "absmax": 9.446964263916016,
      "slice": [
        0.1437498778104782,
        0.13163191080093384,
        -0.3744173049926758,
        -0.00791570357978344,
        -0.3153313398361206,
        0.28515902161598206,
        0.12942032516002655,
        0.06410901248455048,
        -0.4850827157497406,
        -0.4707505702972412,
        -0.10942083597183228,
        0.19774670898914337,
        -0.4767131209373474,
        -1.662219762802124,
        -0.2178238034248352,
        -0.6148231625556946,
        0.3758549988269806,
        0.7531701326370239,
        0.6100634932518005,
        0.6841332316398621,
        -0.49034440517425537,
        -0.0312710776925087,
        0.20486202836036682,
        0.09347476065158844,
        0.27750611305236816,
        0.07423504441976547,
        0.8553628921508789,
        -0.1479278802871704,
        0.43001729249954224,
        0.20267274975776672,
        -0.24929216504096985,
        2.9600353240966797,
        0.3797560930252075,
        0.20056113600730896,
        -0.252019464969635,
        -0.03259633108973503,
        -0.5613402128219604,
        -0.5860150456428528,
        0.9038039445877075,
        -0.2040412276983261,
        -0.2777203917503357,
        -0.05898362770676613,
        0.4665268063545227,
        0.3405812382698059,
        0.38362735509872437,
        -0.697533369064331,
        5.31897497177124,
        0.39338377118110657,
        -0.8185936212539673,
        0.15417569875717163,
        -0.07113378494977951,
        0.08648410439491272,
        1.028577208518982,
        -0.8241576552391052,
        -0.12251739948987961,
        -0.7383456230163574,
        0.17629273235797882,
        -0.06901337206363678,
        0.37941083312034607,
        -0.1691819280385971,
        -0.001833118498325348,
        2.1049001216888428,
        5.104652404785156,
        -0.6476673483848572
      ],
      "sha256_16": "3e597c598a9cc328"
    },
    "backbone.encoder.layer.1.LayerNorm.bias": {
      "shape": [
        320
      ],
      "dtype": "torch.float32",
      "mean": -0.08113019168376923,
      "std": 1.2087551355361938,
      "absmax": 5.6079511642456055,
      "slice": [
        0.17662307620048523,
        0.1978023499250412,
        0.2794749140739441,
        0.47194766998291016,
        0.5486200451850891,
        0.7945665121078491,
        -1.546934962272644,
        1.3748382329940796,
        -2.2755820751190186,
        -1.0735819339752197,
        0.20097345113754272,
        -0.24618372321128845,
        1.628904104232788,
        -1.54739248752594,
        -2.8865325450897217,
        1.2738479375839233,
        1.5201668739318848,
        -1.6876294612884521,
        0.5668623447418213,
        0.6547563672065735,
        1.4740442037582397,
        0.6400165557861328,
        -0.3120860457420349,
        -0.26087072491645813,
        1.3079994916915894,
        1.3488553762435913,
        -2.084557056427002,
        -1.750618577003479,
        -0.2308167815208435,
        0.20398326218128204,
        0.6116145849227905,
        1.1603095531463623,
        0.15529263019561768,
        2.0712502002716064,
        0.9115326404571533,
        -0.34328845143318176,
        -0.20682355761528015,
        -0.7260293364524841,
        1.1276607513427734,
        0.6336231231689453,
        0.40692079067230225,
        -0.028286844491958618,
        0.7720450758934021,
        0.871474027633667,
        -0.1608051061630249,
        -0.8342105150222778,
        5.6079511642456055,
        -0.8791381120681763,
        2.764216423034668,
        0.07746310532093048,
        0.21975131332874298,
        0.46060651540756226,
        2.7156319618225098,
        0.3399985134601593,
        0.5531144142150879,
        -0.2972951829433441,
        -1.612908959388733,
        -0.8535524606704712,
        1.763938307762146,
        -0.7740615606307983,
        -1.0287795066833496,
        1.1326444149017334,
        -0.5304080843925476,
        0.17601025104522705
      ],
      "sha256_16": "fbb48f888c60ad39"
    },
    "backbone.encoder.layer.2.attention.self.query.weight": {
      "shape": [
        320,
        320
      ],
      "dtype": "torch.float32",
      "mean": -0.00014848382852505893,
      "std": 0.045397114008665085,
      "absmax": 4.591972351074219,
      "slice": [
        -0.002059632446616888,
        -0.0032579938415437937,
        -0.003868505358695984,
        0.004489230923354626,
        0.0018864335725083947,
        0.004033551085740328,
        0.0012508367653936148,
        -0.0025770138017833233,
        0.001875269110314548,
        0.008430341258645058,
        0.0030851836781948805,
        -0.0048935310915112495,
        0.009474183432757854,
        -0.004222892224788666,
        0.0003683093236759305,
        0.0006163470097817481,
        0.009652048349380493,
        0.0004044071538373828,
        0.004172454588115215,
        -0.0043618143536150455,
        0.005442680325359106,
        -0.000508950965013355,
        -0.002904975786805153,
        0.0015050327638164163,
        0.0014604092575609684,
        -0.0021713743917644024,
        -0.00532391294836998,
        0.0015927249332889915,
        -0.003697172272950411,
        0.00217617629095912,
        0.00360771338455379,
        -0.001293425215408206,
        -0.0025460871402174234,
        0.012606383301317692,
        -0.0011842979583889246,
        0.005677379202097654,
        -0.002316062804311514,
        0.003975264728069305,
        -0.004193478263914585,
        -0.01295831985771656,
        -0.008376700803637505,
        -0.008051362819969654,
        0.004432912915945053,
        -0.0016967813717201352,
        0.004070911556482315,
        0.004173019900918007,
        0.0024702518712729216,
        -0.004707018844783306,
        0.0011893605114892125,
        -0.006920304149389267,
        -0.007415030617266893,
        -0.0029679134022444487,
        -0.010156077332794666,
        0.004130055196583271,
        -0.002242322312667966,
        0.011301339603960514,
        -0.004702838137745857,
        -0.00501914881169796,
        0.0015999057795852423,
        -0.003657342167571187,
        0.001100793364457786,
        -0.00014082396228332072,
        0.01513067539781332,
        0.005910232197493315
      ],
      "sha256_16": "9b836dc244e2fe82"
    },
    "backbone.encoder.layer.2.attention.self.query.bias": {
      "shape": [
        320
      ],
      "dtype": "torch.float32",
      "mean": 0.00631824741140008,
      "std": 0.11782070994377136,
      "absmax": 0.8046119809150696,
      "slice": [
        -0.004940382670611143,
        -0.035388946533203125,
        0.041784610599279404,
        -0.2103138267993927,
        0.01975877210497856,
        0.13103753328323364,
        0.10907222330570221,
        0.1740228533744812,
        0.01118921022862196,
        -0.049117349088191986,
        0.0670715719461441,
        0.4418206214904785,
        -0.2873917818069458,
        0.22865869104862213,
        0.07378789782524109,
        0.0396210253238678,
        -0.2313898205757141,
        0.020829660817980766,
        0.057049382477998734,
        0.004144728183746338,
        0.023150183260440826,
        -0.02471117116510868,
        0.018625911325216293,
        0.0026961883995682,
        -0.08273493498563766,
        -0.1457773745059967,
        -0.07646201550960541,
        -0.037507299333810806,
        0.01566997542977333,
        0.032381292432546616,
        0.003885147627443075,
        -0.028279036283493042,
        0.01872052252292633,
        -0.007161635905504227,
        -0.1036422997713089,
        0.14257875084877014,
        0.11576294898986816,
        0.03890892118215561,
        0.08706612139940262,
        0.006524980068206787,
        0.02145082876086235,
        -0.09392862021923065,
        -0.08233489096164703,
        -0.09386695176362991,
        0.0846477672457695,
        -0.016673320904374123,
        -0.08964622020721436,
        0.008560240268707275,
        0.8046119809150696,
        0.18446457386016846,
        -0.04361562803387642,
        -0.041291493922472,
        0.06781761348247528,
        0.04897525906562805,
        -0.022730618715286255,
        0.036996856331825256,
        0.016116369515657425,
        0.020680252462625504,
        -0.1114477813243866,
        -0.12657730281352997,
        -0.021447500213980675,
        0.02715938538312912,
        -0.05188365280628204,
        0.03555283322930336
      ],
      "sha256_16": "127a702dc5c21faa"
    },
    "backbone.encoder.layer.2.attention.self.key.weight": {
      "shape": [
        320,
        320
      ],
      "dtype": "torch.float32",
      "mean": 0.00016981111548375338,
      "std": 0.07267962396144867,
      "absmax": 3.4706337451934814,
      "slice": [
        0.02488633617758751,
        -0.02175445854663849,
        -0.018298950046300888,
        0.0036413767375051975,
        -0.018778566271066666,
        0.005417570937424898,
        -0.004522745963186026,
        0.00428993534296751,
        -0.0025005601346492767,
        -0.01814601756632328,
        0.015432820655405521,
        -0.007518736179918051,
        0.009913982823491096,
        0.018694251775741577,
        0.015304375439882278,
        -0.010239308699965477,
        -0.017466716468334198,
        0.005232899449765682,
        0.011029143817722797,
        -0.0040349275805056095,
        -0.018712393939495087,
        -0.0003224919782951474,
        -0.011251659132540226,
        -0.01309141144156456,
        0.03147047385573387,
        -0.033940475434064865,
        -0.011758437380194664,
        0.00040228141006082296,
        -0.037365350872278214,
        0.0075994995422661304,
        -0.003539455123245716,
        0.0020767326932400465,
        0.005653668660670519,
        0.011478968895971775,
        -0.006992085836827755,
        0.006869147531688213,
        -0.025438128039240837,
        -0.021022260189056396,
        -0.029384780675172806,
        0.019049933180212975,
        -0.005181832239031792,
        -7.212008313217666e-06,
        -0.003962916787713766,
        0.010838134214282036,
        0.009780501946806908,
        -0.01495728176087141,
        0.01924421265721321,
        0.02190394327044487,
        -0.013656754046678543,
        0.016375143080949783,
        0.009417972527444363,
        0.021461591124534607,
        0.03373006731271744,
        -0.009023633785545826,
        0.020859669893980026,
        0.0032277307473123074,
        -0.006561972200870514,
        0.0024350020103156567,
        -9.963756747310981e-05,
        -0.006531020160764456,
        -0.0005471701151691377,
        0.007612296845763922,
        -0.0914166197180748,
        0.010298713110387325
      ],
      "sha256_16": "5ded28f6337f66f2"
    },
    "backbone.encoder.layer.2.attention.self.key.bias": {
      "shape": [
        320
      ],
      "dtype": "torch.float32",
      "mean": -0.006333238445222378,
      "std": 0.0776270255446434,
      "absmax": 0.6117878556251526,
      "slice": [
        0.02123343013226986,
        0.006679221987724304,
        0.02017892897129059,
        -0.31593576073646545,
        0.11852705478668213,
        0.013835899531841278,
        8.681416511535645e-05,
        -0.0002564042806625366,
        0.012802345678210258,
        -0.07336846739053726,
        -0.07133755832910538,
        -0.02496419847011566,
        -0.17945243418216705,
        -0.010705739259719849,
        -0.0050474777817726135,
        -0.0009112246334552765,
        0.23975461721420288,
        0.08196801692247391,
        0.0786403939127922,
        0.0050889356061816216,
        -0.0016858824528753757,
        -0.0014718337915837765,
        8.38148407638073e-05,
        -0.00034431484527885914,
        -0.13428866863250732,
        0.031538769602775574,
        0.0363050177693367,
        0.014862562529742718,
        -0.002729203784838319,
        -0.002671052934601903,
        -0.0005702080670744181,
        0.00040723278652876616,
        0.01821224018931389,
        -0.054199568927288055,
        0.06848219037055969,
        -0.06709751486778259,
        -0.0087937256321311,
        -0.0002913437783718109,
        0.00023277848958969116,
        0.00031920522451400757,
        0.03958737105131149,
        6.906641647219658e-05,
        -0.09992605447769165,
        0.009465087205171585,
        -0.007320042699575424,
        -0.003204851411283016,
        0.000187690369784832,
        -0.00048677902668714523,
        -0.6117878556251526,
        -0.14357967674732208,
        -0.039089806377887726,
        0.0025522708892822266,
        0.00045601819874718785,
        -1.4703779015690088e-05,
        5.3519499488174915e-05,
        -2.6600435376167297e-05,
        -0.12023048102855682,
        -0.019503362476825714,
        0.0022783309686928988,
        0.0022297650575637817,
        0.0005805636756122112,
        -0.00016484549269080162,
        -3.750337054952979e-05,
        1.1721160262823105e-05
      ],
      "sha256_16": "5b2542e13c9c9aa9"
    },
    "backbone.encoder.layer.2.attention.self.value.weight": {
      "shape": [
        320,
        320
      ],
      "dtype": "torch.float32",
      "mean": -0.0019356091506779194,
      "std": 0.7273674607276917,
      "absmax": 52.90092086791992,
      "slice": [
        -0.12082129716873169,
        0.04242593050003052,
        0.29130083322525024,
        -0.04291313514113426,
        -0.09381313621997833,
        -0.02515179105103016,
        0.15740466117858887,
        0.2009679079055786,
        -0.08252355456352234,
        -0.19941650331020355,
        0.15816830098628998,
        0.27496102452278137,
        -0.24038654565811157,
        -0.3435722291469574,
        -0.1763400137424469,
        0.4602227509021759,
        -0.032083019614219666,
        -0.16963423788547516,
        -0.03305012360215187,
        -0.08148761093616486,
        0.016025839373469353,
        -0.018760044127702713,
        0.10914638638496399,
        -0.24677130579948425,
        -0.43818455934524536,
        0.18770451843738556,
        0.3133220672607422,
        -0.10809807479381561,
        0.13842585682868958,
        0.08171296864748001,
        -0.04746028035879135,
        -0.34849974513053894,
        -0.03928498551249504,
        -0.28991177678108215,
        -0.05862710252404213,
        -0.049588631838560104,
        0.1992063969373703,
        0.022131964564323425,
        -0.3573680520057678,
        -0.2889581322669983,
        -0.21463245153427124,
        -0.02744103968143463,
        -0.09296634048223495,
        -0.024393469095230103,
        -0.02654857374727726,
        -0.045253753662109375,
        -0.3344547152519226,
        -0.1371130645275116,
        -0.1640639454126358,
        -0.1325378268957138,
        -0.13847622275352478,
        0.03247671201825142,
        -0.4962281286716461,
        0.12389656156301498,
        -0.18751169741153717,
        0.022702524438500404,
        0.022592512890696526,
        -0.05494489148259163,
        0.05572664737701416,
        -0.16293537616729736,
        -0.14995798468589783,
        -0.31647318601608276,
        4.89860725402832,
        0.19717571139335632
      ],
      "sha256_16": "58c1e70829806c71"
    },
    "backbone.encoder.layer.2.attention.self.value.bias": {
      "shape": [
        320
      ],
      "dtype": "torch.float32",
      "mean": 0.08610163629055023,
      "std": 2.1860873699188232,
      "absmax": 9.9913330078125,
      "slice": [
        -0.9011279940605164,
        2.3921351432800293,
        1.451905608177185,
        -1.124761939048767,
        1.2043209075927734,
        1.2444226741790771,
        -0.931358814239502,
        3.643167734146118,
        -2.0848193168640137,
        1.8149285316467285,
        1.015782356262207,
        2.3296473026275635,
        1.461050033569336,
        0.3885074257850647,
        -0.2407621145248413,
        2.3842105865478516,
        1.5340495109558105,
        -3.2663168907165527,
        1.7774477005004883,
        2.0861878395080566,
        -0.900615394115448,
        -1.349203109741211,
        2.799522876739502,
        -1.9818850755691528,
        1.1908655166625977,
        0.8534952998161316,
        -4.454423904418945,
        1.1466269493103027,
        1.3646278381347656,
        1.020581841468811,
        0.822364091873169,
        -1.2048628330230713,
        -2.670766830444336,
        2.430459976196289,
        -0.9772813320159912,
        -1.2503103017807007,
        -0.5977447032928467,
        -1.267796277999878,
        3.2488064765930176,
        0.6371034979820251,
        0.1246938705444336,
        -1.689073920249939,
        0.22639790177345276,
        -0.10045693814754486,
        2.1274495124816895,
        -0.6800855398178101,
        2.466742753982544,
        -1.5296918153762817,
        -7.659018516540527,
        1.9864475727081299,
        6.5435075759887695,
        4.966514587402344,
        -1.3923945426940918,
        0.002733848989009857,
        3.6561105251312256,
        -5.843878746032715,
        1.225142002105713,
        1.5873222351074219,
        -3.7725372314453125,
        -7.218988418579102,
        -2.361551523208618,
        1.2300058603286743,
        1.049866795539856,
        5.588916778564453
      ],
      "sha256_16": "8e316ea66ce97531"
    },
    "backbone.encoder.layer.2.attention.output.dense.weight": {
      "shape": [
        320,
        320
      ],
      "dtype": "torch.float32",
      "mean": 1.7695128695649487e-10,
      "std": 0.3283076584339142,
      "absmax": 2.878112316131592,
      "slice": [
        -0.3311028480529785,
        0.02451189234852791,
        0.012175566516816616,
        0.085354283452034,
        0.5759305953979492,
        -0.23039066791534424,
        0.20547978579998016,
        0.33042579889297485,
        -0.2515179216861725,
        0.21392405033111572,
        0.16631577908992767,
        0.16296875476837158,
        0.1677115261554718,
        -0.4706884026527405,
        0.5644567012786865,
        0.3244859278202057,
        -0.0549212209880352,
        0.07447505742311478,
        -0.19929589331150055,
        0.11406569927930832,
        -0.20705467462539673,
        0.006694397423416376,
        -0.03347335755825043,
        -0.1650041788816452,
        -0.03667018562555313,
        -0.05022861808538437,
        0.03525733947753906,
        0.2231379598379135,
        0.7020915746688843,
        0.14364948868751526,
        -0.275020569562912,
        0.12877820432186127,
        0.1026899442076683,
        0.2725161910057068,
        -0.38216930627822876,
        -0.01403704471886158,
        0.09449882060289383,
        -0.022065261378884315,
        -0.439285546541214,
        -0.003675041953101754,
        -0.07224425673484802,
        -0.31175071001052856,
        0.013951039873063564,
        -0.06350195407867432,
        0.16028736531734467,
        0.10058434307575226,
        0.19800373911857605,
        -0.1790807694196701,
        -0.131251722574234,
        -0.25865092873573303,
        -0.03213264420628548,
        -0.1723690629005432,
        -0.0494423508644104,
        -0.08642387390136719,
        -0.11590668559074402,
        -0.0890103429555893,
        -0.07257423549890518,
        0.16875284910202026,
        -0.28393396735191345,
        -0.2324252873659134,
        0.32512661814689636,
        0.13578376173973083,
        -0.1862553209066391,
        -0.03687393292784691
      ],
      "sha256_16": "1bdcf818b5529a2c"
    },
    "backbone.encoder.layer.2.attention.output.dense.bias": {
      "shape": [
        320
      ],
      "dtype": "torch.float32",
      "mean": 8.046627186786282e-08,
      "std": 2.030752182006836,
      "absmax": 6.968756675720215,
      "slice": [
        -0.7923952341079712,
        -2.6873552799224854,
        0.9681268334388733,
        -2.2494287490844727,
        2.6164355278015137,
        -1.0805617570877075,
        0.5390921235084534,
        -2.80228853225708,
        -2.4511606693267822,
        2.2064602375030518,
        -3.65742564201355,
        3.3338541984558105,
        1.6491460800170898,
        4.212875843048096,
        -0.11355753242969513,
        -1.1140860319137573,
        -1.4154983758926392,
        0.15001671016216278,
        3.5390405654907227,
        -3.403998374938965,
        -1.4855189323425293,
        -0.5383216142654419,
        5.7819437980651855,
        -1.8689204454421997,
        -0.6767646670341492,
        0.7341421842575073,
        -0.38837045431137085,
        -0.20231051743030548,
        -2.187312126159668,
        -1.9559111595153809,
        0.16997823119163513,
        0.39175570011138916,
        -0.29032331705093384,
        1.4783607721328735,
        4.324305534362793,
        0.8548677563667297,
        3.465118408203125,
        -0.27783259749412537,
        -2.5236141681671143,
        -3.071354389190674,
        -1.1452491283416748,
        1.1345276832580566,
        1.2826576232910156,
        -1.3270814418792725,
        -0.31347954273223877,
        -0.1611911952495575,
        -6.968756675720215,
        0.45168817043304443,
        -2.0842723846435547,
        -1.735383152961731,
        -2.6541805267333984,
        -0.7066858410835266,
        -1.6976017951965332,
        -1.6872633695602417,
        0.5307741165161133,
        2.339252233505249,
        1.3248698711395264,
        1.057645320892334,
        -0.639195442199707,
        1.9367269277572632,
        -3.182952880859375,
        -0.3802063465118408,
        -4.434709548950195,
        -0.6617149114608765
      ],
      "sha256_16": "889b446b4e4f25d6"
    },
    "backbone.encoder.layer.2.attention.LayerNorm.weight": {
      "shape": [
        320
      ],
      "dtype": "torch.float32",
      "mean": -0.1260068267583847,
      "std": 1.0542128086090088,
      "absmax": 4.047459602355957,
      "slice": [
        0.2893812358379364,
        0.1401861310005188,
        0.3940970301628113,
        -0.4938108026981354,
        -0.21385399997234344,
        -0.1454661786556244,
        0.5853056907653809,
        0.419513076543808,
        0.5107572674751282,
        -0.3367980122566223,
        0.031660325825214386,
        -0.09998571872711182,
        -1.597393274307251,
        -0.24311766028404236,
        -0.10720880329608917,
        -0.2937386929988861,
        0.6724327206611633,
        -2.0925633907318115,
        -0.20844417810440063,
        -0.7253440022468567,
        2.0854945182800293,
        -1.0696048736572266,
        -1.2030274868011475,
        -0.32210075855255127,
        0.05785675346851349,
        0.016690343618392944,
        -1.4231746196746826,
        -1.5333950519561768,
        -2.6539297103881836,
        -0.9062235355377197,
        -0.8501642346382141,
        -0.13167792558670044,
        -0.9453949928283691,
        0.33864736557006836,
        -0.019902043044567108,
        -0.03551854193210602,
        -0.9869590997695923,
        -0.4633290767669678,
        -0.5906915068626404,
        0.7725386619567871,
        -0.06310449540615082,
        -0.1510964334011078,
        0.05384263023734093,
        -0.5979272127151489,
        -0.12860892713069916,
        -1.3253724575042725,
        1.7009068727493286,
        -0.11901302635669708,
        -0.44188445806503296,
        -0.27744871377944946,
        0.06856203079223633,
        -1.0289053916931152,
        0.6935125589370728,
        0.5991573929786682,
        -0.3349716067314148,
        -0.29018402099609375,
        -0.09981316328048706,
        -1.2264243364334106,
        -2.2530107498168945,
        -0.09195154905319214,
        -0.1975424885749817,
        0.0830705463886261,
        3.1282589435577393,
        0.15591827034950256
      ],
      "sha256_16": "0e536ae5e4659386"
    },
    "backbone.encoder.layer.2.attention.LayerNorm.bias": {
      "shape": [
        320
      ],
      "dtype": "torch.float32",
      "mean": -0.49456262588500977,
      "std": 2.587691068649292,
      "absmax": 7.234041213989258,
      "slice": [
        0.08595788478851318,
        -2.0785930156707764,
        0.4547581672668457,
        -2.1899774074554443,
        -2.4587976932525635,
        -0.5812234282493591,
        0.8471747636795044,
        0.24113571643829346,
        6.548835277557373,
        -1.4488508701324463,
        -1.093665599822998,
        -3.4885201454162598,
        -4.388136863708496,
        0.698483943939209,
        -0.8340566158294678,
        -1.6169486045837402,
        -1.9960013628005981,
        2.8858819007873535,
        0.17820978164672852,
        1.9067707061767578,
        -2.715380907058716,
        -2.906977653503418,
        -5.732933521270752,
        5.560934066772461,
        1.0494433641433716,
        -1.5669608116149902,
        2.612759590148926,
        -3.0052011013031006,
        4.889309883117676,
        -3.369835615158081,
        2.3069372177124023,
        -0.15105918049812317,
        -1.9967867136001587,
        -0.1675574779510498,
        -0.8323778510093689,
        -1.5930137634277344,
        -5.444558143615723,
        -1.2127015590667725,
        1.7551519870758057,
        4.058207035064697,
        1.2507153749465942,
        -4.28701114654541,
        -2.750155448913574,
        -1.0517818927764893,
        0.3441457152366638,
        -3.3095765113830566,
        2.665182113647461,
        0.2840397357940674,
        -3.9882264137268066,
        -1.7057452201843262,
        -1.2091398239135742,
        -5.285708904266357,
        2.193953037261963,
        2.1400561332702637,
        -0.5920494794845581,
        -3.4088497161865234,
        -1.45713472366333,
        2.9252405166625977,
        -5.413325786590576,
        -1.6944990158081055,
        0.1325780749320984,
        3.6071081161499023,
        -0.21014323830604553,
        1.2626343965530396
      ],
      "sha256_16": "b062eca9558cb09f"
    },
    "backbone.encoder.layer.2.intermediate.dense.weight": {
      "shape": [
        1280,
        320
      ],
      "dtype": "torch.float32",
      "mean": 0.00040139653719961643,
      "std": 0.3839435875415802,
      "absmax": 33.104217529296875,
      "slice": [
        -0.02349347434937954,
        0.005494757555425167,
        -0.09780816733837128,
        0.08470704406499863,
        0.060354605317115784,
        0.05505440756678581,
        0.08288903534412384,
        -0.08477906882762909,
        -0.012953918427228928,
        0.13373304903507233,
        0.09551215916872025,
        0.03799382969737053,
        0.09178483486175537,
        0.05024508386850357,
        -0.04686972498893738,
        -0.06761658191680908,
        0.0024391841143369675,
        -0.05194375291466713,
        -0.006579582579433918,
        0.005512597505003214,
        -0.04018514230847359,
        -0.04396160691976547,
        0.04567442834377289,
        0.03971698880195618,
        0.02209017053246498,
        -0.10038026422262192,
        -0.006857078056782484,
        0.10529176145792007,
        0.03435556963086128,
        -0.04035601764917374,
        -0.01793896034359932,
        0.1310155689716339,
        -0.01682739332318306,
        0.008341055363416672,
        0.013832257129251957,
        0.014112787321209908,
        0.12846703827381134,
        0.012539337389171124,
        0.040578823536634445,
        0.029321890324354172,
        0.08046069741249084,
        0.023255206644535065,
        0.016620615497231483,
        -0.007296530529856682,
        0.06912936270236969,
        0.04400961846113205,
        0.08919012546539307,
        0.06130875647068024,
        0.006072975229471922,
        0.011722395196557045,
        -0.013110343366861343,
        0.029661057516932487,
        0.01856565661728382,
        0.016833404079079628,
        0.030376354232430458,
        -0.01744726300239563,
        0.007180787157267332,
        0.00787820853292942,
        0.05516302213072777,
        0.12921077013015747,
        0.03655132278800011,
        -0.005262899212539196,
        -1.60056471824646,
        -0.09363152086734772
      ],
      "sha256_16": "720922d7c46c799e"
    },
    "backbone.encoder.layer.2.intermediate.dense.bias": {
      "shape": [
        1280
      ],
      "dtype": "torch.float32",
      "mean": -0.025717083364725113,
      "std": 0.781650722026825,
      "absmax": 4.42122745513916,
      "slice": [
        0.22547927498817444,
        -0.0047864350490272045,
        -0.38989266753196716,
        0.8156677484512329,
        -0.22484685480594635,
        -0.4613240659236908,
        -0.3770717978477478,
        1.7360528707504272,
        -0.6605373024940491,
        -1.174775242805481,
        0.2057601511478424,
        -0.3956129550933838,
        -0.10022037476301193,
        -0.0026527747977524996,
        0.005855846218764782,
        -0.016324257478117943,
        0.015533357858657837,
        1.7759443521499634,
        0.1871083676815033,
        -0.1642048954963684,
        0.10518331080675125,
        0.022378943860530853,
        -0.432341068983078,
        -1.0444047451019287,
