{
  "meta": {
    "device": "cpu",
    "seed": 1234,
    "dtype": "model-default",
    "loss": "adapter.loss_fn",
    "loss_value": 133737.84375,
    "model_id": "InstaDeepAI/nucleotide-transformer-v2-50m-multi-species (dev: full EsmForMaskedLM)",
    "torch_version": "2.11.0+cpu",
    "num_grad_tensors": 177
  },
  "env_lock": "env/versions.txt",
  "outputs": {
    "[0]": {
      "shape": [
        2,
        64,
        4107
      ],
      "dtype": "torch.float32",
      "mean": 0.25491729378700256,
      "std": 2.562128782272339,
      "absmax": 31.607128143310547,
      "slice": [
        -7.546306610107422,
        -7.488999366760254,
        -7.540517330169678,
        2.19882869720459,
        -7.5730204582214355,
        -7.545892715454102,
        5.518369674682617,
        3.0237045288085938,
        3.4485280513763428,
        5.897043704986572,
        2.2106735706329346,
        2.5870015621185303,
        2.929534435272217,
        3.3276820182800293,
        3.1847543716430664,
        2.4341042041778564,
        3.0633983612060547,
        4.439727783203125,
        4.394318580627441,
        4.275834083557129,
        2.7018344402313232,
        5.252147674560547,
        1.709513783454895,
        1.657935380935669,
        1.705278754234314,
        2.8180646896362305,
        0.6916133165359497,
        1.2427319288253784,
        0.5875240564346313,
        1.8510228395462036,
        1.4961262941360474,
        1.0219999551773071,
        1.7635385990142822,
        2.3490729331970215,
        1.61674165725708,
        3.2435619831085205,
        0.9544124007225037,
        3.631194591522217,
        2.8607468605041504,
        2.077211856842041,
        1.1797524690628052,
        3.779223918914795,
        0.47800567746162415,
        1.2168300151824951,
        -0.391675740480423,
        1.8585994243621826,
        1.328946590423584,
        0.6302658915519714,
        0.7069459557533264,
        2.386549711227417,
        2.2883546352386475,
        3.413517713546753,
        0.7037379741668701,
        4.2417449951171875,
        4.835505962371826,
        3.3797059059143066,
        2.7310125827789307,
        4.167545795440674,
        3.813131093978882,
        3.9029884338378906,
        3.4478445053100586,
        3.1596434116363525,
        2.9281742572784424,
        1.9024165868759155
      ],
      "sha256_16": "fd7d6d67a500dbff"
    },
    "[1]": {
      "shape": [
        2,
        64,
        512
      ],
      "dtype": "torch.float32",
      "mean": -0.004137534648180008,
      "std": 0.6294742226600647,
      "absmax": 8.628538131713867,
      "slice": [
        -0.08628195524215698,
        0.3455546200275421,
        0.2989546060562134,
        0.15380355715751648,
        0.5709298849105835,
        0.11910131573677063,
        -0.7758181691169739,
        0.05537073314189911,
        0.2651563584804535,
        -0.09121587127447128,
        0.7534008026123047,
        0.6295503377914429,
        0.24418163299560547,
        -0.24069152772426605,
        0.21944588422775269,
        -0.009444143623113632,
        0.2286694198846817,
        0.20387542247772217,
        -0.17679613828659058,
        0.19831237196922302,
        0.1497492641210556,
        0.22034136950969696,
        -0.04087249934673309,
        -0.2629498541355133,
        -0.051557134836912155,
        -0.5489928722381592,
        0.17836257815361023,
        -0.2284383773803711,
        0.409656286239624,
        -0.17597831785678864,
        -0.5774756073951721,
        0.017795313149690628,
        -0.07139529287815094,
        -0.3448190987110138,
        0.19175875186920166,
        0.2985183894634247,
        0.11912091821432114,
        -0.1003398671746254,
        0.3710334897041321,
        0.5829379558563232,
        -0.3722734749317169,
        -0.9486743807792664,
        0.09351584315299988,
        0.06520654261112213,
        -0.9594358205795288,
        -0.09238573163747787,
        -0.07555976510047913,
        0.1395929902791977,
        0.25948601961135864,
        0.25732213258743286,
        -0.34976068139076233,
        -0.11920668929815292,
        0.2536546289920807,
        0.020878469571471214,
        0.07570230215787888,
        -0.5903930068016052,
        -0.1415979564189911,
        -0.20306314527988434,
        0.44945046305656433,
        0.45668256282806396,
        -0.49927306175231934,
        -0.04467695578932762,
        0.1378471851348877,
        0.5117543935775757
      ],
      "sha256_16": "1af5af333d210efe"
    }
  },
  "grads": {
    "model.esm.embeddings.word_embeddings.weight": {
      "shape": [
        4107,
        512
      ],
      "dtype": "torch.float32",
      "mean": 1.3351905137071185e-09,
      "std": 41.02646255493164,
      "absmax": 3180.593994140625,
      "slice": [
        0.0,
        0.0,
        0.0,
        0.0,
        0.0,
        0.0,
        0.0,
        0.0,
        0.0,
        0.0,
        0.0,
        0.0,
        0.0,
        0.0,
        0.0,
        0.0,
        0.0,
        0.0,
        0.0,
        0.0,
        0.0,
        0.0,
        0.0,
        0.0,
        0.0,
        0.0,
        0.0,
        0.0,
        0.0,
        0.0,
        0.0,
        0.0,
        0.0,
        0.0,
        0.0,
        0.0,
        0.0,
        0.0,
        0.0,
        0.0,
        0.0,
        0.0,
        0.0,
        0.0,
        0.0,
        0.0,
        0.0,
        0.0,
        0.0,
        0.0,
        0.0,
        0.0,
        0.0,
        0.0,
        0.0,
        0.0,
        0.0,
        0.0,
        0.0,
        0.0,
        0.0,
        0.0,
        0.0,
        0.0
      ],
      "sha256_16": "722edcae3ab1aea7"
    },
    "model.esm.encoder.layer.0.attention.self.query.weight": {
      "shape": [
        512,
        512
      ],
      "dtype": "torch.float32",
      "mean": 0.0069108325988054276,
      "std": 109.26791381835938,
      "absmax": 1370.759765625,
      "slice": [
        -54.27994155883789,
        79.56864166259766,
        -123.86402130126953,
        -8.044339179992676,
        -14.489982604980469,
        55.75481033325195,
        -242.26626586914062,
        -235.2578582763672,
        -43.79301452636719,
        -7.9610066413879395,
        -140.1250762939453,
        129.33026123046875,
        135.93099975585938,
        29.042306900024414,
        27.12331199645996,
        -64.04899597167969,
        31.943326950073242,
        -21.926855087280273,
        -164.20172119140625,
        -47.81861114501953,
        10.298086166381836,
        -124.0316162109375,
        36.7298469543457,
        -96.0470962524414,
        61.06892013549805,
        88.43455505371094,
        -6.570766925811768,
        19.28844451904297,
        -28.62830352783203,
        -24.58871078491211,
        -14.897062301635742,
        89.55469512939453,
        257.0222473144531,
        -361.8154602050781,
        -99.17124938964844,
        14.360095024108887,
        106.84705352783203,
        -272.14581298828125,
        53.87812805175781,
        -8.338543891906738,
        164.90826416015625,
        -46.048973083496094,
        64.43217468261719,
        -76.6932144165039,
        19.19928741455078,
        84.48179626464844,
        29.05840301513672,
        70.58561706542969,
        45.429420471191406,
        42.90412139892578,
        216.90859985351562,
        10.88313102722168,
        141.5817108154297,
        87.0865478515625,
        207.28134155273438,
        -235.86697387695312,
        105.02781677246094,
        180.22213745117188,
        124.81013488769531,
        -96.89736938476562,
        151.1450653076172,
        33.63106155395508,
        81.57238006591797,
        -21.31554412841797
      ],
      "sha256_16": "b4dc1c135a9b2680"
    },
    "model.esm.encoder.layer.0.attention.self.query.bias": {
      "shape": [
        512
      ],
      "dtype": "torch.float32",
      "mean": -1.194565773010254,
      "std": 315.9236145019531,
      "absmax": 1365.8251953125,
      "slice": [
        -424.9899597167969,
        120.34229278564453,
        33.95130157470703,
        -155.3662872314453,
        -185.8955078125,
        49.71513366699219,
        -294.78314208984375,
        -72.25157165527344,
        -324.59161376953125,
        -107.41658020019531,
        -238.7766571044922,
        -16.144758224487305,
        137.1043701171875,
        428.173583984375,
        577.3341674804688,
        -246.38693237304688,
        -328.20281982421875,
        -295.6712646484375,
        48.22512435913086,
        -17.587980270385742,
        117.466796875,
        248.51266479492188,
        271.5660705566406,
        -170.86181640625,
        -770.9625854492188,
        -796.21435546875,
        -47.708892822265625,
        -288.94171142578125,
        99.13721466064453,
        746.5594482421875,
        69.53573608398438,
        -414.8456115722656,
        -42.341697692871094,
        217.04478454589844,
        -68.81531524658203,
        -303.3090515136719,
        331.74530029296875,
        188.64508056640625,
        -625.5618286132812,
        -381.16473388671875,
        -194.0457000732422,
        538.42333984375,
        -684.8164672851562,
        -620.8538208007812,
        714.7753295898438,
        -579.9732055664062,
        673.9703979492188,
        577.3731689453125,
        -33.162288665771484,
        -232.6851806640625,
        -95.94892883300781,
        -393.960693359375,
        -28.41294288635254,
        153.96669006347656,
        212.97015380859375,
        90.83465576171875,
        -531.0408935546875,
        331.2454528808594,
        291.8956298828125,
        428.542236328125,
        297.1021423339844,
        -240.21804809570312,
        386.620849609375,
        -289.8382568359375
      ],
      "sha256_16": "fa588538de41581c"
    },
    "model.esm.encoder.layer.0.attention.self.key.weight": {
      "shape": [
        512,
        512
      ],
      "dtype": "torch.float32",
      "mean": 0.03937007486820221,
      "std": 84.57177734375,
      "absmax": 666.018310546875,
      "slice": [
        -32.65815353393555,
        -146.35586547851562,
        -77.19351959228516,
        -44.59786605834961,
        -38.195640563964844,
        95.28388977050781,
        -31.137683868408203,
        49.867881774902344,
        -153.13656616210938,
        30.728036880493164,
        41.66029739379883,
        -39.3566780090332,
        58.59308624267578,
        -67.1336669921875,
        -105.6468505859375,
        138.3080596923828,
        -89.84130859375,
        53.12297821044922,
        176.80209350585938,
        138.39706420898438,
        -7.945828437805176,
        -3.981529474258423,
        -157.0222930908203,
        -136.53997802734375,
        112.7073974609375,
        73.01808166503906,
        -93.18502807617188,
        60.09465026855469,
        -62.81303405761719,
        38.78108596801758,
        -26.711965560913086,
        105.54153442382812,
        18.88510513305664,
        -74.92373657226562,
        132.6769561767578,
        50.883663177490234,
        63.24528884887695,
        -21.97968292236328,
        54.634117126464844,
        50.677146911621094,
        3.3126564025878906,
        181.8298797607422,
        16.525434494018555,
        -79.14339447021484,
        -78.19749450683594,
        -45.935768127441406,
        69.1824722290039,
        -104.12937927246094,
        -11.6653413772583,
        14.124168395996094,
        19.7382755279541,
        -64.39524841308594,
        91.9588623046875,
        88.5489273071289,
        35.11635971069336,
        40.348934173583984,
        27.213762283325195,
        14.639117240905762,
        -45.50401306152344,
        -126.86398315429688,
        -2.3095405101776123,
        8.230067253112793,
        -13.459097862243652,
        16.774991989135742
      ],
      "sha256_16": "9fa3e592fd336522"
    },
    "model.esm.encoder.layer.0.attention.self.key.bias": {
      "shape": [
        512
      ],
      "dtype": "torch.float32",
      "mean": 1.8864134550094604,
      "std": 57.97178268432617,
      "absmax": 364.6712646484375,
      "slice": [
        -53.88520050048828,
        -117.38514709472656,
        -67.6758804321289,
        -214.0963897705078,
        93.90867614746094,
        30.979576110839844,
        3.2694597244262695,
        -4.920595645904541,
        -3.3373517990112305,
        2.5804624557495117,
        -0.1250457763671875,
        0.3645286560058594,
        -1.0478262901306152,
        0.23888397216796875,
        -0.3916664123535156,
        0.406459242105484,
        29.348615646362305,
        -28.69130516052246,
        -36.8997688293457,
        130.59735107421875,
        41.26836395263672,
        32.53848648071289,
        -25.996681213378906,
        -4.304469108581543,
        -0.971498966217041,
        3.676144599914551,
        -2.8234710693359375,
        0.29775428771972656,
        -1.4140167236328125,
        -1.1286640167236328,
        -0.09267234802246094,
        -0.6080780029296875,
        156.89537048339844,
        5.9063286781311035,
        -30.669374465942383,
        76.2717056274414,
        68.11339569091797,
        3.944333076477051,
        -9.757007598876953,
        -7.294882774353027,
        8.615161895751953,
        7.6956787109375,
        7.349832534790039,
        -1.1848976612091064,
        3.026947259902954,
        -1.0554256439208984,
        -0.27120399475097656,
        -0.3914461135864258,
        86.23481750488281,
        -79.4715576171875,
        -252.71507263183594,
        79.68439483642578,
        56.80079650878906,
        1.6102867126464844,
        2.577286720275879,
        -31.595937728881836,
        10.542288780212402,
        -1.542398452758789,
        7.520703315734863,
        3.642068386077881,
        -1.0816726684570312,
        2.045616388320923,
        0.42601776123046875,
        -0.2678203582763672
      ],
      "sha256_16": "3dbfdae149acbf8f"
    },
    "model.esm.encoder.layer.0.attention.self.value.weight": {
      "shape": [
        512,
        512
      ],
      "dtype": "torch.float32",
      "mean": 0.1872609406709671,
      "std": 624.2406005859375,
      "absmax": 6180.53076171875,
      "slice": [
        -495.8959655761719,
        101.26229858398438,
        -747.4503784179688,
        46.5928840637207,
        473.0643310546875,
        256.3582763671875,
        -67.01592254638672,
        -43.241729736328125,
        -29.563568115234375,
        -871.5603637695312,
        -200.103271484375,
        115.42118072509766,
        922.3528442382812,
        206.64593505859375,
        -319.34136962890625,
        -372.96246337890625,
        -60.605865478515625,
        651.6046752929688,
        319.2835388183594,
        47.09370040893555,
        1147.547607421875,
        -457.19488525390625,
        116.50703430175781,
        -688.226806640625,
        139.2351837158203,
        234.92800903320312,
        -121.6261978149414,
        212.64358520507812,
        -276.2745056152344,
        -338.3196716308594,
        -30.84846305847168,
        685.34619140625,
        -1025.85888671875,
        -886.1590576171875,
        -432.142578125,
        -286.8951721191406,
        -43.92022705078125,
        -403.89532470703125,
        646.2062377929688,
        -782.3461303710938,
        -281.12127685546875,
        -366.4475402832031,
        -87.36432647705078,
        -130.93190002441406,
        211.4879608154297,
        -498.1859130859375,
        125.41529846191406,
        -81.96674346923828,
        448.51080322265625,
        627.2610473632812,
        381.42596435546875,
        -129.9454803466797,
        351.6565246582031,
        591.4267578125,
        -47.95100402832031,
        -533.7802124023438,
        284.66375732421875,
        -68.02909088134766,
        239.8339080810547,
        -435.91192626953125,
        609.851318359375,
        -280.1221923828125,
        531.4419555664062,
        -371.312255859375
      ],
      "sha256_16": "0a6f40bc28d228c0"
    },
    "model.esm.encoder.layer.0.attention.self.value.bias": {
      "shape": [
        512
      ],
      "dtype": "torch.float32",
      "mean": 70.00826263427734,
      "std": 4315.37255859375,
      "absmax": 14019.580078125,
      "slice": [
        -2771.014404296875,
        4125.93017578125,
        -8919.9296875,
        1353.9295654296875,
        -3273.035888671875,
        -8877.685546875,
        -3709.404296875,
        1654.8876953125,
        3469.01708984375,
        2212.6708984375,
        -1999.0501708984375,
        -153.1102294921875,
        -4065.353759765625,
        3232.448486328125,
        -12166.849609375,
        -2693.525146484375,
        2851.458251953125,
        5984.1533203125,
        -772.413818359375,
        3211.453369140625,
        592.2023315429688,
        -1172.4698486328125,
        9577.052734375,
        -2225.19873046875,
        2447.549072265625,
        5162.9384765625,
        36.18367385864258,
        -3949.884765625,
        1909.9517822265625,
        -10942.1025390625,
        2506.603515625,
        -1076.1710205078125,
        1300.8492431640625,
        1884.1259765625,
        -531.270263671875,
        -626.87646484375,
        -5172.55224609375,
        8206.6181640625,
        2991.317626953125,
        3704.20263671875,
        -4082.553955078125,
        10235.611328125,
        704.7183837890625,
        -3112.04443359375,
        -1185.7918701171875,
        -2306.430419921875,
        4113.11865234375,
        6538.75439453125,
        10021.15625,
        -3226.922119140625,
        320.8646545410156,
        -12742.2939453125,
        -2272.184814453125,
        -2970.06298828125,
        -2878.323486328125,
        4205.81982421875,
        3531.5517578125,
        1361.5157470703125,
        -2832.01123046875,
        8106.1669921875,
        4549.2919921875,
        -349.0958557128906,
        -805.5399169921875,
        2788.642822265625
      ],
      "sha256_16": "84e5f3a4fa35d200"
    },
    "model.esm.encoder.layer.0.attention.output.dense.weight": {
      "shape": [
        512,
        512
      ],
      "dtype": "torch.float32",
      "mean": 0.0,
      "std": 780.60693359375,
      "absmax": 14871.4814453125,
      "slice": [
        -187.32437133789062,
        -624.239501953125,
        7.064913749694824,
        778.8094482421875,
        -97.17596435546875,
        180.5825958251953,
        -552.5418701171875,
        80.16168212890625,
        499.3769226074219,
        387.31842041015625,
        -48.3719596862793,
        -242.944580078125,
        -312.2655944824219,
        680.9622802734375,
        89.0898208618164,
        -659.9253540039062,
        -846.5299072265625,
        -439.78851318359375,
        -209.46334838867188,
        795.8189697265625,
        156.99166870117188,
        284.1833801269531,
        24.561725616455078,
        543.1368408203125,
        226.60414123535156,
        -117.44873046875,
        601.640380859375,
        199.12432861328125,
        -819.9867553710938,
        -119.89950561523438,
        -31.84109115600586,
        -1069.7652587890625,
        -223.22866821289062,
        -509.4177551269531,
        -76.3776626586914,
        -367.53240966796875,
        582.5103149414062,
        -462.5572509765625,
        111.08391571044922,
        266.9234313964844,
        1063.4566650390625,
        -262.6808776855469,
        655.5599365234375,
        -720.099853515625,
        649.6316528320312,
        -791.4278564453125,
        -240.41346740722656,
        19.396484375,
        -60.68960189819336,
        -738.664306640625,
        -296.6304016113281,
        -369.21929931640625,
        -123.27476501464844,
        404.38946533203125,
        574.7484130859375,
        247.10780334472656,
        539.2391357421875,
        368.0596618652344,
        200.8338165283203,
        431.08514404296875,
        479.4791564941406,
        48.18186569213867,
        258.77081298828125,
        333.16571044921875
      ],
      "sha256_16": "4173dfd08238fb72"
    },
    "model.esm.encoder.layer.0.attention.output.dense.bias": {
      "shape": [
        512
      ],
      "dtype": "torch.float32",
      "mean": -2.288818359375e-05,
      "std": 5585.18896484375,
      "absmax": 20205.35546875,
      "slice": [
        3598.124755859375,
        3000.644287109375,
        -355.35028076171875,
        -10459.6484375,
        -3534.021484375,
        2710.792236328125,
        3837.635498046875,
        9057.326171875,
        726.7369384765625,
        1082.6322021484375,
        6982.587890625,
        6624.70166015625,
        -4439.86083984375,
        1289.6807861328125,
        -932.2840576171875,
        -5146.00537109375,
        3905.187744140625,
        -5657.8994140625,
        7141.4853515625,
        6522.65673828125,
        3651.0615234375,
        3751.233154296875,
        717.7349853515625,
        -9385.40234375,
        10073.2890625,
        15045.359375,
        -8899.291015625,
        7661.857421875,
        600.8907470703125,
        -1747.5142822265625,
        34.42938232421875,
        6803.5009765625,
        3336.95166015625,
        5566.36376953125,
        931.843017578125,
        -4009.9052734375,
        3788.780029296875,
        -2571.5244140625,
        -6627.43359375,
        3706.39990234375,
        1860.456298828125,
        -1488.834228515625,
        5247.62841796875,
        -442.0755615234375,
        -1557.90185546875,
        2702.55908203125,
        -2534.435546875,
        757.7630004882812,
        -6190.3857421875,
        1940.95361328125,
        -2524.89990234375,
        5677.4169921875,
        -3553.901123046875,
        1246.795654296875,
        667.65673828125,
        -9168.92578125,
        -343.6503601074219,
        354.1322021484375,
        -69.72651672363281,
        4535.1044921875,
        -615.97412109375,
        612.8400268554688,
        -5157.3623046875,
        6727.92919921875
      ],
      "sha256_16": "dfd1a203e740c301"
    },
    "model.esm.encoder.layer.0.attention.LayerNorm.weight": {
      "shape": [
        512
      ],
      "dtype": "torch.float32",
      "mean": 45.73834991455078,
      "std": 1204.358642578125,
      "absmax": 7147.89990234375,
      "slice": [
        -85.97230529785156,
        636.1444091796875,
        -2057.587890625,
        402.59051513671875,
        290.8981018066406,
        -165.15725708007812,
        978.3386840820312,
        -15.86053466796875,
        -731.5272216796875,
        923.6659545898438,
        -455.7286376953125,
        -708.4561767578125,
        -1670.1893310546875,
        -626.85107421875,
        1929.135498046875,
        967.4620361328125,
        40.2327880859375,
        193.22998046875,
        73.53199005126953,
        153.20700073242188,
        -589.42138671875,
        -570.6773681640625,
        675.5863647460938,
        -2192.606689453125,
        -563.3535766601562,
        572.776611328125,
        -1688.8458251953125,
        -1023.4686279296875,
        1806.149658203125,
        2203.7431640625,
        126.28887939453125,
        93.97158813476562,
        -336.8778381347656,
        -1088.03271484375,
        58.844757080078125,
        515.8055419921875,
        846.2462158203125,
        -992.9567260742188,
        -483.31109619140625,
        359.33636474609375,
        -559.2553100585938,
        -1120.2088623046875,
        633.9180297851562,
        -261.0008850097656,
        -152.94952392578125,
        -872.3384399414062,
        -811.4027709960938,
        1985.74853515625,
        -1554.680908203125,
        1669.9639892578125,
        974.3504638671875,
        2548.124755859375,
        -784.0787353515625,
        1843.958984375,
        -953.9882202148438,
        662.822509765625,
        295.244873046875,
        412.35943603515625,
        -977.3703002929688,
        -1264.766357421875,
        2049.58837890625,
        -503.7699890136719,
        2805.779541015625,
        -579.5
      ],
      "sha256_16": "a8ad913ce0ac8d23"
    },
    "model.esm.encoder.layer.0.attention.LayerNorm.bias": {
      "shape": [
        512
      ],
      "dtype": "torch.float32",
      "mean": -101.15419006347656,
      "std": 4331.11181640625,
      "absmax": 14422.7822265625,
      "slice": [
        657.7449951171875,
        147.740478515625,
        5527.974609375,
        -1247.5076904296875,
        2191.92041015625,
        -2655.011474609375,
        539.0389404296875,
        8886.1416015625,
        1421.50927734375,
        360.8133544921875,
        3934.802734375,
        -3659.343505859375,
        2850.3369140625,
        -8352.16015625,
        5887.44921875,
        4148.60498046875,
        -2968.024658203125,
        902.1226806640625,
        -1889.3355712890625,
        -1494.606201171875,
        352.9009094238281,
        -2540.404541015625,
        5697.328125,
        -3132.282958984375,
        -3472.271728515625,
        6186.13720703125,
        -10539.89453125,
        613.7666015625,
        8375.6953125,
        4451.65185546875,
        4213.322265625,
        -3005.173583984375,
        26.355255126953125,
        5558.45654296875,
        9186.0205078125,
        2083.529296875,
        -4933.443359375,
        -720.0403442382812,
        1110.7686767578125,
        2328.399658203125,
        -3145.085693359375,
        3052.51708984375,
        -4242.71484375,
        1048.2845458984375,
        -3196.479248046875,
        1266.790283203125,
        3581.98583984375,
        6449.7529296875,
        1167.557861328125,
        -4845.9755859375,
        -4212.79052734375,
        6309.60888671875,
        2198.054443359375,
        -2486.216552734375,
        2418.637451171875,
        -4165.41455078125,
        -764.4109497070312,
        -6018.140625,
        724.3533325195312,
        -4846.0546875,
        -7985.9453125,
        -4141.5107421875,
        -6528.86376953125,
        -1909.1531982421875
      ],
      "sha256_16": "edc99440b6cccbec"
    },
    "model.esm.encoder.layer.0.intermediate.dense.weight": {
      "shape": [
        4096,
        512
      ],
      "dtype": "torch.float32",
      "mean": -0.02586372010409832,
      "std": 417.3674011230469,
      "absmax": 5417.2900390625,
      "slice": [
        -417.2191162109375,
        373.6988525390625,
        110.77116394042969,
        -177.3468780517578,
        -106.2747573852539,
        -229.08303833007812,
        1079.38427734375,
        299.5910949707031,
        160.7686767578125,
        168.94256591796875,
        489.2751770019531,
        107.39740753173828,
        -114.8359146118164,
        223.62071228027344,
        155.44769287109375,
        667.4990844726562,
        -51.137451171875,
        -189.48934936523438,
        -3.944469451904297,
        -388.6045227050781,
        605.9517211914062,
        295.47412109375,
        -109.18013000488281,
        243.75054931640625,
        -1048.8916015625,
        176.61019897460938,
        -547.6038818359375,
        -130.97157287597656,
        -228.44261169433594,
        604.3203125,
        47.2072868347168,
        -105.36115264892578,
        -75.65386199951172,
        370.2736511230469,
        -9.429671287536621,
        455.74578857421875,
        -694.5457763671875,
        891.540283203125,
        462.1965637207031,
        -529.0031127929688,
        -292.6857604980469,
        -278.5757141113281,
        -497.070556640625,
        -508.8231201171875,
        -91.42852783203125,
        250.3494873046875,
        303.15374755859375,
        45.18333053588867,
        -662.906005859375,
        3.2513554096221924,
        -174.16587829589844,
        1080.3575439453125,
        290.5267028808594,
        125.91058349609375,
        15.318425178527832,
        -6.762434482574463,
        -476.8372497558594,
        -751.343017578125,
        -263.63433837890625,
        -228.5686798095703,
        138.04946899414062,
        87.41461944580078,
        389.4732971191406,
        226.86666870117188
      ],
      "sha256_16": "28895be5222bb65a"
    },
    "model.esm.encoder.layer.0.output.dense.weight": {
      "shape": [
        512,
        2048
      ],
      "dtype": "torch.float32",
      "mean": 1.7881393432617188e-07,
      "std": 524.4689331054688,
      "absmax": 7338.7470703125,
      "slice": [
        -524.114501953125,
        -217.7500762939453,
        696.4805297851562,
        -433.8831787109375,
        -259.2656555175781,
        -2746.92919921875,
        228.7782440185547,
        -841.653076171875,
        631.4794311523438,
        -72.48663330078125,
        -961.5126342773438,
        -265.50299072265625,
        -317.4193420410156,
        -177.74021911621094,
        -390.84088134765625,
        -266.97930908203125,
        35.767234802246094,
        146.05490112304688,
        -284.9892883300781,
        804.0794067382812,
        96.39064025878906,
        444.939453125,
        431.96917724609375,
        -337.04705810546875,
        -340.9851379394531,
        -537.5700073242188,
        -429.4651794433594,
        442.0525817871094,
        1081.260986328125,
        -501.9044494628906,
        -370.7259521484375,
        1265.696533203125,
        -29.517995834350586,
        -704.287109375,
        466.0721130371094,
        236.01275634765625,
        140.26405334472656,
        28.0474853515625,
        127.68975067138672,
        206.3685760498047,
        77.549560546875,
        -90.697509765625,
        -108.21609497070312,
        -1085.8084716796875,
        61.633995056152344,
        213.75782775878906,
        -210.2998046875,
        600.5388793945312,
        -537.8485717773438,
        -912.9163818359375,
        626.5123901367188,
        -116.53724670410156,
        -9.241046905517578,
        -589.416015625,
        905.1031494140625,
        -1177.94189453125,
        -347.9112243652344,
        2383.2431640625,
        -1088.85888671875,
        -705.06103515625,
        -23.347244262695312,
        -658.34326171875,
        -321.7447814941406,
        715.2175903320312
      ],
      "sha256_16": "65e4608a376ff6d1"
    },
    "model.esm.encoder.layer.0.LayerNorm.weight": {
      "shape": [
        512
      ],
      "dtype": "torch.float32",
      "mean": -282.6909484863281,
      "std": 2181.915771484375,
      "absmax": 9655.4755859375,
      "slice": [
        -5271.41845703125,
        -2954.573486328125,
        -1892.7608642578125,
        -1919.3759765625,
        -166.35194396972656,
        -3222.1376953125,
        -43.07267379760742,
        526.982666015625,
        61.85397720336914,
        -665.8243408203125,
        -465.250244140625,
        -1139.82763671875,
        -1853.208740234375,
        -65.2159423828125,
        1124.7877197265625,
        -1131.9462890625,
        -50.030845642089844,
        -3222.961181640625,
        -443.994873046875,
        -2633.602783203125,
        -2055.18310546875,
        679.3473510742188,
        -1078.0860595703125,
        -6863.86474609375,
        -94.13180541992188,
        -1004.4019775390625,
        3144.981689453125,
        2164.174560546875,
        2029.17919921875,
        276.9093017578125,
        -3636.98388671875,
        789.979736328125,
        504.6700439453125,
        -2027.417724609375,
        4954.1611328125,
        -2005.83984375,
        3819.540283203125,
        -4287.6435546875,
        910.9003295898438,
        -892.694091796875,
        3632.3994140625,
        2545.72900390625,
        847.2803344726562,
        -502.646728515625,
        -1864.5164794921875,
        -3786.65869140625,
        -3792.3544921875,
        -6806.3291015625,
        3474.45751953125,
        -2902.24609375,
        780.0656127929688,
        2289.709228515625,
        991.9658813476562,
        -1665.125,
        -1543.6075439453125,
        2175.01416015625,
        902.552978515625,
        1061.6475830078125,
        -1784.2049560546875,
        -1743.290283203125,
        1843.7149658203125,
        -1748.54052734375,
        -3132.62646484375,
        -1094.427978515625
      ],
      "sha256_16": "09704d23d9040c79"
    },
    "model.esm.encoder.layer.0.LayerNorm.bias": {
      "shape": [
        512
      ],
      "dtype": "torch.float32",
      "mean": 53.367645263671875,
      "std": 2444.633544921875,
      "absmax": 9454.08203125,
      "slice": [
        -1510.390380859375,
        -2447.95751953125,
        -360.4534912109375,
        -3923.0673828125,
        420.56201171875,
        -2463.769775390625,
        805.6660766601562,
        3792.549072265625,
        1713.1419677734375,
        1189.4266357421875,
        5837.8984375,
        5537.16748046875,
        -1394.77880859375,
        -1144.346435546875,
        2212.990234375,
        466.9348449707031,
        1417.4124755859375,
        -3417.908935546875,
        1376.146728515625,
        5938.2392578125,
        1611.983154296875,
        -1602.7374267578125,
        1288.25146484375,
        -2065.97705078125,
        2010.34033203125,
        3253.691650390625,
        -1327.05810546875,
        -3970.056884765625,
        4132.43212890625,
        -495.73028564453125,
        2957.10595703125,
        -2142.82861328125,
        2755.4248046875,
        912.275146484375,
        -154.71160888671875,
        -4592.2294921875,
        -2196.875,
        441.1556091308594,
        -986.993896484375,
        -789.278564453125,
        -3816.15625,
        2433.777099609375,
        986.1200561523438,
        2315.71435546875,
        -2525.940185546875,
        -1775.5072021484375,
        925.5303955078125,
        2641.74755859375,
        -3303.393310546875,
        -100.00137329101562,
        -455.40838623046875,
        1894.9398193359375,
        1048.9488525390625,
        -2.561614990234375,
        1958.876708984375,
        649.6248779296875,
        -3066.737060546875,
        -1514.3232421875,
        -526.248291015625,
        273.07745361328125,
        -2288.473388671875,
        -1571.6328125,
        1704.1475830078125,
        -105.15850067138672
      ],
      "sha256_16": "2b4b846af8e94950"
    },
    "model.esm.encoder.layer.1.attention.self.query.weight": {
      "shape": [
        512,
        512
      ],
      "dtype": "torch.float32",
      "mean": -0.03169108182191849,
      "std": 219.0687713623047,
      "absmax": 3124.053955078125,
      "slice": [
        119.05073547363281,
        168.3925018310547,
        114.01335144042969,
        -175.19644165039062,
        -69.59769439697266,
        69.95333099365234,
        94.22124481201172,
        -43.95936584472656,
        -24.545944213867188,
        19.163169860839844,
        277.4035339355469,
        -38.693870544433594,
        -186.11146545410156,
        -126.95377349853516,
        64.00301361083984,
        -88.95699310302734,
        -13.93046760559082,
        -288.3106384277344,
        -136.08267211914062,
        27.336017608642578,
        96.32840728759766,
        -150.60511779785156,
        -67.17304992675781,
        -62.728633880615234,
        146.7843475341797,
        16.57292938232422,
        -62.11922836303711,
        -100.44290924072266,
        -198.51441955566406,
        107.66483306884766,
        -33.126625061035156,
        196.80136108398438,
        173.35623168945312,
        53.16002655029297,
        -212.4851531982422,
        260.5420837402344,
        92.72640228271484,
        -27.817472457885742,
        -48.178131103515625,
        11.162677764892578,
        224.67210388183594,
        59.77548599243164,
        -73.7165756225586,
        -147.8240509033203,
        35.090213775634766,
        230.5249786376953,
        -161.48744201660156,
        -55.56020736694336,
        -251.41172790527344,
        -114.25457000732422,
        43.58572006225586,
        237.63372802734375,
        -50.02445602416992,
        -327.5591125488281,
        131.4390106201172,
        -36.24974060058594,
        4.80429744720459,
        -76.58367156982422,
        111.2149658203125,
        142.73635864257812,
        0.9686240553855896,
        -192.10479736328125,
        -288.0252380371094,
        102.548583984375
      ],
      "sha256_16": "09f5fe15025f7739"
    },
    "model.esm.encoder.layer.1.attention.self.query.bias": {
      "shape": [
        512
      ],
      "dtype": "torch.float32",
      "mean": 33.295654296875,
      "std": 393.90325927734375,
      "absmax": 2326.731201171875,
      "slice": [
        182.38955688476562,
        -136.35064697265625,
        143.6235809326172,
        141.7149200439453,
        -77.65727996826172,
        -585.6991577148438,
        90.0675277709961,
        389.7349853515625,
        -525.1546630859375,
        123.87220764160156,
        696.9160766601562,
        -384.898681640625,
        219.6848602294922,
        425.7763671875,
        -637.8778076171875,
        33.93775939941406,
        -74.19219207763672,
        -78.7414321899414,
        -164.52513122558594,
        -15.938997268676758,
        -158.14060974121094,
        -612.2079467773438,
        -607.0011596679688,
        290.16668701171875,
        769.0374755859375,
        -102.56602478027344,
        20.523929595947266,
        297.2643127441406,
        184.29603576660156,
        79.09966278076172,
        -442.84332275390625,
        -274.3370361328125,
        25.76572036743164,
        57.81805419921875,
        282.7227783203125,
        -751.2305908203125,
        524.0363159179688,
        -31.51030158996582,
        401.33441162109375,
        182.88087463378906,
        -79.72208404541016,
        300.7497863769531,
        -172.47640991210938,
        -169.39944458007812,
        -505.0853576660156,
        65.63583374023438,
        441.41180419921875,
        48.25095748901367,
        -349.2626037597656,
        -183.93609619140625,
        -509.6479187011719,
        -55.21821212768555,
        -1085.2498779296875,
        205.33656311035156,
        142.75857543945312,
        65.51884460449219,
        -465.3121337890625,
        188.0010986328125,
        -161.00146484375,
        -478.25457763671875,
        134.18336486816406,
        -728.744873046875,
        400.78021240234375,
        349.19476318359375
      ],
      "sha256_16": "9bb0b2789851e173"
    },
    "model.esm.encoder.layer.1.attention.self.key.weight": {
      "shape": [
        512,
        512
      ],
      "dtype": "torch.float32",
      "mean": -0.0046156905591487885,
      "std": 180.23541259765625,
      "absmax": 1970.276123046875,
      "slice": [
        65.9057388305664,
        -9.684011459350586,
        -45.468849182128906,
        117.87452697753906,
        121.59127044677734,
        35.77763748168945,
        -43.115596771240234,
        -114.51721954345703,
        21.2070255279541,
        -25.897695541381836,
        -101.00047302246094,
        -80.0672836303711,
        -76.9873046875,
        32.15979766845703,
        106.70365905761719,
        11.608882904052734,
        -87.7609634399414,
        144.12274169921875,
        -3.373568296432495,
        -74.70730590820312,
        -96.23291015625,
        209.03521728515625,
        50.08481979370117,
        168.3110809326172,
        86.11314392089844,
        92.01203918457031,
        -74.7268295288086,
        69.24407958984375,
        67.97404479980469,
        -178.96368408203125,
        36.182498931884766,
        -50.726844787597656,
        -193.18556213378906,
        25.812728881835938,
        31.320209503173828,
        -98.00933837890625,
        -107.07929229736328,
        30.178773880004883,
        -45.52595138549805,
        -90.9191665649414,
        3.035834789276123,
        -20.282249450683594,
        -129.0912322998047,
        73.07088470458984,
        20.93543815612793,
        8.270666122436523,
        47.48665237426758,
        -225.69070434570312,
        193.06234741210938,
        -21.807762145996094,
        -50.864620208740234,
        -35.66999053955078,
        -160.97970581054688,
        -48.947288513183594,
        45.76514434814453,
        98.12371826171875,
        53.055198669433594,
        -41.8117790222168,
        -56.18303298950195,
        -32.708072662353516,
        -3.7440836429595947,
        17.482484817504883,
        -55.74723815917969,
        32.74091339111328
      ],
      "sha256_16": "d02ea329d9b41068"
    },
    "model.esm.encoder.layer.1.attention.self.key.bias": {
      "shape": [
        512
      ],
      "dtype": "torch.float32",
      "mean": 10.462506294250488,
      "std": 150.8876495361328,
      "absmax": 1216.0283203125,
      "slice": [
        -92.75889587402344,
        -275.12677001953125,
        172.14471435546875,
        151.70010375976562,
        -29.899856567382812,
        86.87976837158203,
        8.18578052520752,
        24.29442024230957,
        -15.32783317565918,
        -0.113677978515625,
        2.871781349182129,
        2.623746871948242,
        0.6905059814453125,
        -0.8233885765075684,
        0.5231039524078369,
        -0.21924829483032227,
        495.4354248046875,
        61.12502670288086,
        -84.02664947509766,
        53.554237365722656,
        104.95211791992188,
        -127.05724334716797,
        31.066390991210938,
        -22.871417999267578,
        -7.479778289794922,
        15.710468292236328,
        -7.415315628051758,
        -2.2104854583740234,
        -0.5033054351806641,
        -2.5242576599121094,
        0.8162250518798828,
        -0.1450519561767578,
        -65.55708312988281,
        559.4959716796875,
        460.6438903808594,
        118.82272338867188,
        162.78562927246094,
        52.46937561035156,
        69.09603881835938,
        -47.117759704589844,
        -7.528599262237549,
        0.549530029296875,
        -9.621639251708984,
        2.4392452239990234,
        0.7129936218261719,
        -0.4971466064453125,
        -0.5314545631408691,
        0.10230112075805664,
        -371.7757263183594,
        -271.8566589355469,
        105.51570129394531,
        -22.906211853027344,
        119.25300598144531,
        111.8421401977539,
        -9.955211639404297,
        27.219242095947266,
        -16.2362060546875,
        5.488500595092773,
        0.35892486572265625,
        -0.13850784301757812,
        -1.9837093353271484,
        1.7161364555358887,
        0.7619094848632812,
        0.27467918395996094
      ],
      "sha256_16": "14471904cb7f8731"
    },
    "model.esm.encoder.layer.1.attention.self.value.weight": {
      "shape": [
        512,
        512
      ],
      "dtype": "torch.float32",
      "mean": -0.08764444291591644,
      "std": 634.1904907226562,
      "absmax": 7242.0732421875,
      "slice": [
        178.2285919189453,
        36.43503952026367,
        542.0061645507812,
        359.9947814941406,
        -198.62002563476562,
        -1044.1336669921875,
        -1660.17919921875,
        112.97801208496094,
        471.3673400878906,
        -862.7302856445312,
        -619.4862670898438,
        271.02081298828125,
        340.7498474121094,
        10.662640571594238,
        -1095.360595703125,
        -973.4155883789062,
        -350.74688720703125,
        -49.03950500488281,
        -1113.3944091796875,
        -164.87841796875,
        35.51253890991211,
        404.1283264160156,
        668.122802734375,
        -294.07275390625,
        -1032.6484375,
        -161.35244750976562,
        213.49581909179688,
        845.1270751953125,
        428.5055236816406,
        -537.7022705078125,
        455.7773132324219,
        465.49041748046875,
        -267.5853271484375,
        -361.0397644042969,
        1277.9853515625,
        -972.4246215820312,
        1395.471923828125,
        178.9574432373047,
        18.12761878967285,
        -757.1258544921875,
        205.27310180664062,
        620.6888427734375,
        -228.55873107910156,
        1530.30029296875,
        730.9029541015625,
        439.5611267089844,
        115.55360412597656,
        841.3036499023438,
        2087.543212890625,
        164.19239807128906,
        -411.3583679199219,
        -1597.1104736328125,
        5.63538122177124,
        -356.3533630371094,
        681.6466064453125,
        -41.778038024902344,
        -641.8148193359375,
        153.62210083007812,
        -662.6626586914062,
        699.4949340820312,
        -854.6884155273438,
        -1257.323486328125,
        1091.23193359375,
        432.6804504394531
      ],
      "sha256_16": "5796464b2c5287ad"
    },
    "model.esm.encoder.layer.1.attention.self.value.bias": {
      "shape": [
        512
      ],
      "dtype": "torch.float32",
      "mean": 18.07805633544922,
      "std": 2801.877197265625,
      "absmax": 9182.490234375,
      "slice": [
        -3726.70166015625,
        -3235.482177734375,
        -1502.7044677734375,
        94.33262634277344,
        843.8047485351562,
        2679.335205078125,
        2312.579833984375,
        1966.0875244140625,
        -3648.53564453125,
        1730.8787841796875,
        -2304.75341796875,
        2533.8916015625,
        1717.28369140625,
        4447.76513671875,
        -1369.0357666015625,
        -2241.4169921875,
        -1454.9959716796875,
        -235.06256103515625,
        -243.6424560546875,
        -2587.11279296875,
        7863.0419921875,
        2631.02099609375,
        -2199.6240234375,
        -1466.3541259765625,
        -1289.793701171875,
        -3803.858154296875,
        -727.6744384765625,
        -7081.79443359375,
        -3017.0859375,
        2695.07177734375,
        -2207.021240234375,
        678.6686401367188,
        -2149.62890625,
        1120.3333740234375,
        3267.07958984375,
        -1090.763671875,
        4030.47265625,
        619.9449462890625,
        -3284.64208984375,
        2901.263916015625,
        -611.5963134765625,
        -1860.7607421875,
        -4039.694580078125,
        -1222.8203125,
        2519.56298828125,
        2961.65625,
        -5996.6181640625,
        2214.430908203125,
        -199.3118896484375,
        1616.1585693359375,
        -3137.260986328125,
        -1346.217041015625,
        -1538.8961181640625,
        34.21168899536133,
        -459.3041076660156,
        1646.40380859375,
        875.999267578125,
        -113.38336181640625,
        4087.956298828125,
        3384.89892578125,
        -550.2037353515625,
        -2455.942138671875,
        1912.5498046875,
        3134.177001953125
      ],
      "sha256_16": "12c607190add90f4"
    },
    "model.esm.encoder.layer.1.attention.output.dense.weight": {
      "shape": [
        512,
        512
      ],
      "dtype": "torch.float32",
      "mean": 1.341104507446289e-07,
      "std": 975.613525390625,
      "absmax": 10914.4990234375,
      "slice": [
        -634.9264526367188,
        -645.7769775390625,
        -67.97286987304688,
        -1.280463457107544,
        -790.8273315429688,
        800.236572265625,
        -364.98236083984375,
        906.1748657226562,
        -898.0165405273438,
        886.311279296875,
        578.3104248046875,
        -468.36151123046875,
        -287.348388671875,
        -259.6466064453125,
        1054.775634765625,
        194.7310791015625,
        -568.9944458007812,
        777.3434448242188,
        -109.43046569824219,
        321.0339660644531,
        381.30194091796875,
        626.7403564453125,
        225.30870056152344,
        314.941650390625,
        254.79615783691406,
        -796.2444458007812,
        -1067.225830078125,
        281.69635009765625,
        -189.17547607421875,
        724.1757202148438,
        -396.10235595703125,
        -756.2659912109375,
        85.00773620605469,
        87.05731201171875,
        545.12890625,
        -1336.3804931640625,
        972.8873291015625,
        1280.4808349609375,
        -202.4575653076172,
        936.26611328125,
        -755.9610595703125,
        950.6243896484375,
        883.8675537109375,
        -134.3984832763672,
        662.6873779296875,
        1518.10546875,
        799.5703735351562,
        424.8447265625,
        -684.09765625,
        643.3257446289062,
        -2126.14599609375,
        -1117.301025390625,
        1529.2554931640625,
        1444.6187744140625,
        1657.4339599609375,
        -630.4521484375,
        -790.838134765625,
        191.58929443359375,
        -128.78089904785156,
        -769.6796875,
        -718.241943359375,
        -394.9148864746094,
        440.8360290527344,
        1032.4295654296875
      ],
      "sha256_16": "6c2b363074b7ed67"
    },
    "model.esm.encoder.layer.1.attention.output.dense.bias": {
      "shape": [
        512
      ],
      "dtype": "torch.float32",
      "mean": -3.0517578125e-05,
      "std": 3326.711669921875,
      "absmax": 9892.4853515625,
      "slice": [
        3390.003173828125,
        3089.612060546875,
        2877.969970703125,
        1255.449462890625,
        -4460.47998046875,
        5784.20947265625,
        -844.7254638671875,
        5051.88037109375,
        -406.1577453613281,
        -18.5789794921875,
        2644.7060546875,
        -4036.310302734375,
        -7474.8369140625,
        -595.2875366210938,
        -5822.2783203125,
        -4078.60986328125,
        2457.745849609375,
        5574.17529296875,
        -162.50177001953125,
        1366.828857421875,
        2864.0908203125,
        -805.056640625,
        -4030.80419921875,
        3.025848388671875,
        1865.457275390625,
        7544.94775390625,
        -1559.7005615234375,
        7904.638671875,
        -3388.93310546875,
        7.111114501953125,
        -2903.163330078125,
        4788.201171875,
        3456.763671875,
        7648.7353515625,
        -1835.5299072265625,
        2957.197265625,
        7820.0986328125,
        2032.4326171875,
        -2314.132568359375,
        14.729248046875,
        4996.22705078125,
        -7249.607421875,
        4048.76953125,
        -3453.710693359375,
        674.00341796875,
        -2447.21435546875,
        -4104.2275390625,
        -1785.2890625,
        -356.8191223144531,
        1724.952392578125,
        -5523.70458984375,
        1682.5570068359375,
        -2113.243408203125,
        -5418.451171875,
        -1488.224609375,
        -3954.633056640625,
        2576.25390625,
        -884.6287841796875,
        63.9593505859375,
        1972.816162109375,
        -5704.33056640625,
        1170.881591796875,
        -3968.14794921875,
        2327.244873046875
      ],
      "sha256_16": "5a5b522a25405f98"
    },
    "model.esm.encoder.layer.1.attention.LayerNorm.weight": {
      "shape": [
        512
      ],
      "dtype": "torch.float32",
      "mean": -254.908203125,
      "std": 1536.2445068359375,
      "absmax": 8336.234375,
      "slice": [
        -499.971923828125,
        558.9525146484375,
        522.7545776367188,
        -1457.820556640625,
        -2250.55029296875,
        2275.04248046875,
        1321.8521728515625,
        -344.2113342285156,
        -950.818359375,
        -215.18829345703125,
        107.79206848144531,
        -2096.6630859375,
        -1439.9405517578125,
        -751.3859252929688,
        248.3262939453125,
        -1435.039794921875,
        2806.504150390625,
        4963.283203125,
        430.8223571777344,
        1724.591552734375,
        -1015.6799926757812,
        -1746.067626953125,
        -27.74509048461914,
        1655.72119140625,
        2815.917236328125,
        -906.4031372070312,
        -500.9333801269531,
        612.208251953125,
        -1223.0172119140625,
        -873.292236328125,
        474.2770080566406,
        -869.0303955078125,
        -1736.121826171875,
        -2677.048583984375,
        1193.5631103515625,
        2278.54833984375,
        162.29969787597656,
        -1758.7701416015625,
        -859.5875854492188,
        1308.216796875,
        -152.80828857421875,
        -2643.63525390625,
        -1267.2164306640625,
        -686.981201171875,
        1047.5550537109375,
        -469.5268859863281,
        -3547.198486328125,
        1185.6312255859375,
        2223.57568359375,
        -3249.23779296875,
        -470.53533935546875,
        361.3772888183594,
        -636.0267944335938,
        -1045.4268798828125,
        -1313.268798828125,
        -243.0614471435547,
        1051.69677734375,
        -243.58749389648438,
        -1143.352783203125,
        -1387.53515625,
        487.1189270019531,
        -305.4827575683594,
        906.8905029296875,
        698.477294921875
      ],
      "sha256_16": "fabfc8cd3ad3d88d"
    },
    "model.esm.encoder.layer.1.attention.LayerNorm.bias": {
      "shape": [
        512
      ],
      "dtype": "torch.float32",
      "mean": -0.9436721801757812,
      "std": 3585.707275390625,
      "absmax": 12783.66015625,
      "slice": [
        -3432.79052734375,
        3603.25439453125,
        641.685791015625,
        175.0696563720703,
        6238.92626953125,
        2697.7958984375,
        2455.82666015625,
        -1368.2921142578125,
        -788.809814453125,
        1228.954833984375,
        -7481.7060546875,
        -810.5020751953125,
        4497.2822265625,
        3576.55517578125,
        1887.772705078125,
        2167.498046875,
        39.93321990966797,
        -10375.3876953125,
        -509.4800109863281,
        -2993.439697265625,
        3229.677734375,
        4635.13525390625,
        5142.041015625,
        2323.3330078125,
        12490.8720703125,
        1228.95166015625,
        -1061.5706787109375,
        -32.63869094848633,
        -822.3182373046875,
        -3687.59375,
        -889.9651489257812,
        4666.0400390625,
        -1531.7513427734375,
        -5738.11376953125,
        -746.695556640625,
        1320.6478271484375,
        -1075.543701171875,
        -4866.34033203125,
        -1007.238037109375,
        4865.18896484375,
        -3823.410400390625,
        2594.400146484375,
        2175.827880859375,
        -515.9519653320312,
        -2640.294677734375,
        4120.103515625,
        3705.581298828125,
        -3566.96142578125,
        -4179.31591796875,
        -2195.10107421875,
        531.80810546875,
        1593.0128173828125,
        1196.5186767578125,
        1152.75439453125,
        1141.6536865234375,
        -3612.25830078125,
        3998.007568359375,
        2426.83154296875,
        1101.6376953125,
        -2059.415771484375,
        4457.72314453125,
        -1422.3070068359375,
        105.67710876464844,
        3536.630126953125
      ],
      "sha256_16": "e13bd18f226f64ab"
    },
    "model.esm.encoder.layer.1.intermediate.dense.weight": {
      "shape": [
        4096,
        512
      ],
      "dtype": "torch.float32",
      "mean": 0.018215812742710114,
      "std": 393.7393798828125,
      "absmax": 6133.70654296875,
      "slice": [
        196.2687225341797,
        -128.36288452148438,
        228.82870483398438,
        101.28422546386719,
        231.2971954345703,
        -218.92886352539062,
        -327.1527404785156,
        -110.66234588623047,
        496.55267333984375,
        -154.5040740966797,
        226.36521911621094,
        -146.947021484375,
        21.892839431762695,
        -427.9139709472656,
        -213.03187561035156,
        183.64370727539062,
        -306.983154296875,
        72.16629791259766,
        -186.13961791992188,
        315.292236328125,
        -80.64502716064453,
        494.4209899902344,
        -148.91909790039062,
        -120.8365249633789,
        244.98736572265625,
        -104.22632598876953,
        9.69576644897461,
        15.095834732055664,
        -94.24765014648438,
        161.50210571289062,
        -269.6544189453125,
        417.3123779296875,
        -300.8620910644531,
        218.6692352294922,
        184.6188201904297,
        309.193115234375,
        41.73408508300781,
        -213.0949249267578,
        -312.63507080078125,
        -261.80072021484375,
        -27.64792251586914,
        215.16387939453125,
        299.8642272949219,
        -60.06277084350586,
        223.10633850097656,
        -239.20982360839844,
        -65.59395599365234,
        312.2601013183594,
        186.27162170410156,
        190.07489013671875,
        -350.0459289550781,
        -64.42465209960938,
        -143.5100555419922,
        -515.0900268554688,
        232.85354614257812,
        -33.909576416015625,
        173.01889038085938,
        58.71687316894531,
        -115.24378967285156,
        -170.0638427734375,
        -331.0067443847656,
        -64.14124298095703,
        -136.47972106933594,
        -90.44515228271484
      ],
      "sha256_16": "305a9df0dd548b47"
    },
    "model.esm.encoder.layer.1.output.dense.weight": {
      "shape": [
        512,
        2048
      ],
      "dtype": "torch.float32",
      "mean": -3.427267074584961e-07,
      "std": 560.5774536132812,
      "absmax": 21330.361328125,
      "slice": [
        110.91698455810547,
        -77.58316040039062,
        -581.4816284179688,
        -590.5751953125,
        237.18264770507812,
        138.55157470703125,
        -162.6528778076172,
        264.48260498046875,
        -107.82091522216797,
        213.04966735839844,
        -275.0130310058594,
        -462.7063903808594,
        -672.0167846679688,
        85.33211517333984,
        -181.287353515625,
        142.34619140625,
        624.4844360351562,
        204.8641357421875,
        138.11805725097656,
        -311.6553039550781,
        -412.71942138671875,
        238.58348083496094,
        496.40264892578125,
        -377.7435302734375,
        209.4640350341797,
        -1118.669189453125,
        171.81614685058594,
        -184.5165557861328,
        681.2162475585938,
        -3.914071559906006,
        48.894134521484375,
        1261.490234375,
        -93.00067901611328,
        -370.4686584472656,
        227.8811798095703,
        598.8117065429688,
        -81.6396713256836,
        -198.33351135253906,
        -674.5174560546875,
        415.8378601074219,
        393.85491943359375,
        116.83308410644531,
        -56.32858657836914,
        267.5338439941406,
        281.1888427734375,
        547.1385498046875,
        59.13416290283203,
        -122.86650085449219,
        619.8528442382812,
        -601.578369140625,
        63.955284118652344,
        -39.04975128173828,
        -134.83023071289062,
        -151.480224609375,
        -1435.4041748046875,
        -221.17051696777344,
        761.4103393554688,
        -393.738525390625,
        -149.1750946044922,
        265.8414001464844,
        528.59619140625,
        8.084403991699219,
        865.9552001953125,
        -350.7452392578125
      ],
      "sha256_16": "c66111b8c965b59a"
    },
    "model.esm.encoder.layer.1.LayerNorm.weight": {
      "shape": [
        512
      ],
      "dtype": "torch.float32",
      "mean": 44.28483200073242,
      "std": 2201.7822265625,
      "absmax": 8296.021484375,
      "slice": [
        287.15069580078125,
        -2465.078369140625,
        -2017.3038330078125,
        -4466.19775390625,
        2249.48095703125,
        1774.772705078125,
        195.93785095214844,
        -6299.080078125,
        -1930.56494140625,
        147.43560791015625,
        3135.479736328125,
        -2158.1572265625,
        -526.6648559570312,
        -1914.787109375,
        1516.851318359375,
        -1349.4287109375,
        2853.57763671875,
        -4240.953125,
        2218.270751953125,
        651.4241943359375,
        -1812.2789306640625,
        -1467.6929931640625,
        2547.42724609375,
        126.7867431640625,
        -350.181640625,
        1695.4190673828125,
        1178.80712890625,
        -757.173583984375,
        -4886.091796875,
        -2059.4482421875,
        -123.61691284179688,
        -445.4946594238281,
        2477.882568359375,
        459.5949401855469,
        -713.8963623046875,
        -1814.39794921875,
        -455.97674560546875,
        2475.0654296875,
        -1454.968994140625,
        268.5719299316406,
        -2286.37890625,
        2558.2666015625,
        1192.2327880859375,
        2893.67724609375,
        27.40228271484375,
        -2576.318115234375,
        665.22412109375,
        -1435.560791015625,
        -163.85691833496094,
        3738.3115234375,
        -741.0196533203125,
        -565.0303955078125,
        363.85540771484375,
        -2392.9306640625,
        4581.96435546875,
        -8296.021484375,
        928.7398681640625,
        -46.144615173339844,
        3895.983154296875,
        691.89697265625,
        -1142.3482666015625,
        -2180.633056640625,
        -5739.6611328125,
        933.4484252929688
      ],
      "sha256_16": "fc283e698f7204ad"
    },
    "model.esm.encoder.layer.1.LayerNorm.bias": {
      "shape": [
        512
      ],
      "dtype": "torch.float32",
      "mean": 138.36093139648438,
      "std": 2743.20703125,
      "absmax": 8083.30712890625,
      "slice": [
        -1340.188232421875,
        -2340.727783203125,
        4402.72607421875,
        576.953369140625,
        -981.3645629882812,
        -2563.941162109375,
        2019.7900390625,
        5414.13134765625,
        134.93014526367188,
        -58.45245361328125,
        -724.3197021484375,
        406.9804382324219,
        665.527099609375,
        -2316.531494140625,
        1397.1978759765625,
        -557.7564086914062,
        -2100.171142578125,
        2795.13427734375,
        -1381.6484375,
        -420.11566162109375,
        -980.8584594726562,
        1431.9422607421875,
        106.74534606933594,
        2022.3140869140625,
        -35.304901123046875,
        2150.5400390625,
        397.73895263671875,
        -1174.194580078125,
        -4288.44384765625,
        -2501.41064453125,
        1492.2344970703125,
        694.2451171875,
        -205.55929565429688,
        -3480.018798828125,
        1038.6494140625,
        260.379638671875,
        -1713.4515380859375,
        -6833.86767578125,
        -2825.40625,
        1239.0169677734375,
        886.9005126953125,
        3803.83544921875,
        1893.9718017578125,
        -2021.0662841796875,
        1888.0289306640625,
        -734.5931396484375,
        -2152.961181640625,
        265.59625244140625,
        -3423.611572265625,
        -1342.0634765625,
        2097.655517578125,
        960.060546875,
        760.193359375,
        4774.9892578125,
        -5048.58447265625,
        -5163.08203125,
        2474.81640625,
        -431.24884033203125,
        5897.68359375,
        942.4722900390625,
        -2417.01513671875,
        12.663387298583984,
        -1207.73828125,
        -640.9288940429688
      ],
      "sha256_16": "d38168a2896bda06"
    },
    "model.esm.encoder.layer.2.attention.self.query.weight": {
      "shape": [
        512,
        512
      ],
      "dtype": "torch.float32",
      "mean": 0.01201125979423523,
      "std": 182.87582397460938,
      "absmax": 3277.816162109375,
      "slice": [
        -85.21051788330078,
        -71.44992065429688,
        79.20357513427734,
        146.18075561523438,
        -36.019737243652344,
        -139.5137939453125,
        -174.1455535888672,
        12.610060691833496,
        319.2161560058594,
        -50.83289337158203,
        87.25250244140625,
        -73.33914947509766,
        105.76504516601562,
        -308.1378479003906,
        -210.94784545898438,
        -104.49339294433594,
        -484.18170166015625,
        222.27127075195312,
        -228.99508666992188,
        30.794349670410156,
        -35.399269104003906,
        143.8114013671875,
        -123.44957733154297,
        -15.583858489990234,
        -75.37577819824219,
        -176.98675537109375,
        68.89698028564453,
        -64.40776824951172,
        -82.07913208007812,
        126.69563293457031,
        -106.4337158203125,
        -8.474228858947754,
        43.33272171020508,
        -101.36662292480469,
        -78.07721710205078,
        3.2311604022979736,
        -42.46221923828125,
        -83.35546875,
        -123.8709487915039,
        -162.66537475585938,
        66.85722351074219,
        182.59228515625,
        164.64002990722656,
        128.43699645996094,
        -110.34112548828125,
        170.78500366210938,
        -113.6387710571289,
        137.1868438720703,
        32.61696243286133,
        32.90353012084961,
        -53.26488494873047,
        -7.739297866821289,
        131.81814575195312,
        -4.243293762207031,
        225.11514282226562,
        -274.9175720214844,
        97.27415466308594,
        3.5068564414978027,
        75.8987808227539,
        48.177425384521484,
        -168.99192810058594,
        87.76263427734375,
        30.220497131347656,
        7.4499006271362305
      ],
      "sha256_16": "b32479dc8f660de7"
    },
    "model.esm.encoder.layer.2.attention.self.query.bias": {
      "shape": [
        512
      ],
      "dtype": "torch.float32",
      "mean": 7.809390068054199,
      "std": 329.9320068359375,
      "absmax": 1878.55126953125,
      "slice": [
        -365.4808044433594,
        -202.34686279296875,
        383.81597900390625,
        -516.1490478515625,
        -167.7498016357422,
        -153.93698120117188,
        49.68517303466797,
        180.0680389404297,
        134.41055297851562,
        -97.7535400390625,
        -49.49107360839844,
        -46.2169189453125,
        213.72183227539062,
        366.5596008300781,
        42.27683639526367,
        -24.913467407226562,
        226.3181915283203,
        -195.89976501464844,
        -118.67200469970703,
        304.0814514160156,
        -86.15164184570312,
        140.22848510742188,
        -152.18992614746094,
        -71.70265197753906,
        -144.34620666503906,
        -68.48097229003906,
        24.258464813232422,
        126.38766479492188,
        368.0277099609375,
        41.303070068359375,
        75.23995971679688,
        314.4312744140625,
        286.65106201171875,
        -276.6193542480469,
        -352.04266357421875,
        -22.312883377075195,
        585.6406860351562,
        -131.91079711914062,
        -70.28981018066406,
        -362.72711181640625,
        708.3585815429688,
        -34.946434020996094,
        -204.57542419433594,
        236.9001922607422,
        -267.8453369140625,
        21.869327545166016,
        -465.45477294921875,
        -274.9969482421875,
        129.25289916992188,
        885.8984375,
        100.1178207397461,
        -28.1796932220459,
        -349.1754455566406,
        531.8045043945312,
        -3.622551441192627,
        -71.20497131347656,
        356.5246276855469,
        -223.16329956054688,
        258.78216552734375,
        -265.34722900390625,
        -444.3762512207031,
        201.50526428222656,
        -545.0484619140625,
        -151.1143341064453
      ],
      "sha256_16": "e5f3c81a97c3a194"
    },
    "model.esm.encoder.layer.2.attention.self.key.weight": {
      "shape": [
        512,
        512
      ],
      "dtype": "torch.float32",
      "mean": 0.016309591010212898,
      "std": 205.84384155273438,
      "absmax": 3424.175537109375,
      "slice": [
        -16.940866470336914,
        -23.013805389404297,
        41.38207244873047,
        166.32821655273438,
        134.57559204101562,
        46.16586685180664,
        -90.89344024658203,
        -19.12384605407715,
        182.99114990234375,
        -21.134239196777344,
        -35.89619445800781,
        19.5180606842041,
        26.731428146362305,
        -131.54359436035156,
        -168.73486328125,
        42.773990631103516,
        -461.9687194824219,
        85.96253967285156,
        47.772254943847656,
        87.15408325195312,
        -50.07777404785156,
        135.96421813964844,
        -258.7225646972656,
        -67.94590759277344,
        -29.293365478515625,
        30.993717193603516,
        3.6848342418670654,
        43.701202392578125,
        -90.89823150634766,
        15.82335376739502,
        -44.75566864013672,
        29.076335906982422,
        -71.66960906982422,
        -151.0375518798828,
        314.9546203613281,
        -41.932769775390625,
        59.065006256103516,
        13.407089233398438,
        108.88726043701172,
        -23.96491050720215,
        92.971923828125,
        107.124755859375,
        -237.3477325439453,
        -26.303529739379883,
        -30.796110153198242,
        7.404661655426025,
        -22.229787826538086,
        122.60880279541016,
        -16.063398361206055,
        0.8117786049842834,
        -47.858402252197266,
        84.64266204833984,
        95.0477066040039,
        103.68733215332031,
        175.7647705078125,
        -142.04779052734375,
        31.069002151489258,
        64.64215850830078,
        79.03223419189453,
        -56.357147216796875,
        -205.78660583496094,
        136.34239196777344,
        -22.31045913696289,
        201.0453338623047
      ],
      "sha256_16": "20b45aa8290f69cf"
    },
    "model.esm.encoder.layer.2.attention.self.key.bias": {
      "shape": [
        512
      ],
      "dtype": "torch.float32",
      "mean": -10.897916793823242,
      "std": 160.28872680664062,
      "absmax": 1387.5262451171875,
      "slice": [
        -256.5916748046875,
        25.23116111755371,
        -55.370731353759766,
        137.20382690429688,
        11.30488395690918,
        -20.162019729614258,
        7.998598098754883,
        16.756420135498047,
        -4.2141265869140625,
        -3.151243209838867,
        1.5378799438476562,
        1.6178779602050781,
        -0.8635177612304688,
        -0.817784309387207,
        0.026157855987548828,
        -0.24128729104995728,
        392.9046325683594,
        116.92276763916016,
        -22.182958602905273,
        -238.382080078125,
        -49.35980224609375,
        -3.2691116333007812,
        -0.23459148406982422,
        -17.912580490112305,
        -4.868976593017578,
        3.735506057739258,
        -2.2766189575195312,
        -0.3573265075683594,
        0.7266807556152344,
        0.3703479766845703,
        -0.1689772605895996,
        0.23137664794921875,
        -53.780479431152344,
        368.2720642089844,
        120.9132308959961,
        -97.94613647460938,
        112.63684844970703,
        -25.95111846923828,
        46.560447692871094,
        -25.517091751098633,
        -12.031418800354004,
        2.0382728576660156,
        -1.6246337890625,
        -4.155679702758789,
        -1.3649215698242188,
        0.6576385498046875,
        0.060459136962890625,
        -0.12353515625,
        -122.4901123046875,
        -171.00506591796875,
        232.68870544433594,
        -211.84304809570312,
        13.707194328308105,
        -145.19456481933594,
        -13.54661750793457,
        -21.240989685058594,
        -25.001140594482422,
        -4.032829284667969,
        7.823001861572266,
        1.7736663818359375,
        0.5286865234375,
        1.1338424682617188,
        -0.5251960754394531,
        -0.03855133056640625
      ],
      "sha256_16": "ee7221f125bd1d4b"
    },
    "model.esm.encoder.layer.2.attention.self.value.weight": {
      "shape": [
        512,
        512
      ],
      "dtype": "torch.float32",
      "mean": -0.005489446222782135,
      "std": 713.941650390625,
      "absmax": 14303.005859375,
      "slice": [
        -144.4489288330078,
        1233.3392333984375,
        59.77552032470703,
        -1560.34375,
        -460.1886901855469,
        428.2672119140625,
        1686.3944091796875,
        -941.641845703125,
        -2894.028076171875,
        458.4241027832031,
        -811.683837890625,
        786.7874145507812,
        -974.0578002929688,
        2616.165771484375,
        2474.63232421875,
        837.7212524414062,
        6439.0703125,
        -1824.06494140625,
        -127.05482482910156,
        -322.0828552246094,
        977.6165161132812,
        -1587.0220947265625,
        1691.3138427734375,
        -193.7281036376953,
        496.3436279296875,
        669.9860229492188,
        192.84750366210938,
        445.27069091796875,
        2387.96435546875,
        -827.4963989257812,
        988.1564331054688,
        -569.8109130859375,
        405.5956726074219,
        455.8912048339844,
        -1004.1519165039062,
        685.3056640625,
        360.1976318359375,
        -795.8726196289062,
        -489.5014953613281,
        1238.0565185546875,
        -716.3612060546875,
        -1267.8773193359375,
        1151.9107666015625,
        -439.7516174316406,
        1072.4312744140625,
        -1074.3529052734375,
        9.412206649780273,
        -456.889892578125,
        -279.7854309082031,
        -356.40118408203125,
        -55.7939453125,
        -564.9735107421875,
        -1353.3834228515625,
        -906.5635375976562,
        -2075.08642578125,
        2389.9375,
        -1086.785400390625,
        -327.0648498535156,
        -152.05101013183594,
        117.31492614746094,
        951.1888427734375,
        -2007.2269287109375,
        641.1864624023438,
        -989.3447875976562
      ],
      "sha256_16": "5d8467ab340831be"
    },
    "model.esm.encoder.layer.2.attention.self.value.bias": {
      "shape": [
        512
      ],
      "dtype": "torch.float32",
      "mean": 52.60110855102539,
      "std": 2241.563720703125,
      "absmax": 7924.64892578125,
      "slice": [
        4001.627685546875,
        -270.05938720703125,
        87.28773498535156,
        1084.3382568359375,
        -1607.4215087890625,
        -2003.06884765625,
        224.883544921875,
        3858.343994140625,
        -2905.185546875,
        1345.14208984375,
        1086.1805419921875,
        616.53955078125,
        -2195.40966796875,
        -2501.10400390625,
        66.18864440917969,
        -2336.264892578125,
        787.4424438476562,
        1122.4356689453125,
        692.372314453125,
        579.63134765625,
        1068.90966796875,
        433.732666015625,
        -507.648193359375,
        -1736.7379150390625,
        -377.92431640625,
        -3886.003173828125,
        901.3729858398438,
        677.6844482421875,
        -2256.396240234375,
        -334.1131896972656,
        -508.28631591796875,
        864.65869140625,
        -1798.3326416015625,
        -1225.3970947265625,
        266.0118103027344,
        -1485.5755615234375,
        1745.5557861328125,
        3763.029541015625,
        -2568.863525390625,
        765.392822265625,
        350.7424621582031,
        1414.4537353515625,
        3470.4306640625,
        2967.892578125,
        -1438.7708740234375,
        2226.862548828125,
        -860.1943359375,
        1174.3001708984375,
        533.2959594726562,
        -1169.92626953125,
        -3395.52490234375,
        876.1181030273438,
        -1524.941162109375,
        -2176.212646484375,
        -852.34326171875,
        497.0587463378906,
        488.3698425292969,
        -2154.378173828125,
        4228.25048828125,
        -1095.7918701171875,
        -1948.4979248046875,
        2312.507568359375,
        5080.53564453125,
        -107.80722045898438
      ],
      "sha256_16": "6eb8f2a0aa7f8588"
    },
    "model.esm.encoder.layer.2.attention.output.dense.weight": {
      "shape": [
        512,
        512
      ],
      "dtype": "torch.float32",
      "mean": 3.5762786865234375e-07,
      "std": 1046.347900390625,
      "absmax": 14922.814453125,
      "slice": [
        242.38394165039062,
        -107.124755859375,
        -443.6111145019531,
        -393.93524169921875,
        1249.795166015625,
        -993.450439453125,
        -951.7347412109375,
        -87.12109375,
        -1410.7196044921875,
        -373.9820251464844,
        416.2537841796875,
        445.51300048828125,
        -719.0106811523438,
        62.67820358276367,
        -951.2962036132812,
        625.0390014648438,
        -955.3939819335938,
        1408.405029296875,
        133.7722930908203,
        -937.0316162109375,
        -838.1741943359375,
        -1095.9215087890625,
        -832.7564697265625,
        -1063.7734375,
        -43.11201858520508,
        240.24859619140625,
        -630.472900390625,
        321.0060119628906,
        -354.0150146484375,
        1944.8392333984375,
        -1334.2567138671875,
        -985.3245849609375,
        1456.99658203125,
        -548.8240356445312,
        564.161376953125,
        416.4970703125,
        -710.21240234375,
        -194.09165954589844,
        -36.25032424926758,
        274.02484130859375,
        989.82666015625,
        19.46653938293457,
        1163.258056640625,
        690.931396484375,
        432.6585693359375,
        -553.4134521484375,
        -509.3416442871094,
        572.4869384765625,
        203.45999145507812,
        804.6851196289062,
        277.3643493652344,
        -905.1009521484375,
        1403.8643798828125,
        1545.438232421875,
        -1812.302734375,
        -378.17578125,
        319.80340576171875,
        -1232.332275390625,
        -1255.4708251953125,
        -1316.231201171875,
        -57.081390380859375,
        -210.78530883789062,
        -1252.6728515625,
        264.0362548828125
      ],
      "sha256_16": "9270077bb0f7a658"
    },
    "model.esm.encoder.layer.2.attention.output.dense.bias": {
      "shape": [
        512
      ],
      "dtype": "torch.float32",
      "mean": -2.47955322265625e-05,
      "std": 2855.959228515625,
      "absmax": 10183.6005859375,
      "slice": [
        2335.985595703125,
        4799.96044921875,
        -597.0267944335938,
        -1149.66845703125,
        -2492.95458984375,
        3903.453369140625,
        -1465.6527099609375,
        1820.9765625,
        -1846.7999267578125,
        1674.17333984375,
        1362.325927734375,
        -2393.698486328125,
        -7712.9521484375,
        1228.14013671875,
        -3111.07470703125,
        -3195.57861328125,
        1350.1375732421875,
        1809.4273681640625,
        850.88525390625,
        1251.69873046875,
        -302.3685302734375,
        -2533.129638671875,
        -4989.67626953125,
        -349.7695617675781,
        4379.78466796875,
        4942.6806640625,
        -1460.957275390625,
        7638.03515625,
        -1385.3433837890625,
        -908.42041015625,
        -618.0885009765625,
        4260.443359375,
        1434.887451171875,
        7388.08203125,
        988.724609375,
        1488.2996826171875,
        8341.1787109375,
        5629.921875,
        561.3085327148438,
        -1718.0396728515625,
        5865.04638671875,
        -6367.04541015625,
        3823.6171875,
        -3573.2734375,
        -3038.697998046875,
        -917.8720703125,
        311.0439147949219,
        -2571.085693359375,
        1208.89697265625,
        1708.327880859375,
        -4360.1845703125,
        2101.6513671875,
        -2345.077392578125,
        -8238.2861328125,
        -1402.1527099609375,
        -2422.18212890625,
        3852.729248046875,
        -650.1799926757812,
        -1063.072021484375,
        847.313232421875,
        -2426.93310546875,
        59.391754150390625,
        -3380.8583984375,
        2179.400634765625
      ],
      "sha256_16": "e5e3cfd57332fe6f"
    },
    "model.esm.encoder.layer.2.attention.LayerNorm.weight": {
      "shape": [
        512
      ],
      "dtype": "torch.float32",
      "mean": -251.37754821777344,
      "std": 1703.3701171875,
      "absmax": 9229.1015625,
      "slice": [
        -517.2281494140625,
        -1260.96337890625,
        92.02823638916016,
        -4642.6943359375,
        349.3751220703125,
        -450.75482177734375,
        -1051.6241455078125,
        308.620361328125,
        -1637.99755859375,
        -176.1365966796875,
        -1793.7894287109375,
        -1271.5159912109375,
        766.2587890625,
        -1591.3900146484375,
        -4502.69384765625,
        -1253.103271484375,
        3741.17041015625,
        -3242.182373046875,
        -2707.90478515625,
        -1345.23046875,
        2114.439697265625,
        -65.5076904296875,
        867.0501098632812,
        706.010498046875,
        -915.955810546875,
        -187.0767059326172,
        -602.6851806640625,
        -958.9554443359375,
        -148.4683837890625,
        -2713.86083984375,
        -1588.15478515625,
        643.3966064453125,
        1571.394775390625,
        1975.7239990234375,
        1099.9100341796875,
        -1516.529296875,
        1231.27734375,
        -3315.025390625,
        254.2286834716797,
        -1.3470969200134277,
        263.676025390625,
        -158.72903442382812,
        -838.25244140625,
        -1823.4288330078125,
        3259.85791015625,
        -652.748779296875,
        -1085.5147705078125,
        622.8660278320312,
        97.80857849121094,
        22.942920684814453,
        209.21800231933594,
        501.7361145019531,
        1225.659912109375,
        -1693.342529296875,
        -4763.56298828125,
        3261.281005859375,
        1189.75439453125,
        822.1976928710938,
        630.099853515625,
        442.1130676269531,
        1.8985519409179688,
        -1051.0845947265625,
        2468.8603515625,
        -1443.5745849609375
      ],
      "sha256_16": "c311c9297659ddef"
    },
    "model.esm.encoder.layer.2.attention.LayerNorm.bias": {
      "shape": [
        512
      ],
      "dtype": "torch.float32",
      "mean": 116.4407958984375,
      "std": 2845.16552734375,
      "absmax": 11078.51171875,
      "slice": [
        2537.06103515625,
        -754.3394775390625,
        1493.3626708984375,
        3632.686279296875,
        -1671.9599609375,
        4938.6611328125,
        -821.5987548828125,
        -565.948974609375,
        2421.924072265625,
        -1682.127685546875,
        3126.33251953125,
        -1774.58056640625,
        -419.29620361328125,
        -424.4111328125,
        -5517.46533203125,
        -817.0255737304688,
        3010.06201171875,
        3434.95849609375,
        -924.1502685546875,
        589.5722045898438,
        5522.28662109375,
        1001.8274536132812,
        1723.781982421875,
        -1646.0509033203125,
        -3184.198974609375,
        2707.798095703125,
        662.1633911132812,
        814.4544067382812,
        830.7060546875,
        3361.326904296875,
        -4536.18896484375,
        139.88352966308594,
        4254.8173828125,
        4266.765625,
        -6395.25341796875,
        1241.8953857421875,
        997.0,
        1823.3082275390625,
        -992.0767822265625,
        1481.263916015625,
        -2738.392333984375,
        -3528.347412109375,
        -1450.1162109375,
        1835.1859130859375,
        3549.846435546875,
        -161.596923828125,
        -4006.034912109375,
        1140.312744140625,
        1334.8687744140625,
        689.5175170898438,
        -3650.38623046875,
        -1949.2132568359375,
        -505.3370666503906,
        -10.003623962402344,
        5958.1083984375,
        2727.51025390625,
        -4792.5830078125,
        432.8344421386719,
        -3600.31005859375,
        732.916259765625,
        -1246.504638671875,
        1676.007080078125,
        1000.39013671875,
        1616.0777587890625
      ],
      "sha256_16": "3f34e63006feb118"
    },
    "model.esm.encoder.layer.2.intermediate.dense.weight": {
      "shape": [
        4096,
        512
      ],
      "dtype": "torch.float32",
      "mean": 0.02459532581269741,
      "std": 384.4649658203125,
      "absmax": 14282.478515625,
      "slice": [
        3.476667642593384,
        -364.8797302246094,
        -149.77102661132812,
        196.0577392578125,
        -25.14194679260254,
        -110.95518493652344,
        -0.12332241237163544,
        206.40054321289062,
        127.27975463867188,
        171.7976531982422,
        134.9359588623047,
        9.159713745117188,
        119.74925994873047,
        -126.02699279785156,
        167.4764862060547,
        -477.7289123535156,
        -123.91725158691406,
        132.989013671875,
        -253.80006408691406,
        34.74541091918945,
        -5.6186347007751465,
        -58.71665573120117,
        -67.5281753540039,
        -15.527458190917969,
        -29.575937271118164,
        -330.8013000488281,
        359.8477783203125,
        102.94811248779297,
        -181.43580627441406,
        -26.012178421020508,
        123.19721984863281,
        22.08180809020996,
        58.643775939941406,
        107.8386001586914,
        -47.22867202758789,
        16.366939544677734,
        105.55583190917969,
        119.0833740234375,
        -199.08810424804688,
        -96.52212524414062,
        -71.96766662597656,
        -111.84814453125,
        269.7753601074219,
        51.76512908935547,
        -245.52139282226562,
        216.2474822998047,
        70.24461364746094,
        166.6085968017578,
        31.766469955444336,
        -61.973331451416016,
        -125.17472839355469,
        94.58903503417969,
        -1.487264633178711,
        319.5401306152344,
        71.60783386230469,
        97.88530731201172,
        -22.48553466796875,
        -167.5469970703125,
        -109.40259552001953,
        -244.48300170898438,
        10.185324668884277,
        105.26668548583984,
        -31.74680519104004,
        -245.9183349609375
      ],
      "sha256_16": "62068f329e001fe6"
    },
    "model.esm.encoder.layer.2.output.dense.weight": {
      "shape": [
        512,
        2048
      ],
      "dtype": "torch.float32",
      "mean": -2.086162567138672e-07,
      "std": 565.3331909179688,
      "absmax": 12618.03125,
      "slice": [
        -530.6100463867188,
        256.3230895996094,
        34.50676727294922,
        1534.4765625,
        476.3997497558594,
        623.286376953125,
        257.75030517578125,
        960.5822143554688,
        -24.311525344848633,
        82.03557586669922,
        110.1301498413086,
        -12.937688827514648,
        15.391552925109863,
        -26.466163635253906,
        123.79888916015625,
        368.1146240234375,
        -44.82986068725586,
        -181.26951599121094,
        852.8399658203125,
        782.1575317382812,
        284.14886474609375,
        100.12774658203125,
        280.11376953125,
        -363.00360107421875,
        15.7775297164917,
        123.86709594726562,
        376.63568115234375,
        39.46564865112305,
        -131.7104034423828,
        217.57586669921875,
        -167.35255432128906,
        -180.3267822265625,
        -56.05012512207031,
        -44.72393035888672,
        855.000244140625,
        456.3665771484375,
        128.12623596191406,
        395.7107849121094,
        -31.348451614379883,
        732.6599731445312,
        -91.11610412597656,
        -154.17193603515625,
        -660.0184936523438,
        -13.224251747131348,
        -14.175580024719238,
        110.48817443847656,
        214.23236083984375,
        667.746337890625,
        1157.755126953125,
        219.3828125,
        -500.5466003417969,
        540.4252319335938,
        -115.61708068847656,
        -267.0284423828125,
        -481.3460693359375,
        -65.2464828491211,
        24.655303955078125,
        -404.6198425292969,
        227.10728454589844,
        -234.34390258789062,
        -50.158931732177734,
        -9.330211639404297,
        542.9232788085938,
        -418.2538757324219
      ],
      "sha256_16": "dcfa0737650e1304"
    },
    "model.esm.encoder.layer.2.LayerNorm.weight": {
      "shape": [
        512
      ],
      "dtype": "torch.float32",
      "mean": 532.3626708984375,
      "std": 2392.947998046875,
      "absmax": 14560.4326171875,
      "slice": [
        478.4237976074219,
        -1925.32275390625,
        -1202.6632080078125,
        592.9214477539062,
        1155.6019287109375,
        1453.859619140625,
        -1994.8184814453125,
        778.3336791992188,
        -3657.8701171875,
        -283.97735595703125,
        -3440.274169921875,
        -8.691596984863281,
        834.4827270507812,
        -996.2587890625,
        2395.08251953125,
        -293.250244140625,
        14560.4326171875,
        678.5552368164062,
        1814.256591796875,
        713.536376953125,
        -451.78717041015625,
        2081.872802734375,
        420.9053649902344,
        2528.2158203125,
        796.165283203125,
        970.5934448242188,
        2630.822021484375,
        -2827.00732421875,
        5272.98681640625,
        -2475.33642578125,
        4805.7763671875,
        2486.076416015625,
        3488.618896484375,
        -1296.91455078125,
        241.36239624023438,
        433.6529235839844,
        1442.7877197265625,
        272.425048828125,
        -1581.520751953125,
        3677.569091796875,
        -528.5462646484375,
        -1322.001953125,
        -789.8976440429688,
        -631.897216796875,
        2146.264892578125,
        584.906494140625,
        -3253.701171875,
        2246.196533203125,
        215.85714721679688,
        2705.637939453125,
        -499.00360107421875,
        -268.632568359375,
        1156.4873046875,
        1411.1712646484375,
        5139.47021484375,
        1559.36474609375,
        -1054.6624755859375,
        -1439.1199951171875,
        -407.08270263671875,
        -2880.850830078125,
        -48.461029052734375,
        -95.03239440917969,
        1388.8013916015625,
        1446.1552734375
      ],
      "sha256_16": "c2333cf32221d93e"
    },
    "model.esm.encoder.layer.2.LayerNorm.bias": {
      "shape": [
        512
      ],
      "dtype": "torch.float32",
      "mean": -50.06261444091797,
      "std": 2749.086181640625,
      "absmax": 8352.3349609375,
      "slice": [
        1883.78076171875,
        -3142.3173828125,
        -2882.680419921875,
        -772.042236328125,
        -2593.8095703125,
        -421.2615966796875,
        -2637.380126953125,
        721.6668701171875,
        4993.50048828125,
        -186.24053955078125,
        297.7447204589844,
        571.9404296875,
        -2589.07177734375,
        -3597.37744140625,
        -1532.434814453125,
        609.3338623046875,
        5213.9423828125,
        626.3394775390625,
        487.37908935546875,
        -6358.2783203125,
        766.259033203125,
        -1020.790283203125,
        -986.39404296875,
        4813.4013671875,
        1811.6378173828125,
        83.70602416992188,
        -1696.286376953125,
        -880.4443969726562,
        4378.4482421875,
        1433.8211669921875,
        -2302.31591796875,
        -2809.20166015625,
        1644.940185546875,
        1195.8170166015625,
        -289.6165771484375,
        -917.3642578125,
        3014.234375,
        4332.1806640625,
        2092.728271484375,
        2764.04248046875,
        1801.4720458984375,
        1889.288818359375,
        2259.6455078125,
        -2868.69384765625,
        3308.909912109375,
        -735.49951171875,
        1126.195556640625,
        -1388.5489501953125,
        2998.66162109375,
        4219.0859375,
        -2086.34814453125,
        -2383.9423828125,
        -3977.795654296875,
        -261.904296875,
        -4965.97265625,
        -174.1944580078125,
        -1398.3531494140625,
        -2184.608642578125,
        2131.6865234375,
        -2108.056640625,
        16.070648193359375,
        2642.453369140625,
        913.5227661132812,
        1570.7431640625
      ],
      "sha256_16": "afcf7e97a10937a6"
    },
    "model.esm.encoder.layer.3.attention.self.query.weight": {
      "shape": [
        512,
        512
      ],
      "dtype": "torch.float32",
      "mean": 0.005402654409408569,
      "std": 221.94131469726562,
      "absmax": 13105.5908203125,
      "slice": [
        -80.82825469970703,
        -219.35386657714844,
        84.33503723144531,
        88.7054443359375,
        55.95488739013672,
        -65.52729797363281,
        -3.9614949226379395,
        -18.899864196777344,
        101.33348083496094,
        -30.754213333129883,
        112.05330657958984,
        52.90519332885742,
        144.7159423828125,
        17.587024688720703,
        -99.50321197509766,
        -112.48612976074219,
        -238.01206970214844,
        75.34749603271484,
        -42.73965072631836,
        5.240714073181152,
        60.83345031738281,
        -66.73974609375,
        -81.04711151123047,
        -35.26799774169922,
        10.765402793884277,
        78.26251983642578,
        4.066344261169434,
        -149.17579650878906,
        -47.496543884277344,
        45.28982162475586,
        -38.872711181640625,
        130.58949279785156,
        -6.336503028869629,
        2.4263901710510254,
        -50.70161056518555,
        -150.95516967773438,
        0.872219443321228,
        77.95247650146484,
        14.261022567749023,
        23.82638931274414,
        -110.12590789794922,
        -62.417911529541016,
        3.822573661804199,
        99.79545593261719,
        -225.37831115722656,
        51.84073257446289,
        -111.52141571044922,
        92.88143157958984,
        39.74577713012695,
        -20.05048370361328,
        54.803470611572266,
        62.16728591918945,
        31.941667556762695,
        -23.79058074951172,
        -85.05098724365234,
        20.380430221557617,
        -68.33822631835938,
        -68.52067565917969,
        54.05067825317383,
        92.33783721923828,
        -10.505385398864746,
        -61.48715591430664,
        -120.17758178710938,
        -1.9554473161697388
      ],
      "sha256_16": "e6b07f3757b7a6e5"
    },
    "model.esm.encoder.layer.3.attention.self.query.bias": {
      "shape": [
        512
      ],
      "dtype": "torch.float32",
      "mean": -0.32703685760498047,
      "std": 398.8627624511719,
      "absmax": 3412.63134765625,
      "slice": [
        -102.41325378417969,
        -250.5947265625,
        -67.49473571777344,
        -121.52129364013672,
        -190.5952606201172,
        -125.32363891601562,
        -84.94001770019531,
        161.72894287109375,
        91.69551086425781,
        38.05486297607422,
        -17.89313507080078,
        -147.8794708251953,
        -51.38111114501953,
        100.32332611083984,
        514.904052734375,
        -126.51930236816406,
        372.0031433105469,
        -73.5894546508789,
        191.1644744873047,
        -215.25392150878906,
        -241.53236389160156,
        250.23431396484375,
        58.996299743652344,
        117.43228149414062,
        -11.134159088134766,
        140.95179748535156,
        15.965078353881836,
        296.7957763671875,
        -42.00248718261719,
        276.61016845703125,
        593.1019897460938,
        -63.650264739990234,
        289.9765930175781,
        76.83833312988281,
        -446.2757568359375,
        -122.64224243164062,
        -8.506370544433594,
        23.35462188720703,
        -12.24766731262207,
        178.06434631347656,
        172.25924682617188,
        283.63189697265625,
        -208.4116973876953,
        -266.44207763671875,
        -718.1165161132812,
        558.3634033203125,
        176.90219116210938,
        310.39801025390625,
        -123.51248168945312,
        173.38327026367188,
        58.876625061035156,
        397.06414794921875,
        -220.96649169921875,
        168.5675048828125,
        -64.95685577392578,
        -20.578033447265625,
        24.265722274780273,
        31.73893165588379,
        -3.436439037322998,
        -210.01657104492188,
        -409.32952880859375,
        285.07208251953125,
        420.95159912109375,
        102.77523803710938
      ],
      "sha256_16": "ae8d2ddc41b5e34d"
    },
    "model.esm.encoder.layer.3.attention.self.key.weight": {
      "shape": [
        512,
        512
      ],
      "dtype": "torch.float32",
      "mean": -0.014254719018936157,
      "std": 319.6815490722656,
      "absmax": 20011.009765625,
      "slice": [
        49.20810317993164,
        -6.376287937164307,
        23.848970413208008,
        -15.014888763427734,
        -15.140671730041504,
        19.64977264404297,
        107.12173461914062,
        -26.991596221923828,
        -44.45276641845703,
        25.211618423461914,
        59.005455017089844,
        -51.45626449584961,
        -25.706275939941406,
        -10.245597839355469,
        11.461570739746094,
        -37.22843551635742,
        131.02613830566406,
        55.09111022949219,
        33.32778549194336,
        -74.58535766601562,
        34.314659118652344,
        -33.79402542114258,
        -58.9238395690918,
        44.67759704589844,
        -0.7610406875610352,
        -5.0353875160217285,
        8.225319862365723,
        30.414064407348633,
        -77.64529418945312,
        -153.69406127929688,
        32.8162956237793,
        42.827125549316406,
        61.41478729248047,
        15.909919738769531,
        75.37759399414062,
        -141.09140014648438,
        18.405895233154297,
        43.761287689208984,
        38.87958908081055,
        -2.651278018951416,
        -46.04621505737305,
        30.08913803100586,
        -135.19007873535156,
        55.41401290893555,
        -31.272768020629883,
        -40.733760833740234,
        -4.647663116455078,
        -6.386475563049316,
        -51.22010803222656,
        135.85520935058594,
        -37.277587890625,
        -22.492494583129883,
        -51.31911849975586,
        39.33580780029297,
        37.05918884277344,
        105.6822738647461,
        -1.3626735210418701,
        -4.2657084465026855,
        111.64490509033203,
        43.29524612426758,
        -15.164167404174805,
        -0.5900946259498596,
        -72.54971313476562,
        113.28070831298828
      ],
      "sha256_16": "08c6ffc4441675d6"
    },
    "model.esm.encoder.layer.3.attention.self.key.bias": {
      "shape": [
        512
      ],
      "dtype": "torch.float32",
      "mean": -5.562926769256592,
      "std": 285.14691162109375,
      "absmax": 4246.01904296875,
      "slice": [
        8.63582992553711,
        141.38035583496094,
        -46.653072357177734,
        143.7691192626953,
        136.90634155273438,
        -31.89688491821289,
        22.983619689941406,
        20.0627498626709,
        5.360129356384277,
        4.971407413482666,
        4.767556190490723,
        -1.4850082397460938,
        -1.4386968612670898,
        -0.2561187744140625,
        -0.833343505859375,
        0.7483978271484375,
        -64.50257873535156,
        -303.0716247558594,
        -131.69581604003906,
        130.28298950195312,
        314.2511291503906,
        149.0032958984375,
        -26.34188461303711,
        -26.32111930847168,
        3.309267044067383,
        1.1766510009765625,
        3.3536667823791504,
        -2.149399757385254,
        1.638390064239502,
        -1.7367162704467773,
        0.68072509765625,
        0.50372314453125,
        -7.572683334350586,
        252.8835906982422,
        -665.0057983398438,
        -145.48455810546875,
        73.7777099609375,
        -23.487916946411133,
        -50.55640411376953,
        -46.55427551269531,
        1.9762840270996094,
        -4.740159034729004,
        8.318729400634766,
        3.318147659301758,
        2.2137346267700195,
        -0.22680091857910156,
        -0.9813232421875,
        0.5371971130371094,
        -66.9802474975586,
        -398.725341796875,
        113.40548706054688,
        224.0523681640625,
        100.58694458007812,
        -70.07767486572266,
        -30.7169132232666,
