{
  "meta": {
    "device": "cpu",
    "seed": 1234,
    "dtype": "model-default",
    "loss": "adapter.loss_fn",
    "loss_value": -725161.0,
    "model_id": "Taykhoom/Evo2-1B-8K (FFT reference / ground truth)",
    "torch_version": "2.11.0+cpu",
    "num_grad_tensors": 265
  },
  "env_lock": "env/versions.txt",
  "outputs": {
    "[0]": {
      "shape": [
        1,
        32,
        1920
      ],
      "dtype": "torch.float32",
      "mean": 0.003106638789176941,
      "std": 0.47845157980918884,
      "absmax": 7.509007930755615,
      "slice": [
        0.02116149663925171,
        2.1367673873901367,
        0.14346766471862793,
        -0.10810209065675735,
        -0.1509537249803543,
        0.02568189613521099,
        0.025334950536489487,
        0.18414831161499023,
        0.050006791949272156,
        -0.16936588287353516,
        0.04519862309098244,
        0.03120211325585842,
        0.04265758767724037,
        -0.03171177953481674,
        0.024718424305319786,
        -0.05294107273221016,
        -0.041565727442502975,
        -0.01076845359057188,
        0.018320545554161072,
        0.020489763468503952,
        0.07416895031929016,
        -0.07252345979213715,
        -0.09078352898359299,
        0.007116060703992844,
        0.0753888189792633,
        -0.12268334627151489,
        0.0899529978632927,
        0.03438698872923851,
        0.05330997705459595,
        0.24770554900169373,
        -0.09591925889253616,
        0.05054708942770958,
        0.08394105732440948,
        0.028365829959511757,
        -0.024344317615032196,
        -0.07336942851543427,
        -0.06789128482341766,
        0.06904608011245728,
        -0.06969677656888962,
        0.2757365107536316,
        -0.0035230852663517,
        -0.02353525161743164,
        0.006496993824839592,
        0.07255057245492935,
        0.06215059757232666,
        0.015739047899842262,
        -0.1087847352027893,
        0.10327071696519852,
        -0.13608959317207336,
        -0.18209689855575562,
        -0.16247685253620148,
        0.06373002380132675,
        0.12811917066574097,
        -0.16930873692035675,
        -0.07277429848909378,
        -0.07332511991262436,
        -1.065358281135559,
        -0.04318412393331528,
        -0.014547144062817097,
        0.07392044365406036,
        -0.7646782398223877,
        0.08672434836626053,
        0.04155771806836128,
        -0.12519341707229614
      ],
      "sha256_16": "e4f97a6036249d22"
    },
    "[1]": {
      "shape": [
        1,
        32,
        512
      ],
      "dtype": "torch.float32",
      "mean": -44.27196502685547,
      "std": 6.573166370391846,
      "absmax": 47.97041320800781,
      "slice": [
        -7.673581600189209,
        -47.70798873901367,
        -47.71067428588867,
        -47.708370208740234,
        -47.70631790161133,
        -47.72285461425781,
        -47.703346252441406,
        -47.728939056396484,
        -47.733238220214844,
        -47.69890594482422,
        -47.694923400878906,
        -47.717529296875,
        -47.70828628540039,
        -47.70201873779297,
        -47.737571716308594,
        -47.69488525390625,
        -47.727664947509766,
        -47.71778869628906,
        -47.697269439697266,
        -47.695068359375,
        -47.69717025756836,
        -47.71100616455078,
        -47.69833755493164,
        -47.736000061035156,
        -47.69969177246094,
        -47.712440490722656,
        -47.721954345703125,
        -47.736785888671875,
        -47.698089599609375,
        -47.70098876953125,
        -47.73714828491211,
        -47.692935943603516,
        -47.71703338623047,
        -47.72983169555664,
        -47.705257415771484,
        -47.70117950439453,
        -47.70170974731445,
        -47.71839141845703,
        -47.721012115478516,
        -47.73703384399414,
        -47.72789764404297,
        -47.71107864379883,
        -47.7065544128418,
        -47.719886779785156,
        -47.71405792236328,
        -47.71759796142578,
        -47.6983528137207,
        -47.702003479003906,
        -47.72401428222656,
        -47.69557571411133,
        -47.71000289916992,
        -47.773345947265625,
        -47.72341537475586,
        -47.7135124206543,
        -47.74515151977539,
        -47.70574951171875,
        -47.721317291259766,
        -47.69642639160156,
        -47.735660552978516,
        -47.710235595703125,
        -47.699588775634766,
        -47.71783447265625,
        -47.704532623291016,
        -47.72219467163086
      ],
      "sha256_16": "910e96a5ed716a14"
    }
  },
  "grads": {
    "model.backbone.embedding_layer.weight": {
      "shape": [
        512,
        1920
      ],
      "dtype": "torch.float32",
      "mean": -74.17166137695312,
      "std": 89413.390625,
      "absmax": 6634570.5,
      "slice": [
        -1.5826698541641235,
        64.8893051147461,
        1.982885479927063,
        -5.559089183807373,
        -4.567417144775391,
        -0.7779141068458557,
        0.20519444346427917,
        7.049950122833252,
        1.5138798952102661,
        -3.6322174072265625,
        -0.3823736608028412,
        3.1608669757843018,
        0.18319708108901978,
        -3.1498467922210693,
        0.07202484458684921,
        0.06567979604005814,
        -2.7315502166748047,
        -2.391770601272583,
        -0.9119043350219727,
        2.0770881175994873,
        4.021737575531006,
        -1.2219921350479126,
        -3.1162519454956055,
        -3.5132133960723877,
        0.38382449746131897,
        -2.950721263885498,
        0.324413537979126,
        0.6418812870979309,
        3.7685043811798096,
        6.4177165031433105,
        -4.514462471008301,
        0.9913623332977295,
        0.05083675682544708,
        2.189863681793213,
        -1.8341240882873535,
        -5.109933853149414,
        -1.9467438459396362,
        -2.3073253631591797,
        -3.8017871379852295,
        10.147252082824707,
        -2.3315627574920654,
        1.029602289199829,
        2.0859885215759277,
        -1.6109626293182373,
        0.566157877445221,
        4.105456829071045,
        -5.368339538574219,
        3.7736546993255615,
        -3.2929368019104004,
        -3.6463611125946045,
        -3.343001365661621,
        0.1491415649652481,
        3.8417556285858154,
        -6.908454418182373,
        -2.174619674682617,
        0.31774473190307617,
        -32.60966491699219,
        -4.0007429122924805,
        1.5817172527313232,
        2.4774439334869385,
        -13.632551193237305,
        3.987553596496582,
        0.5855701565742493,
        -2.798835515975952
      ],
      "sha256_16": "4cb2bb4f9b29696a"
    },
    "model.backbone.norm.scale": {
      "shape": [
        1920
      ],
      "dtype": "torch.float32",
      "mean": -633.1681518554688,
      "std": 4788.828125,
      "absmax": 72097.578125,
      "slice": [
        -31.511188507080078,
        -22905.833984375,
        29.58502197265625,
        -154.02447509765625,
        -220.23086547851562,
        12.889610290527344,
        4.2773637771606445,
        2.6262810230255127,
        22.437591552734375,
        -26.08183479309082,
        -3.9913673400878906,
        -11.029342651367188,
        5.7056427001953125,
        -111.21125793457031,
        -1.0350151062011719,
        -1.0430326461791992,
        -114.95277404785156,
        3.8249149322509766,
        -14.230735778808594,
        -4.5520758628845215,
        -68.74421691894531,
        -4.397940158843994,
        -106.63243865966797,
        30.72667121887207,
        7.3612775802612305,
        -58.37779235839844,
        -0.6208240985870361,
        3.698279857635498,
        23.348918914794922,
        14.80793571472168,
        -222.86648559570312,
        16.169754028320312,
        -0.9047775268554688,
        68.36888122558594,
        36.909019470214844,
        -20.752758026123047,
        19.685373306274414,
        -34.60133743286133,
        -66.09078216552734,
        -448.5044860839844,
        -22.963199615478516,
        18.680709838867188,
        34.37661361694336,
        22.353965759277344,
        0.2470281720161438,
        13.058509826660156,
        -89.9407958984375,
        -46.18254089355469,
        -89.21067810058594,
        -32.28733444213867,
        -35.58332443237305,
        -0.013129852712154388,
        -163.41835021972656,
        -239.65805053710938,
        -68.54097747802734,
        -2.9895267486572266,
        -8606.052734375,
        22.951005935668945,
        -19.6622371673584,
        -12.836477279663086,
        -917.8009643554688,
        -180.5760498046875,
        -9.640252113342285,
        -68.89266967773438
      ],
      "sha256_16": "98fb6e70983e794c"
    },
    "model.backbone.blocks.0.pre_norm.scale": {
      "shape": [
        1920
      ],
      "dtype": "torch.float32",
      "mean": -319187.34375,
      "std": 204672.890625,
      "absmax": 2804067.25,
      "slice": [
        -724176.75,
        -145064.515625,
        -633005.4375,
        -149494.796875,
        -267072.40625,
        -81302.90625,
        -146478.796875,
        -487375.5625,
        -210166.3125,
        -278468.90625,
        -390113.5625,
        -547166.4375,
        -327135.5625,
        -277027.28125,
        -354597.9375,
        -552316.1875,
        -291109.03125,
        -298651.28125,
        -311424.5625,
        -388104.875,
        -503500.40625,
        -142120.03125,
        -462345.1875,
        -293466.71875,
        -362923.375,
        -448617.5,
        -510251.15625,
        -314933.15625,
        -139172.71875,
        -152902.046875,
        -514366.78125,
        -238078.15625,
        -600561.25,
        -574588.3125,
        -674275.5,
        -365899.0,
        -117079.640625,
        -345140.625,
        -404689.84375,
        -197219.796875,
        -440553.375,
        -344690.875,
        -184618.921875,
        -1225262.875,
        -289984.0625,
        -408403.15625,
        -164740.125,
        -410888.40625,
        -319489.28125,
        -286940.0625,
        -68333.9375,
        -516779.34375,
        -111859.9375,
        -128702.8359375,
        -72616.890625,
        -394308.0,
        -265972.78125,
        -692783.125,
        -272251.15625,
        -416030.40625,
        -741093.625,
        -465438.125,
        -366512.8125,
        -206178.953125
      ],
      "sha256_16": "dff082f2608ebbe2"
    },
    "model.backbone.blocks.0.post_norm.scale": {
      "shape": [
        1920
      ],
      "dtype": "torch.float32",
      "mean": -25146.8203125,
      "std": 77635.484375,
      "absmax": 1215470.0,
      "slice": [
        -59591.6484375,
        -10292.9677734375,
        67382.015625,
        42502.71484375,
        -8410.7109375,
        13895.5185546875,
        70296.359375,
        40716.81640625,
        -37740.9140625,
        -8350.353515625,
        -24832.236328125,
        -115109.125,
        -10601.3203125,
        472.2401123046875,
        7600.94921875,
        -41075.20703125,
        -34560.95703125,
        13939.3408203125,
        -7659.06005859375,
        -96829.96875,
        -21403.349609375,
        -79069.9765625,
        16955.013671875,
        75274.703125,
        -50025.82421875,
        -10972.212890625,
        -15563.0322265625,
        56848.7734375,
        -55574.97265625,
        -30130.12890625,
        44251.05859375,
        -18692.943359375,
        -56375.1015625,
        -51523.16015625,
        -59821.5546875,
        -69058.015625,
        -70292.4765625,
        63069.4765625,
        -79613.8984375,
        18210.146484375,
        -52527.92578125,
        -45544.0546875,
        -22985.66796875,
        -73244.25,
        8366.6455078125,
        -34866.203125,
        87537.578125,
        25968.119140625,
        -75157.171875,
        3933.527099609375,
        -1221.0250244140625,
        4474.70703125,
        -741666.625,
        -194792.296875,
        -15879.724609375,
        9624.962890625,
        3260.46533203125,
        -10486.2578125,
        -5137.69873046875,
        24784.060546875,
        21782.283203125,
        65259.953125,
        3168.4677734375,
        -29684.001953125
      ],
      "sha256_16": "c8e3246f782e125f"
    },
    "model.backbone.blocks.0.filter.short_filter_weight": {
      "shape": [
        5760,
        1,
        3
      ],
      "dtype": "torch.float32",
      "mean": -3983.371337890625,
      "std": 1336960.5,
      "absmax": 39817288.0,
      "slice": [
        -23.615327835083008,
        28.61016082763672,
        -31.66384506225586,
        82.75615692138672,
        -53.02977752685547,
        -14.387664794921875,
        -83.69479370117188,
        42.57926940917969,
        18.71586036682129,
        1291.5732421875,
        -47994.48828125,
        21493.53515625,
        11150.95703125,
        -2099.54296875,
        -3832.28955078125,
        6467.0224609375,
        -3887.419921875,
        5553.767578125,
        -470.9631042480469,
        5.9789886474609375,
        194.89752197265625,
        66.69209289550781,
        -179.91351318359375,
        -92.99755859375,
        -36.615848541259766,
        179.66200256347656,
        61.83453369140625,
        20.36962890625,
        20.448862075805664,
        13.290782928466797,
        -5.1090192794799805,
        12.82726001739502,
        -1.8656495809555054,
        49.85338592529297,
        25.584918975830078,
        15.201401710510254,
        -405.1719665527344,
        -214.03753662109375,
        -939.75244140625,
        909.8719482421875,
        -665.5521240234375,
        658.881103515625,
        -7636.126953125,
        -4119.36376953125,
        -7897.10791015625,
        69784.359375,
        -60344.1484375,
        -108777.3125,
        105337.03125,
        -4337.5,
        -150591.6875,
        -60767.66796875,
        40406.24609375,
        -34659.64453125,
        -13663.1005859375,
        161350.625,
        -3660.9248046875,
        -64504.75390625,
        43425.796875,
        -3892.3388671875,
        -68884.265625,
        -9462.0234375,
        5527.318359375,
        110.0395278930664
      ],
      "sha256_16": "399988bf3b73975f"
    },
    "model.backbone.blocks.0.filter.h": {
      "shape": [
        128,
        1,
        7
      ],
      "dtype": "torch.float32",
      "mean": 29030.841796875,
      "std": 2087270.625,
      "absmax": 16150931.0,
      "slice": [
        -133956.59375,
        -27969.5703125,
        -6969.5625,
        -50369.3203125,
        -135810.59375,
        -28771.587890625,
        -6743.79443359375,
        6029320.5,
        -7790365.5,
        16067163.0,
        -14674656.0,
        6190245.0,
        -7902719.0,
        16150931.0,
        84250.0,
        -191698.40625,
        178310.34375,
        -317595.5625,
        85122.1015625,
        -196088.265625,
        181964.015625,
        185081.03125,
        227830.5,
        86879.484375,
        137613.96875,
        200738.296875,
        235716.640625,
        90278.9765625,
        30358.71875,
        -45584.078125,
        43575.48046875,
        154851.421875,
        27818.603515625,
        -52390.5,
        43023.01171875,
        -245342.40625,
        93270.8828125,
        44359.28125,
        -160443.390625,
        -242197.3125,
        89331.9921875,
        41422.765625,
        54265.10546875,
        -182516.765625,
        -436468.4375,
        275232.71875,
        65269.0390625,
        -179584.296875,
        -443021.0,
        96899.75,
        17408.87890625,
        -42398.68359375,
        -55736.09375,
        96862.3203125,
        12962.33984375,
        -44613.7890625,
        248494.59375,
        330785.9375,
        251376.859375,
        197664.671875,
        253968.015625,
        334947.03125,
        243603.484375,
        773692.875
      ],
      "sha256_16": "b1bd2ae7c9032380"
    },
    "model.backbone.blocks.0.projections.weight": {
      "shape": [
        5760,
        1920
      ],
      "dtype": "torch.float32",
      "mean": -1.3114086389541626,
      "std": 2846.6259765625,
      "absmax": 514370.1875,
      "slice": [
        20.02344512939453,
        3.208176374435425,
        9.796005249023438,
        -5.011903762817383,
        -12.96529769897461,
        -0.4047553539276123,
        -7.873122692108154,
        -12.62807846069336,
        0.9990375638008118,
        -14.102151870727539,
        4.147729396820068,
        -3.768630266189575,
        -3.885542869567871,
        -7.967649936676025,
        13.049860000610352,
        13.995096206665039,
        -11.455023765563965,
        -3.764967679977417,
        -20.419097900390625,
        -2.232842206954956,
        12.856438636779785,
        1.8594632148742676,
        -45.65232849121094,
        9.5573148727417,
        17.222043991088867,
        1.200093388557434,
        11.37210464477539,
        -16.358041763305664,
        1.0522164106369019,
        3.771219253540039,
        -18.213485717773438,
        -0.29917269945144653,
        45.837284088134766,
        -21.76589584350586,
        28.483585357666016,
        -16.638328552246094,
        2.9269986152648926,
        18.96199607849121,
        -12.848610877990723,
        5.429505825042725,
        -13.741752624511719,
        -8.50119686126709,
        -7.662139415740967,
        -29.817750930786133,
        -8.527851104736328,
        25.10381507873535,
        -9.889293670654297,
        -9.827794075012207,
        28.811479568481445,
        -15.640965461730957,
        -2.0070433616638184,
        20.500534057617188,
        15.835020065307617,
        -3.2875542640686035,
        0.5110306739807129,
        0.1596347689628601,
        -1.853670597076416,
        25.227724075317383,
        6.442556381225586,
        -0.6074089407920837,
        37.10525131225586,
        16.57423973083496,
        15.25592041015625,
        -3.3425185680389404
      ],
      "sha256_16": "548b00e67b81aa5b"
    },
    "model.backbone.blocks.0.out_filter_dense.weight": {
      "shape": [
        1920,
        1920
      ],
      "dtype": "torch.float32",
      "mean": -0.03990834578871727,
      "std": 12816.80859375,
      "absmax": 902038.0625,
      "slice": [
        7.602344512939453,
        -1669.05859375,
        1.1090245246887207,
        0.04709692671895027,
        -27.842670440673828,
        115.98220825195312,
        -793.5015869140625,
        237.8787841796875,
        995.146484375,
        0.667264997959137,
        199.5607452392578,
        -4.222978895995766e-05,
        -3.672454340630793e-07,
        -12.992079734802246,
        4115.29150390625,
        667.3212890625,
        -138765.125,
        0.20571932196617126,
        9.2672700881958,
        -0.2317732274532318,
        1089.0078125,
        -407.3766174316406,
        172.61834716796875,
        1.0781828165054321,
        -148.73037719726562,
        -64.6737060546875,
        -2.2547833919525146,
        -1.0945382378224622e-08,
        10.126285552978516,
        23.438138961791992,
        2744.65771484375,
        1097.2432861328125,
        2738.279296875,
        3211.115478515625,
        74.07177734375,
        8495.0615234375,
        -1276.4766845703125,
        -1579.1234130859375,
        -697.5241088867188,
        -955.9335327148438,
        1482.4769287109375,
        -193.71444702148438,
        1087.03173828125,
        272.3882141113281,
        -67.67501831054688,
        -120.23646545410156,
        -301.6176452636719,
        -696.0660400390625,
        -0.012004061602056026,
        -80.65156555175781,
        -116.79566192626953,
        287.01409912109375,
        886.9314575195312,
        -348.8502502441406,
        -2015.6781005859375,
        -283.1344909667969,
        -1105.0172119140625,
        -182.3358917236328,
        1103.8519287109375,
        -868.4285888671875,
        -515.5034790039062,
        3693.220458984375,
        -745.6790161132812,
        2626.785400390625
      ],
      "sha256_16": "d3d722ad6cc8a214"
    },
    "model.backbone.blocks.0.out_filter_dense.bias": {
      "shape": [
        1920
      ],
      "dtype": "torch.float32",
      "mean": -11800.81640625,
      "std": 1594816.625,
      "absmax": 7332424.5,
      "slice": [
        -199209.8125,
        -497126.4375,
        -2173472.25,
        2358207.5,
        -436001.75,
        599570.125,
        -1447932.0,
        -1931468.75,
        -3040529.0,
        4488461.0,
        157096.546875,
        1103100.75,
        -639714.75,
        -690211.6875,
        238875.03125,
        -2063497.75,
        1233988.625,
        -390765.65625,
        -628430.375,
        550955.5,
        -1148910.0,
        2120893.75,
        1130793.0,
        2408267.25,
        195748.921875,
        751408.6875,
        -1742773.875,
        -985792.4375,
        -826454.0625,
        1275055.75,
        -849257.75,
        -1042842.125,
        -1628362.125,
        1008156.75,
        -281022.9375,
        571424.8125,
        -2047254.375,
        -796415.5,
        1426683.0,
        1231767.125,
        477844.8125,
        683669.5,
        757259.1875,
        1278595.125,
        -755979.6875,
        -1868587.25,
        1088508.25,
        -2854696.5,
        -1298876.375,
        793151.8125,
        -685380.375,
        -2161836.0,
        1324088.75,
        -1066151.125,
        -123098.078125,
        375317.71875,
        -3486525.5,
        -1642377.0,
        -2310806.75,
        1015339.0,
        769011.6875,
        -2657545.25,
        -492036.15625,
        -1055453.875
      ],
      "sha256_16": "e32bfd9c70118bc2"
    },
    "model.backbone.blocks.0.mlp.l1.weight": {
      "shape": [
        5120,
        1920
      ],
      "dtype": "torch.float32",
      "mean": -0.44549205899238586,
      "std": 619.7908325195312,
      "absmax": 107288.296875,
      "slice": [
        -112.09817504882812,
        31.77189826965332,
        2.237954616546631,
        -122.70577239990234,
        -8.412271499633789,
        -73.80854797363281,
        236.14024353027344,
        234.28842163085938,
        -210.63157653808594,
        240.31936645507812,
        -218.09130859375,
        157.56179809570312,
        113.6356201171875,
        87.04698181152344,
        -13.721195220947266,
        -116.74423217773438,
        90.42842102050781,
        305.14166259765625,
        -107.79855346679688,
        437.07489013671875,
        77.3871078491211,
        27.844558715820312,
        -118.03163146972656,
        -328.4361877441406,
        -333.03851318359375,
        -114.50579071044922,
        -53.546756744384766,
        162.8544921875,
        -290.7356872558594,
        -107.82869720458984,
        -64.36109161376953,
        37.77182388305664,
        -294.0889892578125,
        55.538455963134766,
        -112.67831420898438,
        299.7972106933594,
        -291.2787780761719,
        317.9787292480469,
        269.1953125,
        -258.0482482910156,
        161.7092742919922,
        267.6654052734375,
        205.72296142578125,
        362.76263427734375,
        -1.2610831260681152,
        -159.82479858398438,
        -441.3369445800781,
        481.24932861328125,
        -219.8026885986328,
        -53.059837341308594,
        -53.5984992980957,
        -59.12824249267578,
        -504.1512451171875,
        256.52069091796875,
        -107.45417022705078,
        -123.9607162475586,
        -77.69141387939453,
        -13.993873596191406,
        -139.47120666503906,
        18.42011833190918,
        254.64578247070312,
        221.08631896972656,
        -61.770973205566406,
        -196.03968811035156
      ],
      "sha256_16": "4a05eafc6b4fbb47"
    },
    "model.backbone.blocks.0.mlp.l2.weight": {
      "shape": [
        5120,
        1920
      ],
      "dtype": "torch.float32",
      "mean": 0.17678354680538177,
      "std": 930.1948852539062,
      "absmax": 194972.125,
      "slice": [
        64.16696166992188,
        -2.31603741645813,
        0.3643169701099396,
        -34.30542755126953,
        1.1035178899765015,
        76.18695068359375,
        -78.59432220458984,
        19.294370651245117,
        29.635894775390625,
        -114.61990356445312,
        3.852842092514038,
        2.427051067352295,
        -19.057950973510742,
        -21.883560180664062,
        57.39828109741211,
        131.55235290527344,
        -12.401654243469238,
        25.3619327545166,
        10.93287467956543,
        -139.82064819335938,
        29.480234146118164,
        -3.8313348293304443,
        -43.371910095214844,
        -42.828147888183594,
        58.96306610107422,
        53.49835968017578,
        -30.495983123779297,
        -25.402042388916016,
        45.88399887084961,
        67.23978424072266,
        62.81148147583008,
        66.64761352539062,
        169.6696014404297,
        -10.005992889404297,
        63.67972946166992,
        -125.53958892822266,
        46.22203826904297,
        -68.25411224365234,
        -43.70640182495117,
        92.2139663696289,
        -44.43075942993164,
        -85.08429718017578,
        -10.970112800598145,
        -153.8084716796875,
        -5.456898212432861,
        195.49990844726562,
        92.86912536621094,
        -92.60374450683594,
        2.081038236618042,
        16.924026489257812,
        -25.039764404296875,
        89.21732330322266,
        -48.517425537109375,
        -45.728309631347656,
        -5.5728044509887695,
        -4.77112340927124,
        6.164283752441406,
        32.54705047607422,
        90.0018539428711,
        -10.429972648620605,
        -7.935985565185547,
        -115.1064453125,
        127.89390563964844,
        43.13160705566406
      ],
      "sha256_16": "b8935e83eebbae64"
    },
    "model.backbone.blocks.0.mlp.l3.weight": {
      "shape": [
        1920,
        5120
      ],
      "dtype": "torch.float32",
      "mean": 0.03377824276685715,
      "std": 1169.664794921875,
      "absmax": 581632.0,
      "slice": [
        -15.494333267211914,
        -338.95654296875,
        766.6935424804688,
        -469.931884765625,
        73.30510711669922,
        -685.811279296875,
        -91.736572265625,
        235.34616088867188,
        192.81040954589844,
        -17.439319610595703,
        507.9419860839844,
        -380.8431396484375,
        551.288330078125,
        43.57585525512695,
        -216.75613403320312,
        -69.59712219238281,
        2805.674560546875,
        106.09693145751953,
        -13.97983169555664,
        60.74631881713867,
        712.2506713867188,
        -288.8647155761719,
        -1144.2794189453125,
        498.20458984375,
        609.2855834960938,
        -606.03955078125,
        230.6964111328125,
        1306.8570556640625,
        -454.50311279296875,
        299.9858093261719,
        -63.95855712890625,
        228.69874572753906,
        220.31507873535156,
        168.158203125,
        759.5241088867188,
        29.19542694091797,
        385.758544921875,
        -686.2696533203125,
        -517.0831909179688,
        -249.2699432373047,
        147.5804901123047,
        -245.4974822998047,
        -110.85301971435547,
        -92.26911926269531,
        -1134.8719482421875,
        227.21267700195312,
        155.68521118164062,
        800.2457885742188,
        20.99173927307129,
        -84.4931640625,
        134.55364990234375,
        -417.4029541015625,
        1073.1123046875,
        -298.2802734375,
        -1089.1888427734375,
        36.021419525146484,
        -884.1162719726562,
        260.1717834472656,
        -73.5455093383789,
        328.6862487792969,
        649.4186401367188,
        612.6190185546875,
        -14.737005233764648,
        43.74446487426758
      ],
      "sha256_16": "34ed97af7ec82665"
    },
    "model.backbone.blocks.1.pre_norm.scale": {
      "shape": [
        1920
      ],
      "dtype": "torch.float32",
      "mean": 1393.811767578125,
      "std": 2416.58349609375,
      "absmax": 21052.6640625,
      "slice": [
        1665.451171875,
        2801.142822265625,
        4210.42919921875,
        320.844970703125,
        159.54434204101562,
        799.7101440429688,
        3546.8017578125,
        1860.23095703125,
        3750.85009765625,
        -1375.620361328125,
        804.6488647460938,
        1893.616455078125,
        -711.9165649414062,
        334.10614013671875,
        734.707763671875,
        1070.188720703125,
        709.2970581054688,
        1112.7579345703125,
        -47.885841369628906,
        1569.5687255859375,
        4636.85546875,
        1909.9398193359375,
        427.3366394042969,
        2764.4443359375,
        1603.6341552734375,
        487.4402160644531,
        293.6497497558594,
        -443.3656005859375,
        962.4772338867188,
        846.350830078125,
        1271.3564453125,
        573.1732177734375,
        238.3755340576172,
        2531.18017578125,
        1605.948486328125,
        3057.381591796875,
        1913.7939453125,
        2872.37353515625,
        2035.43212890625,
        2338.298583984375,
        677.30029296875,
        1514.45947265625,
        -28.116775512695312,
        435.1973571777344,
        2372.85107421875,
        2336.11474609375,
        980.9472045898438,
        1183.417236328125,
        1611.630615234375,
        -586.261474609375,
        342.1761474609375,
        1730.860107421875,
        10925.134765625,
        7883.1337890625,
        5791.966796875,
        2183.536376953125,
        -59.10777282714844,
        -74.23629760742188,
        -74.74230194091797,
        -629.9287719726562,
        432.3278503417969,
        314.1521911621094,
        368.1385498046875,
        215.74612426757812
      ],
      "sha256_16": "e0517c58291c115a"
    },
    "model.backbone.blocks.1.post_norm.scale": {
      "shape": [
        1920
      ],
      "dtype": "torch.float32",
      "mean": -7445.05810546875,
      "std": 27646.40234375,
      "absmax": 248303.03125,
      "slice": [
        -83398.65625,
        7310.2861328125,
        4856.369140625,
        -548.048095703125,
        7586.9638671875,
        10651.8251953125,
        3840.7607421875,
        12552.9365234375,
        3167.578125,
        163.8625946044922,
        -3705.98193359375,
        15142.87890625,
        -41091.046875,
        813.8028564453125,
        -9331.4423828125,
        -44928.62109375,
        399.09698486328125,
        7067.90087890625,
        -1470.56396484375,
        -20230.8203125,
        -31590.083984375,
        -26816.28515625,
        7282.5576171875,
        13453.9677734375,
        7534.0625,
        -7714.107421875,
        -74996.3203125,
        -6768.498046875,
        -25820.86328125,
        2932.469970703125,
        -4549.1064453125,
        -12137.0859375,
        -146481.875,
        -8793.5048828125,
        -58786.6484375,
        -113527.265625,
        -4608.423828125,
        -55955.0859375,
        -25191.85546875,
        2119.85498046875,
        6318.49072265625,
        -9128.05078125,
        -58202.14453125,
        -19838.603515625,
        -5668.98779296875,
        -70163.75,
        -23753.998046875,
        -7386.0029296875,
        -17824.56640625,
        -38089.58984375,
        -20148.6953125,
        -13472.1669921875,
        -6506.14501953125,
        54413.53125,
        -25747.080078125,
        -17404.84765625,
        721.1873168945312,
        -149293.734375,
        -12932.76171875,
        -1786.7322998046875,
        -467.7418212890625,
        -8086.4462890625,
        -7199.728515625,
        765.7537841796875
      ],
      "sha256_16": "7346ba830ba10787"
    },
    "model.backbone.blocks.1.filter.short_filter_weight": {
      "shape": [
        5760,
        1,
        3
      ],
      "dtype": "torch.float32",
      "mean": -210.59170532226562,
      "std": 12285.5078125,
      "absmax": 439245.1875,
      "slice": [
        220.1622314453125,
        3.7026748657226562,
        192.57015991210938,
        -136.24380493164062,
        111.53170776367188,
        -59.778228759765625,
        160.91494750976562,
        -113.873046875,
        272.26739501953125,
        -771.9766235351562,
        -1072.577392578125,
        -20.94455337524414,
        -145.2761993408203,
        -191.94334411621094,
        -239.72720336914062,
        829.5396118164062,
        1033.67578125,
        489.2702941894531,
        -2029.48974609375,
        -1300.06640625,
        -1349.7294921875,
        -2675.7587890625,
        2349.83349609375,
        -1440.379150390625,
        -1441.654541015625,
        1967.8375244140625,
        -2748.563232421875,
        126.6673355102539,
        -107.24340057373047,
        327.12493896484375,
        3.3549041748046875,
        -179.23721313476562,
        -321.3847351074219,
        86.31344604492188,
        188.03048706054688,
        70.68970489501953,
        -345.7723388671875,
        -296.45928955078125,
        -326.1954345703125,
        -4726.45556640625,
        347.606201171875,
        2073.86474609375,
        -295.141357421875,
        -750.31201171875,
        243.2568359375,
        -1243.0372314453125,
        -1553.53662109375,
        -1232.6693115234375,
        -1144.1458740234375,
        -648.815673828125,
        -1111.465087890625,
        -870.731689453125,
        -1068.9151611328125,
        -1142.0623779296875,
        21.573238372802734,
        -288.009765625,
        -144.51968383789062,
        -65.2694091796875,
        -148.0767059326172,
        -212.86785888671875,
        38.916709899902344,
        41.581260681152344,
        17.943288803100586,
        -623.7449951171875
      ],
      "sha256_16": "d604ce62a5a8f99a"
    },
    "model.backbone.blocks.1.filter.h": {
      "shape": [
        128,
        1,
        128
      ],
      "dtype": "torch.float32",
      "mean": -19.966415405273438,
      "std": 1033.6258544921875,
      "absmax": 29480.408203125,
      "slice": [
        711.9425048828125,
        -41.37485885620117,
        -29.515625,
        -219.04531860351562,
        756.0969848632812,
        97.136474609375,
        153.84361267089844,
        -629.4375,
        1207.7452392578125,
        110.21383666992188,
        126.23489379882812,
        -205.1956329345703,
        787.6400146484375,
        223.82958984375,
        16.81686019897461,
        78.65753936767578,
        93.34222412109375,
        24.96324920654297,
        9.843901634216309,
        20.075214385986328,
        1.85858154296875,
        9.905695915222168,
        -2.4148707389831543,
        -2.3178482055664062,
        3.322352886199951,
        8.89980697631836,
        0.7418265342712402,
        -0.03182816505432129,
        0.9607526063919067,
        0.6837661266326904,
        0.2839951515197754,
        -0.14513063430786133,
        0.0,
        0.0,
        0.0,
        0.0,
        0.0,
        0.0,
        0.0,
        0.0,
        0.0,
        0.0,
        0.0,
        0.0,
        0.0,
        0.0,
        0.0,
        0.0,
        0.0,
        0.0,
        0.0,
        0.0,
        0.0,
        0.0,
        0.0,
        0.0,
        0.0,
        0.0,
        0.0,
        0.0,
        0.0,
        0.0,
        0.0,
        0.0
      ],
      "sha256_16": "6a0dfe45792f6624"
    },
    "model.backbone.blocks.1.filter.D": {
      "shape": [
        1920
      ],
      "dtype": "torch.float32",
      "mean": 6.7375407218933105,
      "std": 447.31475830078125,
      "absmax": 8121.638671875,
      "slice": [
        -18.844327926635742,
        -114.90287780761719,
        159.536865234375,
        11.268641471862793,
        -192.60194396972656,
        -108.98023986816406,
        -28.311006546020508,
        377.1461181640625,
        23.361400604248047,
        -21.8564395904541,
        -6.555660247802734,
        49.577491760253906,
        -10.893363952636719,
        670.375732421875,
        -76.37796020507812,
        -9.355534553527832,
        306.84039306640625,
        -3.670389175415039,
        -100.20841217041016,
        -107.8458251953125,
        35.409034729003906,
        -515.870361328125,
        129.4826202392578,
        126.83199310302734,
        384.63092041015625,
        -25.655597686767578,
        -925.9759521484375,
        471.0337829589844,
        25.426361083984375,
        28.210430145263672,
        -75.49832153320312,
        39.20872497558594,
        -59.04972457885742,
        13.519552230834961,
        87.25737762451172,
        -10.464066505432129,
        -135.677001953125,
        127.310546875,
        10.31610107421875,
        51.11446762084961,
        -92.53723907470703,
        0.8322130441665649,
        156.58511352539062,
        -393.7217102050781,
        29.608015060424805,
        701.6552124023438,
        -149.3889923095703,
        -29.459917068481445,
        -14.645097732543945,
        25.4595947265625,
        -1.0529611110687256,
        22.862417221069336,
        198.95513916015625,
        -158.7047576904297,
        105.72430419921875,
        -8.977502822875977,
        -122.47620391845703,
        6.132242202758789,
        4.092161655426025,
        346.99481201171875,
        -59.822540283203125,
        9.374661445617676,
        -5.719012260437012,
        193.4560089111328
      ],
      "sha256_16": "b089bd599e33c431"
    },
    "model.backbone.blocks.1.projections.weight": {
      "shape": [
        5760,
        1920
      ],
      "dtype": "torch.float32",
      "mean": -0.02361297979950905,
      "std": 152.91343688964844,
      "absmax": 17443.625,
      "slice": [
        -2.6207540035247803,
        0.6405186653137207,
        1.1537351608276367,
        -5.755324840545654,
        6.372081279754639,
        0.6608887314796448,
        3.289202928543091,
        3.8374922275543213,
        -2.045520305633545,
        -0.5606088638305664,
        -5.672505855560303,
        -4.027955055236816,
        4.921958923339844,
        -0.7451375126838684,
        3.9125442504882812,
        0.6110275983810425,
        2.506551742553711,
        3.5125746726989746,
        -0.07400227338075638,
        6.569652080535889,
        3.000291109085083,
        -1.9788672924041748,
        1.5193780660629272,
        -6.860164165496826,
        -3.7415366172790527,
        1.6904804706573486,
        -3.6990628242492676,
        -3.1652543544769287,
        -3.50095796585083,
        5.103377342224121,
        5.950309753417969,
        -1.0589996576309204,
        3.2355408668518066,
        0.20180362462997437,
        1.2270604372024536,
        -3.3992772102355957,
        -1.7408157587051392,
        0.6826781630516052,
        -2.3720669746398926,
        1.559829831123352,
        2.496614694595337,
        3.5225048065185547,
        2.1477670669555664,
        1.2864056825637817,
        4.215457439422607,
        7.75016975402832,
        3.5295584201812744,
        0.8709621429443359,
        -5.562593936920166,
        1.0001871585845947,
        -0.8842825889587402,
        -0.5732164978981018,
        -6.150797367095947,
        -4.000222682952881,
        -2.1556410789489746,
        -4.180139541625977,
        -1.9142662286758423,
        -1.8857898712158203,
        -3.0567142963409424,
        6.204466342926025,
        1.992052435874939,
        -2.605375289916992,
        -1.2185276746749878,
        0.6734709739685059
      ],
      "sha256_16": "20626c568a685dd6"
    },
    "model.backbone.blocks.1.out_filter_dense.weight": {
      "shape": [
        1920,
        1920
      ],
      "dtype": "torch.float32",
      "mean": 0.05149897187948227,
      "std": 546.7844848632812,
      "absmax": 41163.328125,
      "slice": [
        160.43038940429688,
        86.5409927368164,
        -953.5585327148438,
        2.98976993560791,
        -136.9088134765625,
        -240.6753387451172,
        -9.147257804870605,
        -364.79302978515625,
        77.54489135742188,
        51.642642974853516,
        234.69290161132812,
        98.00479888916016,
        -143.5059356689453,
        -389.487548828125,
        357.1202392578125,
        19.470796585083008,
        -787.2272338867188,
        609.1383056640625,
        -900.4573364257812,
        -702.98486328125,
        357.1248779296875,
        311.4138488769531,
        349.8852844238281,
        2634.00732421875,
        -1421.76171875,
        -39.92210388183594,
        650.7626342773438,
        -269.0971374511719,
        -318.88079833984375,
        -150.08985900878906,
        75.07127380371094,
        -118.74492645263672,
        1116.5450439453125,
        54.59453582763672,
        -646.90771484375,
        513.722900390625,
        109.56179809570312,
        39.74330139160156,
        1017.1185913085938,
        -23.035429000854492,
        159.95281982421875,
        -425.47613525390625,
        -230.16094970703125,
        28.466402053833008,
        -1.9246726036071777,
        97.66055297851562,
        -5040.69384765625,
        59.414825439453125,
        2666.90576171875,
        -747.8552856445312,
        27.84471893310547,
        -23.03398895263672,
        -113.0850601196289,
        146.28492736816406,
        528.9181518554688,
        932.55859375,
        225.70077514648438,
        -625.2631225585938,
        10.53271484375,
        775.7472534179688,
        75.68394470214844,
        -49.93541717529297,
        -2.619130849838257,
        135.3560333251953
      ],
      "sha256_16": "0da231153c73467b"
    },
    "model.backbone.blocks.1.out_filter_dense.bias": {
      "shape": [
        1920
      ],
      "dtype": "torch.float32",
      "mean": -3189.0361328125,
      "std": 508932.21875,
      "absmax": 2151026.5,
      "slice": [
        1158775.75,
        -39567.171875,
        -409787.53125,
        -467759.125,
        -193075.78125,
        84060.9453125,
        536847.75,
        26542.86328125,
        65780.171875,
        212765.46875,
        -157388.3125,
        -1072316.375,
        -131550.203125,
        -104420.078125,
        400091.0625,
        119818.59375,
        552231.3125,
        471901.375,
        -132611.15625,
        221677.734375,
        -120612.9921875,
        -842371.5625,
        -236801.5625,
        177393.4375,
        1244596.125,
        505693.59375,
        349041.59375,
        120207.296875,
        592850.75,
        -514176.53125,
        -1043203.125,
        -923738.4375,
        476841.3125,
        -681110.1875,
        519698.75,
        -523640.65625,
        193530.84375,
        1147721.375,
        -605559.5625,
        89725.8359375,
        -1315032.875,
        277090.03125,
        -153991.171875,
        -181157.734375,
        161784.296875,
        -188392.53125,
        -359247.5625,
        35889.703125,
        549903.5,
        -121860.9375,
        -680901.125,
        -351332.375,
        572328.6875,
        -588098.3125,
        -580302.8125,
        -635894.4375,
        -36264.4296875,
        650347.125,
        -202576.96875,
        373390.875,
        403323.25,
        -276313.125,
        147107.4375,
        -58929.16796875
      ],
      "sha256_16": "142d54b5dc0be174"
    },
    "model.backbone.blocks.1.mlp.l1.weight": {
      "shape": [
        5120,
        1920
      ],
      "dtype": "torch.float32",
      "mean": 0.16054309904575348,
      "std": 518.6932983398438,
      "absmax": 125001.6015625,
      "slice": [
        157.65040588378906,
        83.6147232055664,
        10.862296104431152,
        0.9349507689476013,
        -40.583168029785156,
        -297.3388977050781,
        -42.96833038330078,
        67.28669738769531,
        181.10272216796875,
        -321.0383605957031,
        74.0224838256836,
        147.80332946777344,
        -277.11505126953125,
        -199.58160400390625,
        -45.72367477416992,
        198.51730346679688,
        -28.811330795288086,
        -118.33021545410156,
        21.3292236328125,
        50.44828796386719,
        440.1680908203125,
        78.6163330078125,
        7.162481784820557,
        -140.7361602783203,
        68.313232421875,
        55.691497802734375,
        258.785400390625,
        102.84001159667969,
        130.5865936279297,
        99.4193344116211,
        -84.2300033569336,
        172.63656616210938,
        279.9193420410156,
        -25.03821563720703,
        83.47077178955078,
        -296.3750915527344,
        -101.8258056640625,
        170.21376037597656,
        -123.50640869140625,
        -90.55745697021484,
        71.22738647460938,
        -12.105744361877441,
        -100.56473541259766,
        -191.97760009765625,
        -157.08982849121094,
        241.8720703125,
        -262.983154296875,
        -123.17942810058594,
        -10.588130950927734,
        -158.50267028808594,
        -77.83818054199219,
        114.6843032836914,
        -0.8969258666038513,
        233.4951629638672,
        -84.82898712158203,
        35.04556655883789,
        -32.90142059326172,
        238.4213409423828,
        104.39675903320312,
        -145.96144104003906,
        -33.640323638916016,
        0.6488137245178223,
        56.725364685058594,
        -83.89375305175781
      ],
      "sha256_16": "f82bf54e73c459c7"
    },
    "model.backbone.blocks.1.mlp.l2.weight": {
      "shape": [
        5120,
        1920
      ],
      "dtype": "torch.float32",
      "mean": -0.07075382024049759,
      "std": 495.0857849121094,
      "absmax": 110299.7109375,
      "slice": [
        189.13267517089844,
        177.3235321044922,
        24.561264038085938,
        -80.76593780517578,
        -38.44818878173828,
        -514.9012451171875,
        -59.5760383605957,
        199.6155242919922,
        257.9682312011719,
        -579.80615234375,
        57.20198440551758,
        145.49293518066406,
        -439.0417785644531,
        -367.88592529296875,
        9.434032440185547,
        377.7924499511719,
        -40.39131546020508,
        -162.2239990234375,
        58.92275619506836,
        214.09800720214844,
        750.3031005859375,
        119.68145751953125,
        22.770048141479492,
        -383.1017150878906,
        35.56478500366211,
        134.84019470214844,
        356.161376953125,
        132.26669311523438,
        166.25711059570312,
        278.6531677246094,
        -60.61285400390625,
        270.6913146972656,
        544.4246826171875,
        -84.70931243896484,
        150.95188903808594,
        -598.4829711914062,
        -220.63229370117188,
        308.9637145996094,
        -249.67520141601562,
        -117.95995330810547,
        151.4268341064453,
        24.819658279418945,
        -76.65260314941406,
        -315.64642333984375,
        -218.10562133789062,
        650.6103515625,
        -413.6045227050781,
        -186.1854705810547,
        -114.66394805908203,
        -276.6237487792969,
        -133.19244384765625,
        198.0387725830078,
        -2.3523061275482178,
        322.5677795410156,
        -130.56439208984375,
        21.20154571533203,
        -75.88809967041016,
        385.6211242675781,
        103.62142944335938,
        -132.18690490722656,
        -34.40974426269531,
        -16.164697647094727,
        115.94883728027344,
        -153.2949981689453
      ],
      "sha256_16": "7ecce2232c33cb1b"
    },
    "model.backbone.blocks.1.mlp.l3.weight": {
      "shape": [
        1920,
        5120
      ],
      "dtype": "torch.float32",
      "mean": 0.06395714730024338,
      "std": 303.85198974609375,
      "absmax": 122308.9375,
      "slice": [
        -160.81695556640625,
        -182.87574768066406,
        4.179794788360596,
        -19.237903594970703,
        -150.92747497558594,
        -442.3631896972656,
        -116.84986877441406,
        -30.452983856201172,
        -49.88932418823242,
        -12.990459442138672,
        214.1428680419922,
        -0.6828368306159973,
        -209.4874725341797,
        490.81878662109375,
        35.03081512451172,
        14.40872573852539,
        62.289249420166016,
        89.05718231201172,
        -108.92827606201172,
        19.65317726135254,
        8.998908996582031,
        39.027503967285156,
        1.1666431427001953,
        155.40328979492188,
        18.829360961914062,
        30.800580978393555,
        -61.312747955322266,
        -3.1349685192108154,
        -79.77149200439453,
        -280.11212158203125,
        -2.0559277534484863,
        -100.77218627929688,
        -33.84093475341797,
        58.72386169433594,
        -133.56031799316406,
        107.12724304199219,
        33.07883834838867,
        281.1253356933594,
        295.3348693847656,
        41.851497650146484,
        73.4262924194336,
        173.2196807861328,
        102.67755126953125,
        229.12338256835938,
        255.58718872070312,
        -4.642313480377197,
        -58.57048034667969,
        20.04294204711914,
        33.2340202331543,
        100.5250244140625,
        145.3202667236328,
        185.50035095214844,
        49.19518280029297,
        149.38856506347656,
        133.06654357910156,
        47.9310302734375,
        -13.056068420410156,
        -65.76026153564453,
        -58.3006591796875,
        -255.79762268066406,
        33.453460693359375,
        -4.170967102050781,
        19.597488403320312,
        -71.60929107666016
      ],
      "sha256_16": "4293c407ba383061"
    },
    "model.backbone.blocks.2.pre_norm.scale": {
      "shape": [
        1920
      ],
      "dtype": "torch.float32",
      "mean": -488.4423522949219,
      "std": 1448.1783447265625,
      "absmax": 10675.7939453125,
      "slice": [
        519.1470947265625,
        -317.6685791015625,
        1718.5128173828125,
        -4048.87548828125,
        163.7448272705078,
        310.96337890625,
        39.06793212890625,
        -691.1986083984375,
        -2728.906494140625,
        -4062.786376953125,
        175.49822998046875,
        -1218.003173828125,
        1830.2518310546875,
        -669.8025512695312,
        -1239.25537109375,
        894.7741088867188,
        -2022.994384765625,
        940.972412109375,
        -2622.41015625,
        -4273.78662109375,
        -6895.33056640625,
        -2559.069580078125,
        727.4895629882812,
        -7208.4970703125,
        1100.9593505859375,
        180.1604461669922,
        -332.6218566894531,
        602.890869140625,
        -527.2836303710938,
        1515.3636474609375,
        -361.9520263671875,
        2731.250732421875,
        -249.3785400390625,
        -426.0867919921875,
        50.24718475341797,
        140.61984252929688,
        -362.3963928222656,
        -855.0062255859375,
        -872.66748046875,
        -218.25759887695312,
        2175.6279296875,
        -923.0628051757812,
        325.95599365234375,
        350.7973327636719,
        -251.59011840820312,
        4006.61767578125,
        -1867.5054931640625,
        623.4012451171875,
        1238.872802734375,
        1717.7939453125,
        -1766.5560302734375,
        614.0919799804688,
        3044.756103515625,
        579.8606567382812,
        -4447.3955078125,
        -3084.24267578125,
        -1017.2503662109375,
        -2182.73095703125,
        -1546.398681640625,
        -2044.8172607421875,
        763.858154296875,
        -865.5560302734375,
        251.429443359375,
        50.01122283935547
      ],
      "sha256_16": "bc995647c353931f"
    },
    "model.backbone.blocks.2.post_norm.scale": {
      "shape": [
        1920
      ],
      "dtype": "torch.float32",
      "mean": -1651.7120361328125,
      "std": 34096.421875,
      "absmax": 870502.25,
      "slice": [
        -115.6256103515625,
        -537.1466064453125,
        7299.0693359375,
        12065.6875,
        -245.470458984375,
        21.20592498779297,
        -9588.701171875,
        -5347.5546875,
        -3992.447021484375,
        1104.838134765625,
        -92.1707763671875,
        -5645.14453125,
        2553.6845703125,
        1655.550048828125,
        -1383.9544677734375,
        3147.54443359375,
        -425.5010986328125,
        1430.26513671875,
        252.11703491210938,
        -1979.965576171875,
        2602.8671875,
        -4183.2822265625,
        -83.57743072509766,
        -7044.2890625,
        13294.271484375,
        2714.733154296875,
        3178.248046875,
        -2614.25,
        -4891.1484375,
        620.4761962890625,
        7055.5126953125,
        -5852.88134765625,
        -311.5768737792969,
        -683.4213256835938,
        -3798.595947265625,
        -2680.053466796875,
        -297.7784118652344,
        -12101.7109375,
        -1597.700439453125,
        -180.83486938476562,
        -521.8424072265625,
        -3431.328857421875,
        1166.4517822265625,
        1291.8204345703125,
        60.1292724609375,
        -1445.56982421875,
        2719.006103515625,
        -391.0635070800781,
        409.0389709472656,
        -449.5683898925781,
        8281.93359375,
        2247.03369140625,
        1899.9620361328125,
        812.65869140625,
        -452.2508239746094,
        -23482.73828125,
        1036.7730712890625,
        3987.228515625,
        2158.09423828125,
        -251.5050048828125,
        1808.137939453125,
        -673.7651977539062,
        249.52157592773438,
        332.47760009765625
      ],
      "sha256_16": "b0513415e8acc65f"
    },
    "model.backbone.blocks.2.filter.short_filter_weight": {
      "shape": [
        5760,
        1,
        3
      ],
      "dtype": "torch.float32",
      "mean": -1767.2528076171875,
      "std": 179604.046875,
      "absmax": 23136942.0,
      "slice": [
        -25767.642578125,
        -13964.140625,
        45596.3359375,
        -8114.439453125,
        -8179.513671875,
        -10604.703125,
        -14111.3515625,
        -14293.421875,
        -15357.1259765625,
        11.691204071044922,
        6.459867477416992,
        10.69068431854248,
        -11.718866348266602,
        -42.55716323852539,
        -21.86431884765625,
        0.8213953971862793,
        20.81222152709961,
        11.78164005279541,
        -36.550994873046875,
        -18.941801071166992,
        -4.0135908126831055,
        3.847511053085327,
        8.545114517211914,
        43.34077453613281,
        2.3825230598449707,
        -0.3805607557296753,
        -7.664896011352539,
        -131.98873901367188,
        78.08216857910156,
        31.43132209777832,
        3.5139665603637695,
        1.9171562194824219,
        3.552835464477539,
        25.39884376525879,
        31.02840805053711,
        -7.343852996826172,
        -12.99506950378418,
        -17.007965087890625,
        15.025442123413086,
        1.7791041135787964,
        5.817303657531738,
        3.6101293563842773,
        0.43009334802627563,
        -9.293588638305664,
        -1.0395755767822266,
        114.76683807373047,
        127.27928924560547,
        170.05758666992188,
        -192.8511505126953,
        -215.68585205078125,
        -593.515380859375,
        -364.1798095703125,
        -228.2974395751953,
        -173.9483642578125,
        -1384.8856201171875,
        -648.2239990234375,
        -43.912139892578125,
        -972.992919921875,
        -558.3021240234375,
        -635.17236328125,
        1015.615966796875,
        622.5361328125,
        674.7886352539062,
        -29.27639389038086
      ],
      "sha256_16": "7b77d06827852f72"
    },
    "model.backbone.blocks.2.filter.log_poles": {
      "shape": [
        1920,
        16,
        1
      ],
      "dtype": "torch.float32",
      "mean": -3.1618504524230957,
      "std": 171.24420166015625,
      "absmax": 7481.15576171875,
      "slice": [
        -73.46184539794922,
        -74.87626647949219,
        -72.25384521484375,
        -85.30443572998047,
        -74.224853515625,
        -71.93961334228516,
        -76.91181945800781,
        -75.57093811035156,
        -72.48706817626953,
        -73.7740707397461,
        -79.86451721191406,
        -72.86227416992188,
        -83.12077331542969,
        -73.36007690429688,
        -73.11994171142578,
        -81.23543548583984,
        -2.6296262741088867,
        0.1205313578248024,
        0.1242462694644928,
        0.11870666593313217,
        0.1252644807100296,
        -0.8756501078605652,
        -2.5840015411376953,
        0.11875081062316895,
        0.12466105818748474,
        -0.11758867651224136,
        0.11266510933637619,
        0.12329049408435822,
        0.12755082547664642,
        0.12324830889701843,
        -1.247336745262146,
        0.11876969039440155,
        0.006709081120789051,
        -0.26642993092536926,
        0.011071151122450829,
        0.01818743348121643,
        0.0026307320222258568,
        0.022100668400526047,
        0.006256200838834047,
        0.020607944577932358,
        0.02168547920882702,
        0.007749938406050205,
        -4.060216903686523,
        0.020285815000534058,
        0.021618744358420372,
        0.005942004732787609,
        0.01659626141190529,
        0.019453058019280434,
        -0.05527818948030472,
        -0.055740006268024445,
        -0.055436983704566956,
        -0.05510253459215164,
        -0.0563446469604969,
        -0.05552751570940018,
        -0.05541456118226051,
        -0.055712901055812836,
        -0.055601540952920914,
        -0.05544966086745262,
        -0.05570107325911522,
        -0.05520465970039368,
        -0.0557284913957119,
        -0.05569522827863693,
        -0.05620972067117691,
        -0.05674992874264717
      ],
      "sha256_16": "6a06a6b5e706cce7"
    },
    "model.backbone.blocks.2.filter.residues": {
      "shape": [
        1920,
        16
      ],
      "dtype": "torch.float32",
      "mean": -38.30206298828125,
      "std": 3249.910400390625,
      "absmax": 134479.75,
      "slice": [
        -1722.8634033203125,
        -1730.2733154296875,
        -1709.2244873046875,
        -1776.812744140625,
        -1714.75634765625,
        -1712.740966796875,
        -1732.0709228515625,
        -1727.199951171875,
        -1714.5040283203125,
        -1715.513427734375,
        -1754.7060546875,
        -1713.244384765625,
        -1763.435302734375,
        -1716.523681640625,
        -1711.2320556640625,
        -1759.45751953125,
        20.468990325927734,
        11.7119140625,
        11.71450424194336,
        11.732294082641602,
        11.717093467712402,
        17.48027801513672,
        20.41309928894043,
        11.73332405090332,
        11.723687171936035,
        14.651864051818848,
        11.739723205566406,
        11.733487129211426,
        11.727583885192871,
        11.732538223266602,
        18.248910903930664,
        11.712777137756348,
        -4.700944423675537,
        -7.27608060836792,
        -4.89352560043335,
        -4.97885799407959,
        -4.712743759155273,
        -4.980556011199951,
        -4.693495273590088,
        -4.976314067840576,
        -4.986091136932373,
        -4.721704483032227,
        -12.413661003112793,
        -4.9814066886901855,
        -4.9831085205078125,
        -4.688032627105713,
        -4.96787166595459,
        -4.977585792541504,
        -0.47987982630729675,
        -0.45430609583854675,
        -0.5048901438713074,
        -0.4879586398601532,
        -0.423312783241272,
        -0.4670911729335785,
        -0.44074222445487976,
        -0.49395665526390076,
        -0.4763808250427246,
        -0.45671528577804565,
        -0.45683014392852783,
        -0.4709155559539795,
        -0.4933086037635803,
        -0.4838554561138153,
        -0.43791234493255615,
        -0.4545353055000305
      ],
      "sha256_16": "df3a88e6c3ec1099"
    },
    "model.backbone.blocks.2.filter.D": {
      "shape": [
        1920
      ],
      "dtype": "torch.float32",
      "mean": -14.586299896240234,
      "std": 1802.0948486328125,
      "absmax": 58823.91015625,
      "slice": [
        -1038.6041259765625,
        9.630621910095215,
        -5.2741899490356445,
        -1.4333937168121338,
        1.9358701705932617,
        -230.4886016845703,
        48.76885986328125,
        0.5232583284378052,
        -63.72901153564453,
        -6.077015399932861,
        -68.8136215209961,
        19.39095687866211,
        -0.9819265007972717,
        0.9966497421264648,
        -598.68505859375,
        1.2191553115844727,
        13.834823608398438,
        8.814011573791504,
        -44.60836410522461,
        56.73561096191406,
        1.5564464330673218,
        -270.60888671875,
        -7.117345809936523,
        2.3284912109375,
        -1.3465558290481567,
        12.03463077545166,
        425.781982421875,
        17.558509826660156,
        -2.933523178100586,
        56.59587478637695,
        6.569634437561035,
        22.887901306152344,
        -0.5782653093338013,
        115.17625427246094,
        -88.27133178710938,
        0.46477311849594116,
        -8.595938682556152,
        -112.07598876953125,
        -2.0914435386657715,
        22.999773025512695,
        -18.24958038330078,
        1.93379545211792,
        -0.06588128209114075,
        39.20646667480469,
        -7.157957077026367,
        48.810455322265625,
        0.031722694635391235,
        21.142667770385742,
        0.573342502117157,
        2.5343241691589355,
        1.9142690896987915,
        0.13658437132835388,
        -60.49113845825195,
        -142.43045043945312,
        12.415990829467773,
        21.981388092041016,
        55.226844787597656,
        -17.373268127441406,
        -269.0299377441406,
        0.5731400847434998,
        -4.110055923461914,
        -2.5435516834259033,
        4.686127185821533,
        46.99107360839844
      ],
      "sha256_16": "74c947bf01217b2d"
    },
    "model.backbone.blocks.2.projections.weight": {
      "shape": [
        5760,
        1920
      ],
      "dtype": "torch.float32",
      "mean": -0.10721921920776367,
      "std": 234.721435546875,
      "absmax": 60949.4765625,
      "slice": [
        -325.13677978515625,
        308.2505798339844,
        531.5247802734375,
        -1163.6990966796875,
        1809.2679443359375,
        -201.11227416992188,
        1128.646484375,
        877.6408081054688,
        -748.9385375976562,
        -1867.7928466796875,
        -843.4588012695312,
        -1468.2918701171875,
        75.14281463623047,
        -651.2752685546875,
        1113.3038330078125,
        304.4656677246094,
        993.0931396484375,
        201.4759521484375,
        -739.8046875,
        2454.00927734375,
        1359.6961669921875,
        -345.97454833984375,
        326.1015930175781,
        -2884.338623046875,
        -846.7115478515625,
        1326.388916015625,
        -990.2713623046875,
        -740.8156127929688,
        -771.8424072265625,
        276.1009826660156,
        25.37025260925293,
        -385.9291076660156,
        1823.1966552734375,
        -1413.1241455078125,
        634.3485107421875,
        -1012.4151000976562,
        -2147.28173828125,
        816.7018432617188,
        -1526.3931884765625,
        577.8397216796875,
        24.3344669342041,
        723.1690063476562,
        733.1340942382812,
        114.79536437988281,
        310.5244445800781,
        3531.4482421875,
        -384.1483459472656,
        747.6057739257812,
        -572.2189331054688,
        1342.3468017578125,
        -967.2311401367188,
        1301.0672607421875,
        -962.0062255859375,
        -2023.9183349609375,
        714.0203857421875,
        -1679.4896240234375,
        -541.839599609375,
        609.5364379882812,
        -951.4566650390625,
        2083.207763671875,
        335.7626647949219,
        -94.65360260009766,
        550.9116821289062,
        308.776611328125
      ],
      "sha256_16": "026bbc0b93c96144"
    },
    "model.backbone.blocks.2.out_filter_dense.weight": {
      "shape": [
        1920,
        1920
      ],
      "dtype": "torch.float32",
      "mean": 0.2107914686203003,
      "std": 1117.9046630859375,
      "absmax": 249396.609375,
      "slice": [
        -382.8588562011719,
        -3.961655378341675,
        2.3193862438201904,
        -24.113449096679688,
        -1.9764682054519653,
        22.59135627746582,
        25.661718368530273,
        -4.526467800140381,
        -8.746841430664062,
        0.16584140062332153,
        3.0631821155548096,
        -3.0556161403656006,
        0.4062254726886749,
        -1.995957851409912,
        -0.9879416227340698,
        -0.5231099724769592,
        2.8442578315734863,
        7.207373142242432,
        0.042114704847335815,
        -8.633130073547363,
        0.537050187587738,
        -11.640469551086426,
        2.4872934818267822,
        9.969891548156738,
        -16.158634185791016,
        -6.438136100769043,
        -6.08819055557251,
        -10.31113338470459,
        -1.8283756971359253,
        1.3954726457595825,
        0.8528951406478882,
        2.527827024459839,
        0.6077683568000793,
        -9.904742240905762,
        -4.811895370483398,
        11.455401420593262,
        -0.49707043170928955,
        -16.921079635620117,
        -1.2905337810516357,
        -0.1430986523628235,
        0.005022974219173193,
        6.822013854980469,
        0.053420353680849075,
        -2.2121822834014893,
        -4.377315044403076,
        56.00444412231445,
        -7.076659202575684,
        27.620635986328125,
        -18.859764099121094,
        -1.0174267292022705,
        -2.6392757892608643,
        3.3873164653778076,
        5.609271049499512,
        -6.218570232391357,
        19.41088104248047,
        -12.645974159240723,
        -10.045808792114258,
        3.2916383743286133,
        -8.775554656982422,
        1.1357061862945557,
        1.1601347923278809,
        -6.14358377456665,
        2.7861106395721436,
        1.6615859270095825
      ],
      "sha256_16": "db6409b53ed7d93c"
    },
    "model.backbone.blocks.2.out_filter_dense.bias": {
      "shape": [
        1920
      ],
      "dtype": "torch.float32",
      "mean": -44.55712890625,
      "std": 37562.54296875,
      "absmax": 685001.6875,
      "slice": [
        -1372.3740234375,
        -4278.8740234375,
        26246.904296875,
        75858.96875,
        6951.541015625,
        -11558.2705078125,
        -110404.6171875,
        45728.58984375,
        -8381.9111328125,
        13609.2021484375,
        5331.90234375,
        -13120.8896484375,
        3803.635498046875,
        -34719.11328125,
        -36242.46484375,
        5630.01416015625,
        29757.5546875,
        20195.5546875,
        3280.265625,
        -24787.837890625,
        -15100.734375,
        85021.2265625,
        -4963.3212890625,
        20591.96875,
        -3695.744140625,
        -72139.8828125,
        28235.1640625,
        32811.2109375,
        23723.37109375,
        28762.47265625,
        79327.9765625,
        -16754.416015625,
        25909.15234375,
        -9912.2939453125,
        276.1004638671875,
        -52373.703125,
        10620.51953125,
        -13917.697265625,
        32921.2578125,
        7087.3154296875,
        -32289.775390625,
        26542.037109375,
        -4036.39453125,
        -21453.234375,
        22888.427734375,
        -7650.27294921875,
        2231.20703125,
        66283.671875,
        18821.3828125,
        -22741.140625,
        30476.322265625,
        70624.578125,
        -44952.8515625,
        26430.8359375,
        -65337.11328125,
        -46036.3046875,
        81465.9140625,
        23011.0078125,
        27388.16015625,
        -1699.73388671875,
        -10149.07421875,
        -39604.51953125,
        7882.1650390625,
        -11847.3173828125
      ],
      "sha256_16": "1848c59a6909181c"
    },
    "model.backbone.blocks.2.mlp.l1.weight": {
      "shape": [
        5120,
        1920
      ],
      "dtype": "torch.float32",
      "mean": -0.041125643998384476,
      "std": 114.25548553466797,
      "absmax": 27224.9296875,
      "slice": [
        -0.13359467685222626,
        -0.1275346577167511,
        -0.4489310085773468,
        -2.9351556301116943,
        0.3320305347442627,
        -0.3976801037788391,
        2.245507001876831,
        1.0817111730575562,
        1.4200605154037476,
        -0.1857602745294571,
        0.02310137078166008,
        -1.6541396379470825,
        -1.138905644416809,
        -0.6711553931236267,
        1.5002481937408447,
        1.3900562524795532,
        0.5073373913764954,
        0.32379886507987976,
        1.8854320049285889,
        1.6235171556472778,
        1.104490041732788,
        -0.010212711989879608,
        -0.06420931965112686,
        -2.0465176105499268,
        2.5604755878448486,
        0.8801860213279724,
        -1.5793418884277344,
        -0.11381016671657562,
        0.8450713157653809,
        0.12929664552211761,
        -0.7859881520271301,
        -0.9160962700843811,
        -0.020571986213326454,
        -0.7457674741744995,
        -0.8760095238685608,
        -0.8602834939956665,
        0.4274677336215973,
        2.2040109634399414,
        -0.33909276127815247,
        -0.7221648693084717,
        0.21531608700752258,
        1.804935097694397,
        0.9787867665290833,
        0.08132623136043549,
        0.20434217154979706,
        -0.2823777496814728,
        -1.4288136959075928,
        0.041265130043029785,
        -1.1734821796417236,
        -0.14560770988464355,
        -1.5239372253417969,
        -0.722588062286377,
        -0.05139591172337532,
        -0.8310747146606445,
        -0.7869225144386292,
        -2.747713088989258,
        -0.16763648390769958,
        -1.188107967376709,
        -1.818159818649292,
        0.9986442923545837,
        -0.39231038093566895,
        -0.5806442499160767,
        0.012217367999255657,
        -0.17744149267673492
      ],
      "sha256_16": "b15ec8de2a2a200d"
    },
    "model.backbone.blocks.2.mlp.l2.weight": {
      "shape": [
        5120,
        1920
      ],
      "dtype": "torch.float32",
      "mean": -0.01898263208568096,
      "std": 113.97732543945312,
      "absmax": 37941.2109375,
      "slice": [
        -2.224216938018799,
        -2.2852118015289307,
        1.537184715270996,
        11.806977272033691,
        0.40274935960769653,
        0.8230674266815186,
        -9.727265357971191,
        -4.647266387939453,
        -8.289090156555176,
        2.3686137199401855,
        -0.8934370875358582,
        4.4679131507873535,
        3.8940865993499756,
        4.300985813140869,
        -6.71505880355835,
        -5.638645648956299,
        -1.6685031652450562,
        -2.820767879486084,
        -4.373552322387695,
        -7.636795520782471,
        -2.821416139602661,
        -0.030427847057580948,
        -2.1261048316955566,
        13.483633041381836,
        -17.495582580566406,
        -5.27253532409668,
        6.675941467285156,
        1.5898926258087158,
        -6.654290199279785,
        0.9682772755622864,
        9.267531394958496,
        10.220473289489746,
        -2.8319709300994873,
        6.168513774871826,
        6.455120086669922,
        5.369621753692627,
        -1.2456669807434082,
        -11.095619201660156,
        5.698563098907471,
        0.13119496405124664,
        1.567336082458496,
        -6.135191440582275,
        -4.33282470703125,
        -1.7376757860183716,
        0.5176616907119751,
        4.108086109161377,
        8.803933143615723,
        -2.419128894805908,
        4.093109607696533,
        -3.019019365310669,
        10.577701568603516,
        2.3964245319366455,
        -0.1939263641834259,
        2.4943056106567383,
        0.6095744371414185,
        17.892330169677734,
        0.5638930201530457,
        7.081982135772705,
        2.8945088386535645,
        -3.352003574371338,
        -5.622391223907471,
        -0.08005475997924805,
        -2.362685203552246,
        -0.788288950920105
      ],
      "sha256_16": "41ba8563fb91653f"
    },
    "model.backbone.blocks.2.mlp.l3.weight": {
      "shape": [
        1920,
        5120
      ],
      "dtype": "torch.float32",
      "mean": -0.10515721887350082,
      "std": 428.5403137207031,
      "absmax": 256918.40625,
      "slice": [
        -0.16428950428962708,
        1.3090739250183105,
        3.766448974609375,
        -3.367919683456421,
        -5.742415428161621,
        -0.5062256455421448,
        -1.0786092281341553,
        -3.54723858833313,
        -1.207338809967041,
        -6.719204425811768,
        7.220266342163086,
        -1.051600456237793,
        2.315603733062744,
        3.0726776123046875,
        -3.1207432746887207,
        -3.460010051727295,
        1.45309317111969,
        14.492570877075195,
        0.45762667059898376,
        5.426056385040283,
        -5.452390193939209,
        -0.27625855803489685,
        -1.3723498582839966,
        0.12343291193246841,
        2.5076940059661865,
        -0.16132205724716187,
        -1.261871099472046,
        -0.3264960050582886,
        0.4651370942592621,
        -6.556662559509277,
        -7.438192844390869,
        -0.47420623898506165,
        7.897397518157959,
        0.7228086590766907,
        -9.958484649658203,
        -3.006521701812744,
        -10.087427139282227,
        -2.1271250247955322,
        -20.169504165649414,
        -15.891554832458496,
        -1.1428639888763428,
        -1.9589099884033203,
        0.7139098048210144,
        1.661804437637329,
        -1.4000710248947144,
        -28.957033157348633,
        -7.733628749847412,
        -3.2830872535705566,
        3.7511017322540283,
        -1.9382606744766235,
        0.21658512949943542,
        -14.26957893371582,
        -0.572660505771637,
        -5.332451820373535,
        0.9566509127616882,
        -2.4407601356506348,
        -0.8052064776420593,
        -3.2284605503082275,
        -10.12661361694336,
        -2.8830955028533936,
        15.001791000366211,
        2.550858974456787,
        -1.1336668729782104,
        2.1372923851013184
      ],
      "sha256_16": "07ca28fb377876be"
    },
    "model.backbone.blocks.3.pre_norm.scale": {
      "shape": [
        1920
      ],
      "dtype": "torch.float32",
      "mean": 7007.23291015625,
      "std": 156078.46875,
      "absmax": 4888457.0,
      "slice": [
        1563.5150146484375,
        1446.678955078125,
        5562.62646484375,
        10360.427734375,
        637.6375122070312,
        498.1982116699219,
        15545.9541015625,
        851.9716186523438,
        2180.082763671875,
        834.9714965820312,
        8220.5576171875,
        508.99468994140625,
        2071.029541015625,
        3334.81396484375,
        644.1946411132812,
        -834.2837524414062,
        -0.7119741439819336,
        453.10333251953125,
        602.829833984375,
        959.3319091796875,
        -294.9748840332031,
        29642.16015625,
        -1445.0411376953125,
        30.429676055908203,
        -80.38816833496094,
        -143.61880493164062,
        2144.925537109375,
        414.8392333984375,
        992.8836669921875,
        2183.201171875,
        1268.85107421875,
        -120.8542709350586,
        -59.357391357421875,
        -737.656982421875,
        184.23281860351562,
        2450.89501953125,
        2849.943115234375,
        2102.467529296875,
        2433.291015625,
        -1045.9813232421875,
        350.51300048828125,
        -575.203125,
        -5666.3818359375,
        505.6199951171875,
        2267.09716796875,
        -250.95492553710938,
        95.72781372070312,
        6020.93212890625,
        441.7559814453125,
        4255.431640625,
        5833.18408203125,
        223.71229553222656,
        -129.606689453125,
        774.6452026367188,
        -744.3482666015625,
        -52.69178771972656,
        8749.7158203125,
        7490.60107421875,
        2777.222900390625,
        1880.50927734375,
        -786.701904296875,
        4935.1865234375,
        -248.26608276367188,
        1015.3636474609375
      ],
      "sha256_16": "c6946737900b287c"
    },
    "model.backbone.blocks.3.post_norm.scale": {
      "shape": [
        1920
      ],
      "dtype": "torch.float32",
      "mean": -1404.2525634765625,
      "std": 15684.9794921875,
      "absmax": 344127.3125,
      "slice": [
        -8262.3076171875,
        -58.73102569580078,
        405.7699890136719,
        156.23785400390625,
        -328.6404113769531,
        -1904.3914794921875,
        -3699.0,
        16.859588623046875,
        -1222.9708251953125,
        339.00238037109375,
        -1760.2532958984375,
        -252.42666625976562,
        -3261.482177734375,
        -107.84954833984375,
        -224.66029357910156,
        157.58766174316406,
        -1519.1396484375,
        513.5216064453125,
        -7.52764892578125,
        -829.4952392578125,
        -4404.08203125,
        -232045.796875,
        3592.59130859375,
        245.2924041748047,
        81.60003662109375,
        -884.600341796875,
        776.250244140625,
        457.84716796875,
        -1166.481201171875,
        896.1439208984375,
        2361.2421875,
        -6070.97607421875,
        -798.7630615234375,
        -915.8345947265625,
        919.730712890625,
        -890.3014526367188,
        1312.2816162109375,
        -5349.14892578125,
        1976.405029296875,
        -883.4915771484375,
        1472.304443359375,
        1174.461181640625,
        -121.94740295410156,
        -358.2042541503906,
        807.2719116210938,
        -819.904541015625,
        9.815216064453125,
        377.0679016113281,
        1549.5533447265625,
        -2196.951416015625,
        -231.18130493164062,
        -1446.336181640625,
        -5105.7080078125,
        -149.77174377441406,
        -1311.805419921875,
        685.9111328125,
        -3533.7275390625,
        -2002.1810302734375,
        -908.4772338867188,
        674.2060546875,
        641.88525390625,
        -1663.921875,
        111.44914245605469,
        -368.03106689453125
      ],
      "sha256_16": "3bc5f59b170a7188"
    },
    "model.backbone.blocks.3.inner_mha_cls.Wqkv.weight": {
      "shape": [
        5760,
        1920
      ],
      "dtype": "torch.float32",
      "mean": -0.08330824226140976,
      "std": 355.14434814453125,
      "absmax": 120593.546875,
      "slice": [
        -1.5714911222457886,
        -0.7792354822158813,
        -1.9092810153961182,
        -1.252609133720398,
        8.426112174987793,
        -0.03207310289144516,
        5.120254039764404,
        -0.5036320090293884,
        0.7424215078353882,
        0.7794103622436523,
        0.29018935561180115,
        -2.7894625663757324,
        -0.12681469321250916,
        0.27770093083381653,
        1.6828219890594482,
        0.8738455176353455,
        -0.03988562896847725,
        0.4721999168395996,
        1.8136576414108276,
        0.6662940979003906,
        2.6742773056030273,
        17.577613830566406,
        -0.9289612770080566,
        -1.0599558353424072,
        0.4915320575237274,
        1.128426432609558,
        -1.6430329084396362,
        2.044517993927002,
        -0.10652793198823929,
        0.288129985332489,
        1.5265778303146362,
        0.13453085720539093,
        -1.4724355936050415,
        0.19338299334049225,
        0.3909394443035126,
        0.8491048216819763,
        -0.04335024952888489,
        -0.4369373619556427,
        1.2872241735458374,
        -1.8602855205535889,
        1.9438202381134033,
        2.0261151790618896,
        1.7014507055282593,
        -1.144641637802124,
        2.2411770820617676,
        1.8052996397018433,
        -0.26638320088386536,
        -0.22511805593967438,
        -0.6616557240486145,
        -0.9652478098869324,
        -0.5921727418899536,
        -2.7784171104431152,
        -1.7410343885421753,
        -4.59653377532959,
        -1.8906748294830322,
        -0.007209768518805504,
        -0.4169749319553375,
        -0.6068502068519592,
        -3.004138469696045,
        1.2898147106170654,
        -2.3606464862823486,
        0.41397809982299805,
        0.5417075157165527,
        -0.05080172047019005
      ],
      "sha256_16": "0ca1c1b995e2488c"
    },
    "model.backbone.blocks.3.inner_mha_cls.out_proj.weight": {
      "shape": [
        1920,
        1920
      ],
      "dtype": "torch.float32",
      "mean": 0.11921349912881851,
      "std": 1001.4058837890625,
      "absmax": 78129.546875,
      "slice": [
        -1044.4630126953125,
        -346.45477294921875,
        -639.83740234375,
        -896.4065551757812,
        -219.1874237060547,
        -347.16131591796875,
        -376.82659912109375,
        -196.0868682861328,
        -232.84017944335938,
        2476.10498046875,
        -344.6148376464844,
        -450.7355041503906,
        14.686631202697754,
        -1972.4005126953125,
        251.6775360107422,
        -696.5730590820312,
        -743.4329833984375,
        -144.60537719726562,
        423.4864196777344,
        -1041.2794189453125,
        534.00146484375,
        986.7559204101562,
        -245.54856872558594,
        813.298095703125,
        132.2440643310547,
        -1415.93408203125,
        -142.34400939941406,
        807.8921508789062,
        -30.787038803100586,
        662.1580200195312,
        -791.9845581054688,
        -689.4398193359375,
        -713.8248901367188,
        341.6630554199219,
        261.4106140136719,
        827.3072509765625,
        46.17454147338867,
        -142.43875122070312,
        -459.57489013671875,
        270.6281433105469,
        113.10546112060547,
        -901.7476806640625,
        84.4876708984375,
        -3.6492865085601807,
        -350.4364929199219,
        1481.39990234375,
        344.3358459472656,
        -696.2135009765625,
        217.57508850097656,
        1516.5380859375,
        11.13339614868164,
        -1259.977783203125,
        1098.862548828125,
        1055.146240234375,
        393.7529296875,
        -517.7508544921875,
        970.06494140625,
        -290.3260192871094,
        -1265.841796875,
        776.63818359375,
        1211.936767578125,
        85.50347900390625,
        -392.7089538574219,
        712.4612426757812
      ],
      "sha256_16": "2f2288494cffaac3"
    },
    "model.backbone.blocks.3.inner_mha_cls.out_proj.bias": {
      "shape": [
        1920
      ],
      "dtype": "torch.float32",
      "mean": -150.1920623779297,
      "std": 20438.904296875,
      "absmax": 97072.6640625,
      "slice": [
        -29226.80078125,
        -27366.44140625,
        34016.9453125,
        38833.8046875,
        5035.10546875,
        7886.52099609375,
        -53604.64453125,
        -1358.294921875,
        -17593.66796875,
        7649.5595703125,
        -30946.23046875,
        15641.1318359375,
        -24908.595703125,
        -4580.365234375,
        -30524.609375,
        4667.2255859375,
        18642.291015625,
        28905.05859375,
        -10397.958984375,
        -20260.8984375,
        -3757.87890625,
        -33437.45703125,
        9775.962890625,
        25271.802734375,
        8336.9765625,
        -50511.00390625,
        17387.783203125,
        17835.765625,
        8065.90673828125,
        6794.2470703125,
        43058.3125,
        -1032.1533203125,
        27329.982421875,
        8149.1240234375,
        28788.916015625,
        -47694.125,
        -14058.1982421875,
        -53603.4296875,
        29993.70703125,
        14300.984375,
        -1737.14794921875,
        -14075.1572265625,
        -34549.0390625,
        11089.6533203125,
        10422.056640625,
        -6626.1435546875,
        -3936.57080078125,
        38729.5,
        16452.234375,
        -32054.97265625,
        23334.25,
        34104.11328125,
        -19323.9921875,
        19232.208984375,
        -14833.0498046875,
        18556.1796875,
        12928.97265625,
        9247.4921875,
        19150.908203125,
        19820.841796875,
        -11583.7890625,
        -5782.73046875,
        3687.74853515625,
        -35558.28125
      ],
      "sha256_16": "78b1f8951c02f434"
    },
    "model.backbone.blocks.3.mlp.l1.weight": {
      "shape": [
        5120,
        1920
      ],
      "dtype": "torch.float32",
      "mean": 0.0051097264513373375,
      "std": 62.49231719970703,
      "absmax": 33756.9921875,
      "slice": [
        54.749881744384766,
        -18.7661190032959,
        9.099281311035156,
        18.12355613708496,
        -20.533510208129883,
        -17.24060821533203,
        -22.921598434448242,
        -15.900002479553223,
        -11.831833839416504,
        17.254364013671875,
        7.838861465454102,
        14.34989070892334,
        -59.28882598876953,
        3.2851157188415527,
        3.140564203262329,
        11.16510009765625,
        8.474123001098633,
        -1.6472139358520508,
        19.053773880004883,
        -17.916868209838867,
        -44.7713737487793,
        563.9692993164062,
        33.779441833496094,
        20.657062530517578,
        31.244009017944336,
        -22.108470916748047,
        20.791723251342773,
        1.2003604173660278,
        54.271724700927734,
        8.25694751739502,
        -45.22917175292969,
        -26.76161766052246,
        0.9600865840911865,
        -34.823184967041016,
        40.425315856933594,
        -46.292259216308594,
        46.724178314208984,
        -30.252958297729492,
        -26.194995880126953,
        -46.82976531982422,
        24.82379722595215,
        0.1450616866350174,
        -2.797729730606079,
        -1.2337613105773926,
        13.388338088989258,
        -15.105305671691895,
        2.766462564468384,
        -27.81774139404297,
        24.571836471557617,
        -20.061519622802734,
        13.321199417114258,
        -6.58128023147583,
        24.81633186340332,
        46.81521224975586,
        23.638553619384766,
        19.34246826171875,
        41.77598190307617,
        -13.951728820800781,
        -2.8087809085845947,
        -24.621355056762695,
        26.23975372314453,
        30.69217872619629,
        10.494996070861816,
        -46.038631439208984
      ],
      "sha256_16": "c3191d57ed8f9a0e"
    },
    "model.backbone.blocks.3.mlp.l2.weight": {
      "shape": [
        5120,
        1920
      ],
      "dtype": "torch.float32",
      "mean": 0.005435859318822622,
      "std": 37.10404968261719,
      "absmax": 17199.365234375,
      "slice": [
        37.62755584716797,
        -14.935293197631836,
        4.48873233795166,
        0.5587779879570007,
        -16.61861801147461,
        -11.935436248779297,
        -1.4946788549423218,
        -16.83568572998047,
        -2.284430742263794,
        6.5004777908325195,
        21.457637786865234,
        9.219858169555664,
        -38.44667053222656,
        -1.522410273551941,
        5.269323348999023,
        9.04638957977295,
        -3.203139066696167,
        -7.933883190155029,
        13.675832748413086,
        -2.4350709915161133,
        -26.48072052001953,
        426.4044494628906,
        19.081562042236328,
        16.210386276245117,
        22.994930267333984,
        -7.99609375,
        7.988185405731201,
        1.364290475845337,
        41.01255798339844,
        -0.8415454030036926,
        -35.089839935302734,
        -6.6026787757873535,
        9.878013610839844,
        -20.46158218383789,
        22.28419303894043,
        -29.77418327331543,
        35.85930633544922,
        -16.57756996154785,
        -19.52486801147461,
        -36.08369445800781,
        10.410902976989746,
        4.999391078948975,
        -4.147060871124268,
        -6.605050563812256,
        3.556795597076416,
        -5.261556148529053,
        -4.506493091583252,
        -21.052705764770508,
        12.661999702453613,
        -28.363096237182617,
        9.115594863891602,
        -9.971759796142578,
        11.595611572265625,
        42.122161865234375,
        10.130744934082031,
        10.854740142822266,
        24.831729888916016,
        2.122119188308716,
        -12.486390113830566,
        -19.688844680786133,
        18.254098892211914,
        18.66822624206543,
        6.553778648376465,
        -33.91095733642578
      ],
      "sha256_16": "eff70beefd6b8989"
    },
    "model.backbone.blocks.3.mlp.l3.weight": {
      "shape": [
        1920,
        5120
      ],
      "dtype": "torch.float32",
      "mean": -0.004078240599483252,
      "std": 215.56430053710938,
      "absmax": 48294.96875,
      "slice": [
        -24.341144561767578,
        -21.688180923461914,
        -3.938668966293335,
        -19.642410278320312,
        3.434211015701294,
        0.6595785021781921,
        -19.920391082763672,
        -11.407364845275879,
        56.8774528503418,
        33.9995231628418,
        8.120590209960938,
        2.2545125484466553,
        28.320287704467773,
        3.082181215286255,
        8.667764663696289,
        196.67083740234375,
        5.436008930206299,
        -14.060539245605469,
        43.17771911621094,
        2.315091609954834,
        14.493228912353516,
        13.435781478881836,
        6.721489429473877,
        2.073823928833008,
        -29.562824249267578,
        51.587589263916016,
        15.258753776550293,
        -3.9842846393585205,
        -2.045180082321167,
        10.980344772338867,
        -4.891499042510986,
        -31.675060272216797,
        30.459684371948242,
        13.515891075134277,
        -0.7962035536766052,
        -47.20848846435547,
        2.663069486618042,
        14.094720840454102,
        -22.932430267333984,
        43.25147247314453,
        69.70760345458984,
        4.352416038513184,
        44.66268539428711,
        -5.373239517211914,
        -16.067222595214844,
        -15.478357315063477,
        28.949243545532227,
        14.307960510253906,
        28.624645233154297,
        -33.452476501464844,
        -58.622283935546875,
        -22.476041793823242,
        87.92095947265625,
        -29.712717056274414,
        8.118873596191406,
        16.21977996826172,
        8.45638656616211,
        -8.34650993347168,
        38.7468376159668,
        -22.28103256225586,
        22.131635665893555,
        -1.1787314414978027,
        2.6588187217712402,
        -98.16302490234375
      ],
      "sha256_16": "0d4af95d327ca9fa"
    },
    "model.backbone.blocks.4.pre_norm.scale": {
      "shape": [
        1920
      ],
      "dtype": "torch.float32",
      "mean": 15.15241813659668,
      "std": 331.63287353515625,
      "absmax": 7969.1787109375,
      "slice": [
        10.771650314331055,
        0.7651467323303223,
        99.89578247070312,
        -44.66730880737305,
        88.1702880859375,
        -15.192621231079102,
        -158.08062744140625,
        -46.80043029785156,
        99.9324951171875,
        -41.637062072753906,
        -153.19461059570312,
        40.0100212097168,
        -130.336669921875,
        25.152080535888672,
        95.71869659423828,
        -11.082433700561523,
        -91.25923156738281,
        19.00515365600586,
        -5.354118347167969,
        -30.321754455566406,
        0.8982391357421875,
        456.79620361328125,
        -21.177125930786133,
        27.469528198242188,
        -47.944358825683594,
        43.16415786743164,
        10.05069351196289,
        -40.36921310424805,
        -114.62162780761719,
        11.69198989868164,
        16.344480514526367,
        -99.99829864501953,
        12.67498779296875,
        -39.89778518676758,
        54.24512481689453,
        -165.70855712890625,
        88.64334869384766,
        3.907838821411133,
        -6.045682430267334,
        -72.79634857177734,
        6.366062164306641,
        17.228885650634766,
        19.60961151123047,
        -3.6294479370117188,
        6.656093597412109,
        -12.0860595703125,
        -102.8882827758789,
        9.367486953735352,
        -76.94055938720703,
        77.01212310791016,
        -92.10345458984375,
        -37.62980651855469,
        99.5008544921875,
        67.87136840820312,
        38.22309875488281,
        9.218955039978027,
        -119.91554260253906,
        -78.37167358398438,
        -6.048674583435059,
        -27.329425811767578,
        82.14761352539062,
        65.93650817871094,
        55.85608673095703,
        -48.948055267333984
      ],
      "sha256_16": "aaf149c3a6e0cd58"
    },
    "model.backbone.blocks.4.post_norm.scale": {
      "shape": [
        1920
      ],
      "dtype": "torch.float32",
      "mean": 78.66651916503906,
      "std": 1153.2689208984375,
      "absmax": 30779.310546875,
      "slice": [
        -105.20863342285156,
        56.28143310546875,
        -735.236572265625,
        51.43060302734375,
        237.8935546875,
        -135.3076171875,
        1487.8433837890625,
        1.5491209030151367,
        340.4814758300781,
        190.4812774658203,
        -122.9649658203125,
        -163.3710479736328,
        236.36029052734375,
        515.2389526367188,
        86.07530212402344,
        -263.7687072753906,
        617.6314697265625,
        -527.9122314453125,
        -59.570457458496094,
        656.973388671875,
        -1007.5789794921875,
        -1893.236572265625,
        149.43734741210938,
        -1180.3492431640625,
        -370.33770751953125,
        181.25025939941406,
        148.34652709960938,
        -569.3983154296875,
        -146.4608917236328,
        64.669189453125,
        392.6980285644531,
        -1106.470947265625,
        -770.8895263671875,
        -257.4380798339844,
        1000.7957763671875,
        454.1948547363281,
        -1.233917236328125,
        100.02882385253906,
        -75.80125427246094,
        806.6509399414062,
        95.89581298828125,
        325.9732360839844,
        -744.1927490234375,
        -395.3841552734375,
        -332.17999267578125,
        500.2132568359375,
        -401.2337646484375,
        -57.90185546875,
        715.1710205078125,
        958.0943603515625,
        -558.4171142578125,
        27.292194366455078,
        58.277191162109375,
        -342.7389221191406,
        -239.468994140625,
        63.81182861328125,
        1472.249267578125,
        -739.9288940429688,
        1044.1746826171875,
        -1054.20361328125,
        -759.5843505859375,
        1198.135009765625,
        -239.3834686279297,
        -322.5899963378906
      ],
      "sha256_16": "2197ac463d74ec5b"
    },
    "model.backbone.blocks.4.filter.short_filter_weight": {
      "shape": [
        5760,
        1,
        3
      ],
      "dtype": "torch.float32",
      "mean": 9.561182975769043,
      "std": 1240.6688232421875,
      "absmax": 90656.3125,
      "slice": [
        57.477664947509766,
        -236.48231506347656,
        67.12687683105469,
        88.44271850585938,
        106.28610229492188,
        95.57412719726562,
        126.45325469970703,
        -216.34373474121094,
        199.7901611328125,
        -2.351022720336914,
        18.591814041137695,
        12.430484771728516,
        63.658172607421875,
        45.71179962158203,
        71.8846435546875,
        4.0668745040893555,
        -1.1743626594543457,
        -10.859143257141113,
        10.280189514160156,
        -9.191227912902832,
        -33.11985778808594,
        17.807266235351562,
        16.21881103515625,
        13.045324325561523,
        -40.12715148925781,
        -49.42768859863281,
        5.371698379516602,
        -27.125835418701172,
        -15.442558288574219,
        -4.761384963989258,
        -26.036571502685547,
        -12.69221305847168,
        -6.316436290740967,
        -5.679333686828613,
        -8.903900146484375,
        -19.58515739440918,
        16.783203125,
        -1.7582712173461914,
        -3.0637707710266113,
        -9.74777889251709,
        -18.797992706298828,
        -14.045561790466309,
        -18.259201049804688,
        -7.50998592376709,
        -2.021146774291992,
        8.595187187194824,
        -8.173101425170898,
        -0.2151026725769043,
        -36.13168716430664,
        -38.29856872558594,
        -10.456626892089844,
        -0.8922433853149414,
        0.7111690044403076,
        8.784672737121582,
        -21.35602378845215,
        56.70287322998047,
        -19.253257751464844,
        12.397238731384277,
        12.843490600585938,
        11.704593658447266,
        30.61294174194336,
        -96.08684539794922,
        14.665246963500977,
        56.064857482910156
      ],
      "sha256_16": "b49aea2a43e8e62b"
    },
    "model.backbone.blocks.4.filter.h": {
      "shape": [
        128,
        1,
        7
      ],
      "dtype": "torch.float32",
      "mean": -93.57596588134766,
      "std": 1126.8524169921875,
      "absmax": 18555.33203125,
      "slice": [
        56.79735565185547,
        -134.72482299804688,
        51.82801055908203,
        84.34859466552734,
        15.256546020507812,
        -176.4033966064453,
        62.68955993652344,
        26.572986602783203,
        -70.37139892578125,
        -126.55594635009766,
        -132.00546264648438,
        17.784446716308594,
        -45.23576736450195,
        -109.01663208007812,
        0.5169837474822998,
        -14.986557960510254,
        -9.676688194274902,
        -19.805267333984375,
        15.129476547241211,
        -104.2754898071289,
        -13.712752342224121,
        -112.52761840820312,
        -124.97705078125,
        -129.424072265625,
        -74.97186279296875,
        -70.42853546142578,
        -86.41761016845703,
        -37.136661529541016,
        -83.73214721679688,
        -97.10501098632812,
        -41.52074432373047,
        -63.00791549682617,
        -142.92843627929688,
        -173.01864624023438,
        -59.478363037109375,
        -4320.99365234375,
        -2734.666015625,
        -1957.0078125,
        -2623.96875,
        -2616.849365234375,
        -2082.704345703125,
        -572.3037109375,
        54.03905487060547,
        55.68354415893555,
        6.687242031097412,
        25.746875762939453,
        135.2180633544922,
        104.1557846069336,
        14.885665893554688,
        -34.258575439453125,
        -107.93785095214844,
        18.151493072509766,
        80.73886108398438,
        -79.11158752441406,
        -97.68446350097656,
        -29.97454833984375,
        23.997041702270508,
        212.63265991210938,
        79.7962417602539,
        53.40152359008789,
        76.34156799316406,
        -10.091012954711914,
        -58.86726379394531,
        -379.8408508300781
      ],
      "sha256_16": "80d25a36962f26bb"
    },
    "model.backbone.blocks.4.projections.weight": {
      "shape": [
        5760,
        1920
      ],
      "dtype": "torch.float32",
      "mean": 0.004525406751781702,
      "std": 24.94624137878418,
      "absmax": 18330.826171875,
      "slice": [
        2.896578788757324,
        2.538954019546509,
        5.461797714233398,
        7.413815498352051,
        -8.378666877746582,
        0.5098624229431152,
        -23.08422088623047,
        -0.12450471520423889,
        4.54697322845459,
        5.0642547607421875,
        -0.17857670783996582,
        2.7820608615875244,
        -5.613539695739746,
        3.9384076595306396,
        -3.1805543899536133,
        -2.5718603134155273,
        1.3203009366989136,
        4.164767742156982,
        3.4634673595428467,
        -13.630452156066895,
        0.42964354157447815,
        24.387847900390625,
        3.479034662246704,
