{
  "meta": {
    "device": "cpu",
    "seed": 1234,
    "dtype": "model-default",
    "loss": "adapter.loss_fn",
    "loss_value": -1745.14599609375,
    "model_id": "songlab/gpn-star-tair10-b18-25m (dev: full GPNStarForMaskedLM, vendored)",
    "torch_version": "2.11.0+cpu",
    "num_grad_tensors": 240
  },
  "env_lock": "env/versions.txt",
  "outputs": {
    "[0]": {
      "shape": [
        1,
        64,
        1,
        6
      ],
      "dtype": "torch.float32",
      "mean": -4.544651031494141,
      "std": 7.77072811126709,
      "absmax": 17.998903274536133,
      "slice": [
        -15.174556732177734,
        0.6486173868179321,
        0.775942862033844,
        1.9337702989578247,
        0.6083962917327881,
        -15.114282608032227,
        -15.048134803771973,
        0.588371217250824,
        0.8329005837440491,
        2.0472640991210938,
        0.5153209567070007,
        -14.99829387664795,
        -14.652105331420898,
        0.71840500831604,
        0.8255690336227417,
        1.2752089500427246,
        0.5597063302993774,
        -14.669715881347656,
        -17.083839416503906,
        0.9481956362724304,
        0.8829291462898254,
        1.5362401008605957,
        0.9358906745910645,
        -17.145965576171875,
        -13.78659439086914,
        0.44740742444992065,
        1.9771298170089722,
        0.4978461265563965,
        0.33614492416381836,
        -13.998922348022461,
        -15.595050811767578,
        0.5938265323638916,
        0.5228201150894165,
        0.532486617565155,
        1.7120158672332764,
        -15.58736801147461,
        -15.021133422851562,
        0.8136045932769775,
        1.1651928424835205,
        0.9353169798851013,
        0.947379469871521,
        -14.768831253051758,
        -14.993571281433105,
        0.5884187817573547,
        0.846833348274231,
        1.9268290996551514,
        0.4038664698600769,
        -14.777593612670898,
        -16.382816314697266,
        1.880117654800415,
        0.45264166593551636,
        0.47407442331314087,
        0.566872239112854,
        -16.44603729248047,
        -14.694984436035156,
        0.5979600548744202,
        0.6947575211524963,
        2.171440839767456,
        0.45710065960884094,
        -14.963665962219238,
        -15.790809631347656,
        0.7628441452980042,
        0.7980614900588989,
        1.8962860107421875
      ],
      "sha256_16": "c4baf69af2ea55d4"
    }
  },
  "grads": {
    "model.model.target_embedding.input_embed.weight": {
      "shape": [
        6,
        512
      ],
      "dtype": "torch.float32",
      "mean": -0.056708674877882004,
      "std": 18.993825912475586,
      "absmax": 99.31942749023438,
      "slice": [
        11.032086372375488,
        6.324660301208496,
        23.425207138061523,
        25.786602020263672,
        -27.32405662536621,
        -30.883460998535156,
        -8.668105125427246,
        3.462519645690918,
        15.903653144836426,
        -36.61580276489258,
        10.871927261352539,
        2.0929410457611084,
        23.652259826660156,
        17.681474685668945,
        -10.289381980895996,
        -12.905908584594727,
        13.81999397277832,
        -24.388429641723633,
        -6.099757194519043,
        -8.470880508422852,
        -0.735584020614624,
        30.59449005126953,
        26.78447723388672,
        38.48509216308594,
        10.000982284545898,
        53.46966552734375,
        6.679059028625488,
        -11.570341110229492,
        23.54901123046875,
        20.861541748046875,
        21.92607307434082,
        -52.533424377441406,
        -5.324324607849121,
        -0.040967702865600586,
        36.53878402709961,
        0.3556205630302429,
        -26.230785369873047,
        1.9748053550720215,
        -8.75262451171875,
        -31.059513092041016,
        34.93498992919922,
        -18.066579818725586,
        32.63159942626953,
        -18.871694564819336,
        28.459203720092773,
        8.493880271911621,
        27.77086067199707,
        -3.176041603088379,
        -46.085731506347656,
        -19.669546127319336,
        33.60753631591797,
        -8.667167663574219,
        -14.625198364257812,
        -18.052465438842773,
        -10.794548034667969,
        14.974542617797852,
        10.071516036987305,
        0.3364450931549072,
        -6.68393611907959,
        37.02294921875,
        0.6628006100654602,
        16.093990325927734,
        -12.745217323303223,
        0.8390085697174072
      ],
      "sha256_16": "bef83c1243742e7d"
    },
    "model.model.source_embedding.embed.weight": {
      "shape": [
        6,
        512
      ],
      "dtype": "torch.float32",
      "mean": -0.06418440490961075,
      "std": 5.087860107421875,
      "absmax": 26.454601287841797,
      "slice": [
        -1.4567580223083496,
        -0.15743979811668396,
        1.3386143445968628,
        -0.6238503456115723,
        -2.6501529216766357,
        -0.5351110100746155,
        -1.570264458656311,
        0.5566760897636414,
        3.2756006717681885,
        -1.327656865119934,
        0.9266501069068909,
        -1.0167176723480225,
        -1.7812479734420776,
        3.5574679374694824,
        -0.8666666746139526,
        0.34754467010498047,
        2.5647037029266357,
        -1.1758313179016113,
        -2.8868191242218018,
        -0.11261843144893646,
        2.779365062713623,
        1.5681397914886475,
        -1.8831827640533447,
        -3.2416625022888184,
        -1.0208436250686646,
        -0.699647843837738,
        0.9281208515167236,
        1.5185034275054932,
        -1.3535581827163696,
        -0.5568044185638428,
        2.805690050125122,
        0.8794129490852356,
        -1.7602430582046509,
        4.763916015625,
        3.4912214279174805,
        -3.6988120079040527,
        -0.1799609363079071,
        -0.8633890748023987,
        -0.6246035099029541,
        -1.2826377153396606,
        -0.1225748211145401,
        3.8970894813537598,
        -1.4848144054412842,
        -0.3190343677997589,
        3.7216596603393555,
        -2.3078012466430664,
        -2.748105764389038,
        -2.0772011280059814,
        -2.0910496711730957,
        -1.3792099952697754,
        0.7001363635063171,
        -0.7191146612167358,
        -2.030099630355835,
        -4.491333484649658,
        -1.8404181003570557,
        -3.6449615955352783,
        -0.8716798424720764,
        -3.0914499759674072,
        -0.006975233554840088,
        -3.7717881202697754,
        3.9637935161590576,
        -0.8163133263587952,
        1.25364351272583,
        2.3169915676116943
      ],
      "sha256_16": "b49357761b8caf6a"
    },
    "model.model.encoder.layer.0.attention.row_attention.self.query.weight": {
      "shape": [
        256,
        512
      ],
      "dtype": "torch.float32",
      "mean": -1.279329467251955e-06,
      "std": 0.0013547417474910617,
      "absmax": 0.026177486404776573,
      "slice": [
        -1.8307488062418997e-05,
        5.432462057797238e-05,
        -5.9684578445740044e-05,
        1.4221720448404085e-05,
        1.810124740586616e-05,
        -1.2981103054698906e-06,
        -4.872088538832031e-05,
        -1.0914750419033226e-05,
        -1.986858478630893e-05,
        2.0314766516094096e-05,
        -5.360231443773955e-05,
        -3.711702811415307e-05,
        -5.006521678296849e-05,
        -1.873504152172245e-05,
        -6.429755012504756e-05,
        -2.4447060695820255e-06,
        2.8087095415685326e-05,
        -2.494155523891095e-05,
        -1.1719569101842353e-06,
        -6.63223909214139e-06,
        6.891132784403453e-07,
        -8.080583029368427e-06,
        1.798913217498921e-05,
        -0.00010502397344680503,
        -1.0062751243822277e-05,
        -9.974367458198685e-06,
        -4.5041655539534986e-05,
        2.1694895622204058e-05,
        -5.415285158960614e-06,
        -5.051498646935215e-06,
        6.450223736464977e-06,
        1.0476099305378739e-05,
        3.624982127803378e-05,
        -8.714062460057903e-06,
        -2.4811115508782677e-05,
        5.2761556617042515e-06,
        2.3035217964206822e-05,
        2.015577229030896e-05,
        1.5036549484648276e-05,
        2.2525255189975724e-05,
        2.9021928639849648e-05,
        1.7296199075644836e-05,
        2.4945554741861997e-06,
        2.9543736673076637e-05,
        -1.843842437665444e-05,
        -5.092910669191042e-06,
        -8.77522506925743e-06,
        8.852443897922058e-06,
        2.192808642575983e-05,
        -2.681389787539956e-06,
        -1.0377860235166736e-05,
        -1.623540447326377e-05,
        -1.0486355677130632e-05,
        -7.713816739851609e-05,
        1.2588771824084688e-05,
        1.604244789632503e-05,
        -3.114733408438042e-05,
        -5.1053073548246175e-05,
        8.867616270435974e-05,
        1.2096576028852724e-05,
        4.559433364192955e-06,
        -1.049970251187915e-05,
        4.759651801578002e-06,
        -1.0734968782344367e-05
      ],
      "sha256_16": "cf12a0306bd59efd"
    },
    "model.model.encoder.layer.0.attention.row_attention.self.query.bias": {
      "shape": [
        256
      ],
      "dtype": "torch.float32",
      "mean": 0.0014533442445099354,
      "std": 0.03499092161655426,
      "absmax": 0.26214325428009033,
      "slice": [
        -0.0005719508626498282,
        0.0012449538335204124,
        -0.00196274695917964,
        -0.0024706374388188124,
        0.0027611940167844296,
        0.004816671367734671,
        1.981883542612195e-06,
        0.0034364473540335894,
        0.0032690619118511677,
        0.0007412957493215799,
        0.06444872915744781,
        -0.06026516854763031,
        -0.0018164499197155237,
        3.8265716284513474e-05,
        0.002339863684028387,
        0.012999777682125568,
        -0.0021807618904858828,
        -0.008205950260162354,
        0.0017754076980054379,
        -0.0022507626563310623,
        0.000245062168687582,
        -0.0011945459991693497,
        0.020205862820148468,
        -0.005207582376897335,
        0.01359275821596384,
        -0.014979447238147259,
        0.05837998539209366,
        -0.027660276740789413,
        0.07379062473773956,
        -0.07184725999832153,
        -0.05466809123754501,
        0.05792190879583359,
        0.020538825541734695,
        -0.03973444923758507,
        -0.03540554642677307,
        -0.037292592227458954,
        0.015357078984379768,
        -0.00493235420435667,
        -0.01592309959232807,
        -0.017490491271018982,
        -0.0175018273293972,
        0.02856726199388504,
        -0.002948625013232231,
        0.0005941311828792095,
        -0.002656770870089531,
        -0.011700840666890144,
        0.0018763974076136947,
        -0.009221112355589867,
        0.0034901755861938,
        -0.010702607221901417,
        -0.0019877380691468716,
        -0.004040820524096489,
        -0.009349673055112362,
        0.00843769684433937,
        -0.00919997040182352,
        0.02608005329966545,
        -0.009848234243690968,
        -0.01034543476998806,
        -0.010161017999053001,
        0.0082189766690135,
        0.0042965468019247055,
        0.016699351370334625,
        0.0013193550985306501,
        0.0177773367613554
      ],
      "sha256_16": "393361bd4cca476c"
    },
    "model.model.encoder.layer.0.attention.row_attention.self.key.weight": {
      "shape": [
        256,
        512
      ],
      "dtype": "torch.float32",
      "mean": 1.464454499000567e-06,
      "std": 0.002318398328498006,
      "absmax": 0.045092757791280746,
      "slice": [
        -4.9356935051037e-05,
        3.563267455319874e-05,
        7.801876563462429e-06,
        1.2414155207807198e-05,
        4.299865031498484e-05,
        -2.2890098989591934e-06,
        -6.013757229084149e-06,
        -3.7262856494635344e-05,
        9.318848242401145e-06,
        4.691601134254597e-06,
        -3.5834451409755275e-05,
        -3.262798418290913e-05,
        -2.6311057808925398e-05,
        -8.987286491901614e-06,
        -2.220509668404702e-05,
        3.3351025194860995e-05,
        -5.015944043407217e-05,
        2.043821950792335e-06,
        -1.2053731552441604e-05,
        -3.679137444123626e-05,
        -8.218487892008852e-06,
        2.537750879127998e-05,
        2.4927487174863927e-05,
        -4.1909162973752245e-05,
        -2.3330147087108344e-05,
        -2.2944019292481244e-05,
        -7.316554274439113e-06,
        -1.3563548009187798e-06,
        -2.394356306467671e-05,
        2.1727530111093074e-05,
        -2.5474553694948554e-05,
        4.30584441346582e-05,
        5.4862507568032015e-06,
        -1.9585930203902535e-05,
        -4.667544999392703e-05,
        1.617767452444241e-06,
        9.492345270700753e-06,
        6.149637556518428e-06,
        1.2678979146585334e-05,
        2.417316682112869e-05,
        4.382528459245805e-06,
        1.683719892753288e-05,
        2.8614319944608724e-06,
        1.4532399291056208e-05,
        2.3062993932398967e-05,
        4.820184767595492e-05,
        8.211906788346823e-06,
        -1.0184535312873777e-05,
        -2.5110717615461908e-05,
        -6.435380328184692e-06,
        -3.3037151752068894e-06,
        9.945048077497631e-06,
        -1.8007531252806075e-05,
        -4.951676964992657e-05,
        -1.4343497241497971e-05,
        2.030088762694504e-05,
        -3.826389365713112e-05,
        -9.114743988902774e-06,
        -1.4716217719978886e-06,
        1.1419455404393375e-05,
        4.371757995613734e-07,
        2.480153852957301e-05,
        9.446403964830097e-06,
        1.051103936333675e-06
      ],
      "sha256_16": "05a22c1e77e6dfd2"
    },
    "model.model.encoder.layer.0.attention.row_attention.self.key.bias": {
      "shape": [
        256
      ],
      "dtype": "torch.float32",
      "mean": 0.0017626314656808972,
      "std": 0.012715322896838188,
      "absmax": 0.10421416163444519,
      "slice": [
        -0.001354467123746872,
        -0.00012954567500855774,
        0.0034218153450638056,
        -0.00040253286715596914,
        -0.0016528242267668247,
        0.0035462589003145695,
        -0.0034030915703624487,
        -0.000988614629022777,
        0.0029428002890199423,
        -0.0009752153418958187,
        0.03785783424973488,
        0.069468654692173,
        -0.0009633105364628136,
        -0.0023003274109214544,
        0.013856682926416397,
        -0.012998688966035843,
        0.003887066151946783,
        0.006707904860377312,
        -0.002005015965551138,
        -0.0008926408481784165,
        -0.008483930490911007,
        0.0043705846183001995,
        0.005480301100760698,
        0.010895626619458199,
        0.00945611484348774,
        0.00463289488106966,
        0.023947715759277344,
        0.01822345331311226,
        0.024762503802776337,
        0.018360882997512817,
        -0.007453750818967819,
        -0.01429202500730753,
        0.004297582432627678,
        0.004309316165745258,
        0.003688234370201826,
        -0.0005675479769706726,
        -7.531233131885529e-05,
        0.001169032882899046,
        0.00031540478812530637,
        7.755262777209282e-05,
        -0.00025351205840706825,
        -0.00038080429658293724,
        -0.00012668628187384456,
        -2.5063869543373585e-05,
        0.00022471160627901554,
        -5.834782496094704e-05,
        5.14050479978323e-05,
        -0.00010682945139706135,
        2.4890992790460587e-05,
        4.602596163749695e-05,
        4.039611667394638e-06,
        -1.0491348803043365e-06,
        -4.912097938358784e-05,
        -5.189748480916023e-05,
        -2.142484299838543e-05,
        -5.024019628763199e-06,
        3.2029609428718686e-05,
        1.6726553440093994e-06,
        -5.077337846159935e-06,
        -8.255359716713428e-06,
        4.169531166553497e-06,
        6.162939826026559e-06,
        2.499902620911598e-06,
        9.606359526515007e-06
      ],
      "sha256_16": "f44b966bc3d17975"
    },
    "model.model.encoder.layer.0.attention.row_attention.self.value.weight": {
      "shape": [
        256,
        512
      ],
      "dtype": "torch.float32",
      "mean": -0.00010555021435720846,
      "std": 0.2980028986930847,
      "absmax": 3.4450597763061523,
      "slice": [
        -0.12305650115013123,
        0.1295093595981598,
        -0.1676926165819168,
        0.08986254036426544,
        0.06458897143602371,
        0.03831528127193451,
        -0.024524016305804253,
        -0.06328607350587845,
        -0.03255005180835724,
        -0.020446253940463066,
        -0.1473417431116104,
        -0.05095614492893219,
        -0.19694784283638,
        -0.015754641965031624,
        -0.20047886669635773,
        0.06531889736652374,
        -0.08121385425329208,
        -0.06256592273712158,
        -0.049704503268003464,
        -0.013651306740939617,
        0.05608116835355759,
        -0.05964267626404762,
        0.15046213567256927,
        -0.17003534734249115,
        0.14136569201946259,
        -0.0627206489443779,
        -0.08400855213403702,
        -0.018148327246308327,
        0.09061896800994873,
        -0.00041784363565966487,
        -0.09641947597265244,
        0.14673319458961487,
        0.03389028459787369,
        -0.0038303995970636606,
        -0.06334391236305237,
        0.023560931906104088,
        -0.007554133888334036,
        0.1507597267627716,
        -0.0033864793367683887,
        -0.04822578653693199,
        -0.09873510152101517,
        0.20461200177669525,
        -0.0011451715836301446,
        0.10309197008609772,
        -0.06922870874404907,
        0.16823872923851013,
        -0.06161147728562355,
        0.13512949645519257,
        -0.10621322691440582,
        0.09138715267181396,
        -0.10787879675626755,
        -0.11290998011827469,
        0.12857107818126678,
        0.051264360547065735,
        -0.0015009157359600067,
        0.1033664345741272,
        -0.1810586303472519,
        -0.0021904383320361376,
        0.08064621686935425,
        -0.0095669599249959,
        0.026614198461174965,
        0.06548481434583664,
        -0.06358117610216141,
        0.11184865981340408
      ],
      "sha256_16": "f22543bf07dc8b25"
    },
    "model.model.encoder.layer.0.attention.row_attention.self.value.bias": {
      "shape": [
        256
      ],
      "dtype": "torch.float32",
      "mean": -0.48972612619400024,
      "std": 25.883575439453125,
      "absmax": 98.21923065185547,
      "slice": [
        -9.329145431518555,
        5.944486618041992,
        21.860973358154297,
        16.073062896728516,
        41.830963134765625,
        25.11484146118164,
        40.36860656738281,
        -4.63943338394165,
        -15.474515914916992,
        2.503826141357422,
        61.601470947265625,
        -26.939054489135742,
        13.78239631652832,
        -37.53218078613281,
        19.000469207763672,
        -3.2646484375,
        11.701798439025879,
        -14.481348037719727,
        -1.5093914270401,
        -3.381702423095703,
        -17.088184356689453,
        -9.319475173950195,
        27.768285751342773,
        -75.7059097290039,
        34.92998504638672,
        22.464122772216797,
        -10.105196952819824,
        -17.622257232666016,
        -22.528095245361328,
        -43.28131103515625,
        16.11762237548828,
        -3.820499897003174,
        19.542320251464844,
        58.189605712890625,
        -22.157794952392578,
        -27.665884017944336,
        -45.14472198486328,
        -3.104076862335205,
        -12.276962280273438,
        -11.532561302185059,
        1.588504433631897,
        28.84364128112793,
        27.010831832885742,
        -35.476478576660156,
        3.8679332733154297,
        25.608280181884766,
        22.204824447631836,
        -25.871036529541016,
        -10.666633605957031,
        -1.2301783561706543,
        -22.998779296875,
        -15.830259323120117,
        12.463386535644531,
        -22.220436096191406,
        -18.520854949951172,
        10.621625900268555,
        5.918648719787598,
        9.672340393066406,
        17.823558807373047,
        -24.530170440673828,
        -10.501483917236328,
        9.162191390991211,
        1.9646390676498413,
        30.855329513549805
      ],
      "sha256_16": "845f4f0c41f90501"
    },
    "model.model.encoder.layer.0.attention.row_attention.out.dense.weight": {
      "shape": [
        512,
        256
      ],
      "dtype": "torch.float32",
      "mean": 2.3283064365386963e-10,
      "std": 0.56349778175354,
      "absmax": 6.590433597564697,
      "slice": [
        0.49893391132354736,
        0.4859076738357544,
        -0.28612542152404785,
        0.5572265982627869,
        0.0019668203312903643,
        -0.01771477237343788,
        0.0455167181789875,
        -0.321968138217926,
        -0.053137291222810745,
        -0.16048221290111542,
        -0.1759391576051712,
        -0.246922567486763,
        0.242789626121521,
        0.9196762442588806,
        -0.18934215605258942,
        -0.20664086937904358,
        -0.015993718057870865,
        -0.3409367799758911,
        -0.8790028691291809,
        -0.39134693145751953,
        0.0857895165681839,
        -0.18297980725765228,
        -0.5659739971160889,
        0.5642949938774109,
        0.013743816874921322,
        0.5888029336929321,
        0.7287070155143738,
        0.5750806331634521,
        -0.21072188019752502,
        0.019425760954618454,
        -0.1174023300409317,
        0.0354759655892849,
        -0.10302848368883133,
        -1.0864464044570923,
        0.6063359379768372,
        -0.33718258142471313,
        0.06904362887144089,
        0.2269991636276245,
        0.6039526462554932,
        -0.0721384659409523,
        -0.15282274782657623,
        -0.3061271905899048,
        -0.8832122087478638,
        0.7127496004104614,
        -0.02820192091166973,
        0.17650046944618225,
        -0.2969929575920105,
        -0.2820574641227722,
        0.43452689051628113,
        0.5433389544487,
        0.17233635485172272,
        -0.8353253602981567,
        -0.02436130866408348,
        0.13908492028713226,
        -0.2581409215927124,
        0.23496213555335999,
        1.3603596687316895,
        0.1572587490081787,
        -0.0809667706489563,
        0.08567137271165848,
        0.6147217154502869,
        0.9895006418228149,
        0.6486085653305054,
        0.17424751818180084
      ],
      "sha256_16": "cd6f23cb6d513c5d"
    },
    "model.model.encoder.layer.0.attention.row_attention.out.dense.bias": {
      "shape": [
        512
      ],
      "dtype": "torch.float32",
      "mean": 0.0,
      "std": 69.51469421386719,
      "absmax": 198.0486297607422,
      "slice": [
        61.06568145751953,
        144.0536346435547,
        100.43647766113281,
        79.69561767578125,
        -100.77079772949219,
        -31.87810516357422,
        -112.00833129882812,
        -25.181201934814453,
        -46.50438690185547,
        -29.210845947265625,
        -2.1859655380249023,
        49.806724548339844,
        76.71793365478516,
        47.652992248535156,
        -22.47488784790039,
        -44.28569793701172,
        41.85747528076172,
        3.892697811126709,
        33.351844787597656,
        -75.61636352539062,
        -37.5765380859375,
        45.17165756225586,
        10.109373092651367,
        82.89678192138672,
        -15.710090637207031,
        174.8202667236328,
        24.156089782714844,
        -103.54219055175781,
        5.320481300354004,
        162.7496795654297,
        102.23129272460938,
        -151.70318603515625,
        -3.142186164855957,
        -18.406959533691406,
        7.6957597732543945,
        -77.97685241699219,
        -22.423030853271484,
        -51.33494567871094,
        28.516843795776367,
        -109.2948226928711,
        59.32686996459961,
        -118.21311950683594,
        92.04432678222656,
        -40.77577209472656,
        117.60493469238281,
        -9.407166481018066,
        135.05043029785156,
        -30.418556213378906,
        -36.752716064453125,
        -107.79576110839844,
        -12.670297622680664,
        54.458045959472656,
        -60.07279586791992,
        -48.362979888916016,
        -36.6356201171875,
        1.4000740051269531,
        -2.8919296264648438,
        56.9230842590332,
        -15.068008422851562,
        127.30723571777344,
        -52.92994689941406,
        -46.352195739746094,
        -41.29335021972656,
        88.34648895263672
      ],
      "sha256_16": "a0f796bb84f68515"
    },
    "model.model.encoder.layer.0.attention.row_attention.out.LayerNorm.weight": {
      "shape": [
        512
      ],
      "dtype": "torch.float32",
      "mean": 0.04405854269862175,
      "std": 1.3275057077407837,
      "absmax": 5.8607964515686035,
      "slice": [
        1.3784031867980957,
        1.304856538772583,
        1.944488286972046,
        -3.633164644241333,
        1.977961540222168,
        0.8272109031677246,
        -3.151641368865967,
        -0.09594268351793289,
        0.9381077885627747,
        -0.6991749405860901,
        -1.4948358535766602,
        0.6221076846122742,
        1.3130220174789429,
        0.1290014386177063,
        -0.984424889087677,
        0.29961299896240234,
        1.1821759939193726,
        0.2093622386455536,
        0.8119632601737976,
        -0.43678057193756104,
        0.38023579120635986,
        0.8777897953987122,
        -0.5254198908805847,
        1.7171066999435425,
        -0.4681658446788788,
        0.07040039449930191,
        0.3342139720916748,
        -1.6067355871200562,
        -1.4487770795822144,
        -3.441706895828247,
        3.239337921142578,
        4.645545959472656,
        -0.8768685460090637,
        -0.5084822177886963,
        -0.9526046514511108,
        0.804712176322937,
        -0.10200197249650955,
        1.1368772983551025,
        -1.033677101135254,
        0.4872862696647644,
        -0.7481626868247986,
        2.9289028644561768,
        -0.22049589455127716,
        0.6119593381881714,
        -0.9353679418563843,
        -0.5325524806976318,
        1.8304632902145386,
        0.4146695137023926,
        -1.0141440629959106,
        0.931825578212738,
        -0.29440775513648987,
        -1.157120704650879,
        0.7770841717720032,
        0.5829702615737915,
        -1.5243501663208008,
        -0.19775865972042084,
        -0.22800132632255554,
        -0.8742085695266724,
        0.5999083518981934,
        -0.32605332136154175,
        -0.46160393953323364,
        -1.5814985036849976,
        -0.4454360604286194,
        -2.5015645027160645
      ],
      "sha256_16": "4661b76ae523e6c8"
    },
    "model.model.encoder.layer.0.attention.row_attention.out.LayerNorm.bias": {
      "shape": [
        512
      ],
      "dtype": "torch.float32",
      "mean": 0.003484640270471573,
      "std": 1.7285107374191284,
      "absmax": 4.919692516326904,
      "slice": [
        1.5688003301620483,
        3.5947704315185547,
        2.497138500213623,
        1.915328860282898,
        -2.517271041870117,
        -0.7822009325027466,
        -2.797987461090088,
        -0.6335272789001465,
        -1.2070475816726685,
        -0.6878633499145508,
        -0.013461507856845856,
        1.287125587463379,
        1.9138317108154297,
        1.2064387798309326,
        -0.5071353316307068,
        -1.0958489179611206,
        1.0522879362106323,
        0.1414528489112854,
        0.8494647145271301,
        -1.9034388065338135,
        -0.9669099450111389,
        1.0472590923309326,
        0.1955108344554901,
        2.03996205329895,
        -0.3965315520763397,
        4.3108062744140625,
        0.628150463104248,
        -2.5905416011810303,
        0.09074896574020386,
        4.029811859130859,
        2.571580648422241,
        -3.7623960971832275,
        -0.0924658477306366,
        -0.45453107357025146,
        0.21622438728809357,
        -1.9908440113067627,
        -0.5393509864807129,
        -1.355105996131897,
        0.7108433246612549,
        -2.745246410369873,
        1.4472730159759521,
        -2.9536285400390625,
        2.277559280395508,
        -1.0036711692810059,
        2.8874170780181885,
        -0.2675601840019226,
        3.369715690612793,
        -0.7717893719673157,
        -0.7910785675048828,
        -2.7164711952209473,
        -0.29305529594421387,
        1.3711529970169067,
        -1.5217469930648804,
        -1.2375867366790771,
        -0.8940468430519104,
        0.051425449550151825,
        -0.026898199692368507,
        1.3845888376235962,
        -0.31523755192756653,
        3.185054302215576,
        -1.3281606435775757,
        -1.1611311435699463,
        -1.023794174194336,
        2.1948165893554688
      ],
      "sha256_16": "e18cbe22cfab4a62"
    },
    "model.model.encoder.layer.0.attention.col_attention.self.query.weight": {
      "shape": [
        256,
        512
      ],
      "dtype": "torch.float32",
      "mean": -1.0700482562242541e-06,
      "std": 0.060449689626693726,
      "absmax": 0.5262313485145569,
      "slice": [
        0.006792756728827953,
        -0.0261476282030344,
        0.010537844151258469,
        0.008520889095962048,
        0.0014295335859060287,
        0.01691887341439724,
        0.047083478420972824,
        0.02206522785127163,
        0.0069099473766982555,
        -0.044754501432180405,
        0.01582910120487213,
        0.020825013518333435,
        -0.013780280016362667,
        -0.005938525777310133,
        -0.001944583491422236,
        0.002794262021780014,
        -0.018867360427975655,
        0.016134245321154594,
        0.002879912266507745,
        0.031692542135715485,
        0.026362136006355286,
        -0.005849468056112528,
        0.01301474031060934,
        0.02838069014251232,
        0.04203168302774429,
        0.01120908372104168,
        0.0016372384270653129,
        -0.006654116325080395,
        0.035162169486284256,
        -0.05116904899477959,
        -0.015631573274731636,
        0.0027287735138088465,
        -0.00483016949146986,
        0.004908883944153786,
        0.009266159497201443,
        0.013738622888922691,
        -0.005908054765313864,
        0.012598205357789993,
        -0.023914245888590813,
        -0.032430704683065414,
        0.004836158826947212,
        0.03374116122722626,
        0.013496318832039833,
        -0.01300694327801466,
        0.006651751697063446,
        0.031983159482479095,
        -0.04527830332517624,
        0.012762094847857952,
        -0.03441321849822998,
        0.03303438425064087,
        -0.010739119723439217,
        -0.010705620981752872,
        0.014093334786593914,
        0.023604420945048332,
        -0.0075711882673203945,
        -0.017218779772520065,
        0.019710954278707504,
        0.019227443262934685,
        -0.06463156640529633,
        -0.022901291027665138,
        -0.0013932049041613936,
        0.03396592289209366,
        -0.026301423087716103,
        -0.014554919674992561
      ],
      "sha256_16": "619992313e9ca7c9"
    },
    "model.model.encoder.layer.0.attention.col_attention.self.query.bias": {
      "shape": [
        256
      ],
      "dtype": "torch.float32",
      "mean": 0.0028316646348685026,
      "std": 0.050035037100315094,
      "absmax": 0.11359268426895142,
      "slice": [
        -0.01825198158621788,
        -0.01273136306554079,
        -0.008617970161139965,
        -0.013890733011066914,
        -0.039798904210329056,
        0.028565989807248116,
        -0.009380588307976723,
        -0.018648548051714897,
        0.016725679859519005,
        0.007567207328975201,
        0.012631460092961788,
        0.02261321432888508,
        0.01082693412899971,
        -0.031653113663196564,
        0.021554598584771156,
        -0.0005754346493631601,
        0.022777024656534195,
        0.005876034498214722,
        0.02458706684410572,
        0.022727759554982185,
        -0.02835778333246708,
        0.02866240404546261,
        -0.030098773539066315,
        -0.0005368450656533241,
        0.022623656317591667,
        0.04117567837238312,
        -0.02018708735704422,
        -0.0035960476379841566,
        -0.024230316281318665,
        -0.033160507678985596,
        -0.010657055303454399,
        -0.03371168300509453,
        -0.03454264998435974,
        0.031972356140613556,
        0.02683842182159424,
        0.012412922456860542,
        -0.018800675868988037,
        0.018314292654395103,
        0.01301166508346796,
        -0.040507737547159195,
        0.008463948965072632,
        -0.009259718470275402,
        -0.0010634707286953926,
        0.022742221131920815,
        0.015923889353871346,
        0.0206292811781168,
        0.014197013340890408,
        -0.03164146840572357,
        -0.010064225643873215,
        0.016390211880207062,
        0.02459174208343029,
        0.026279358193278313,
        -0.04308268800377846,
        -0.020501473918557167,
        -0.013896132819354534,
        -0.021372893825173378,
        0.04648125171661377,
        0.008258946239948273,
        -0.03451192378997803,
        -0.00693412683904171,
        0.03597560152411461,
        -0.03237355500459671,
        -0.022602330893278122,
        0.01839003898203373
      ],
      "sha256_16": "3173ad3fb9f496df"
    },
    "model.model.encoder.layer.0.attention.col_attention.self.key.weight": {
      "shape": [
        256,
        512
      ],
      "dtype": "torch.float32",
      "mean": -0.000284758978523314,
      "std": 0.05016326904296875,
      "absmax": 0.2649604082107544,
      "slice": [
        -0.06339865922927856,
        -0.02403419092297554,
        0.04480808973312378,
        -0.033458348363637924,
        0.042202502489089966,
        -0.018138250336050987,
        0.04420134797692299,
        -0.045041173696517944,
        -0.002091998467221856,
        -0.03888311982154846,
        -0.03990868479013443,
        -0.023118438199162483,
        -0.0662878081202507,
        0.010879582725465298,
        0.02203875035047531,
        0.00385275692678988,
        0.0030098468996584415,
        0.06223781779408455,
        0.00927081611007452,
        -0.012285781092941761,
        -0.028300289064645767,
        0.05929557979106903,
        0.07675348222255707,
        -0.002331010065972805,
        -0.06322691589593887,
        -0.0487111434340477,
        -0.0546412393450737,
        0.03775789216160774,
        -0.005116837099194527,
        -0.0039156400598585606,
        0.07769870012998581,
        -0.026733841747045517,
        0.08682647347450256,
        -0.03396152704954147,
        -0.01688966527581215,
        -0.028407469391822815,
        -0.05952037125825882,
        -0.05068046599626541,
        -0.02000727318227291,
        0.025707406923174858,
        0.030550947412848473,
        -0.07448478043079376,
        0.0407380647957325,
        -0.04651232063770294,
        -0.016046512871980667,
        -0.03355050086975098,
        -0.008653068915009499,
        0.06449904292821884,
        0.00754558714106679,
        -0.08496648073196411,
        0.027553711086511612,
        0.050595007836818695,
        -0.04414204880595207,
        0.0025490974076092243,
        0.0003941766917705536,
        -0.06212994456291199,
        0.0321207270026207,
        0.08627822995185852,
        -0.00949544832110405,
        0.04179257154464722,
        -0.0039617992006242275,
        -0.040652159601449966,
        0.035877980291843414,
        -0.08365194499492645
      ],
      "sha256_16": "66cae01c58ebc116"
    },
    "model.model.encoder.layer.0.attention.col_attention.self.key.bias": {
      "shape": [
        256
      ],
      "dtype": "torch.float32",
      "mean": -2.954948286060244e-09,
      "std": 5.380503154128746e-08,
      "absmax": 1.862645149230957e-07,
      "slice": [
        -7.916241884231567e-08,
        -2.1420419216156006e-08,
        -3.91155481338501e-08,
        -8.102506399154663e-08,
        -8.940696716308594e-08,
        -3.259629011154175e-09,
        -8.42846930027008e-08,
        -1.0384246706962585e-07,
        4.0046870708465576e-08,
        1.1408701539039612e-08,
        5.587935447692871e-09,
        5.820766091346741e-08,
        2.421438694000244e-08,
        -1.210719347000122e-08,
        4.237517714500427e-08,
        9.42964106798172e-08,
        3.4458935260772705e-08,
        8.381903171539307e-08,
        9.313225746154785e-09,
        -9.685754776000977e-08,
        -2.7474015951156616e-08,
        9.476207196712494e-08,
        2.6309862732887268e-08,
        -7.729977369308472e-08,
        -2.3283064365386963e-08,
        -6.984919309616089e-08,
        -7.636845111846924e-08,
        -2.60770320892334e-08,
        4.0046870708465576e-08,
        4.563480615615845e-08,
        -7.636845111846924e-08,
        -3.67872416973114e-08,
        1.3737007975578308e-07,
        -5.2386894822120667e-08,
        2.561137080192566e-08,
        1.4901161193847656e-08,
        -5.9371814131736755e-08,
        4.6100467443466187e-08,
        6.05359673500061e-08,
        -1.4202669262886047e-08,
        7.59027898311615e-08,
        9.313225746154785e-09,
        5.122274160385132e-08,
        3.026798367500305e-08,
        1.816079020500183e-08,
        1.792795956134796e-08,
        3.5390257835388184e-08,
        3.4458935260772705e-08,
        -7.450580596923828e-08,
        7.2177499532699585e-09,
        -1.210719347000122e-08,
        -2.7008354663848877e-08,
        1.0710209608078003e-08,
        -9.96515154838562e-08,
        3.119930624961853e-08,
        2.9802322387695312e-08,
        1.862645149230957e-09,
        4.691537469625473e-08,
        -1.30385160446167e-08,
        1.1175870895385742e-08,
        -2.6775524020195007e-08,
        -2.2351741790771484e-08,
        -2.3283064365386963e-08,
        1.1641532182693481e-09
      ],
      "sha256_16": "b40d16d5368099c9"
    },
    "model.model.encoder.layer.0.attention.col_attention.self.value.weight": {
      "shape": [
        256,
        512
      ],
      "dtype": "torch.float32",
      "mean": -3.347300662426278e-05,
      "std": 0.03467065468430519,
      "absmax": 0.24871903657913208,
      "slice": [
        -0.06675423681735992,
        0.030168673023581505,
        0.045748136937618256,
        -0.04806404933333397,
        0.004515465348958969,
        -0.07001683115959167,
        0.06527383625507355,
        -0.03464265912771225,
        -0.028372114524245262,
        0.023694220930337906,
        -0.019861847162246704,
        -0.039448972791433334,
        0.010635456070303917,
        -0.03765379637479782,
        0.04913270100951195,
        0.0443270318210125,
        0.0488576777279377,
        0.020964382216334343,
        0.016914967447519302,
        0.027335938066244125,
        -0.058479711413383484,
        0.05820512771606445,
        0.049755677580833435,
        0.02172449603676796,
        -0.0226148571819067,
        0.006396548822522163,
        -0.027215732261538506,
        0.01285746693611145,
        0.015975991263985634,
        -0.02164148911833763,
        -0.005612940061837435,
        -0.04622838273644447,
        0.06961944699287415,
        -0.012319390662014484,
        -0.049624912440776825,
        -0.002942925551906228,
        0.0021675187163054943,
        -0.009221937507390976,
        -0.014252119697630405,
        -0.031356148421764374,
        0.061252035200595856,
        -0.025461876764893532,
        0.015917666256427765,
        -0.035991232842206955,
        -0.015580536797642708,
        -0.0023183750454336405,
        0.03286430984735489,
        0.05723251774907112,
        0.03292638808488846,
        -0.007821671664714813,
        0.038390398025512695,
        0.05697987601161003,
        -0.004569233860820532,
        0.0350077785551548,
        0.043507881462574005,
        -0.006897736806422472,
        0.0439760684967041,
        0.03447128087282181,
        -0.0023669684305787086,
        0.04905104637145996,
        -0.04990990459918976,
        0.024309679865837097,
        0.03998517245054245,
        -0.032292213290929794
      ],
      "sha256_16": "9013bc1aead2c1c8"
    },
    "model.model.encoder.layer.0.attention.col_attention.self.value.bias": {
      "shape": [
        256
      ],
      "dtype": "torch.float32",
      "mean": -0.11520937085151672,
      "std": 1.3396459817886353,
      "absmax": 3.8628411293029785,
      "slice": [
        -0.005845069885253906,
        -1.1576895713806152,
        -0.12612232565879822,
        -0.39365875720977783,
        -0.8057305812835693,
        3.029675245285034,
        -0.27518731355667114,
        -0.06459882855415344,
        0.6930991411209106,
        -0.7441168427467346,
        2.283480405807495,
        -1.1128791570663452,
        -0.7692522406578064,
        1.0910818576812744,
        -0.4611469805240631,
        1.4152965545654297,
        -0.4238162338733673,
        0.16222670674324036,
        1.8214061260223389,
        2.5106041431427,
        0.6494834423065186,
        0.33256375789642334,
        0.6504061818122864,
        0.9620950222015381,
        1.6234725713729858,
        -0.39349764585494995,
        1.0101535320281982,
        0.7047770023345947,
        1.0384137630462646,
        1.987756371498108,
        0.3151303827762604,
        0.7201284170150757,
        -0.6428442001342773,
        1.9330201148986816,
        -0.7455887794494629,
        0.161582812666893,
        -3.178236722946167,
        0.30231720209121704,
        1.074604868888855,
        3.622361421585083,
        -0.26635438203811646,
        0.5343325138092041,
        -3.460411548614502,
        -1.9806878566741943,
        -1.7201881408691406,
        -1.0440261363983154,
        -0.1456322968006134,
        -1.2915055751800537,
        0.5103492140769958,
        0.975955605506897,
        0.5283734798431396,
        0.39092355966567993,
        -0.1801188588142395,
        -0.17195816338062286,
        0.4556727409362793,
        -0.6539088487625122,
        1.3407647609710693,
        -3.7119762897491455,
        -2.0926387310028076,
        -0.7212828993797302,
        -2.009019136428833,
        -1.7400728464126587,
        -1.0840476751327515,
        -1.2385468482971191
      ],
      "sha256_16": "08eacdc12cef5938"
    },
    "model.model.encoder.layer.0.attention.col_attention.out.dense.weight": {
      "shape": [
        512,
        256
      ],
      "dtype": "torch.float32",
      "mean": -5.093170329928398e-11,
      "std": 0.10496948659420013,
      "absmax": 0.7868355512619019,
      "slice": [
        0.1487877070903778,
        0.05253211036324501,
        -0.12970255315303802,
        -0.12431510537862778,
        0.19023500382900238,
        -0.051184456795454025,
        0.053056418895721436,
        0.21967989206314087,
        0.11223553121089935,
        -0.06714111566543579,
        -0.0625273659825325,
        0.06482341885566711,
        0.07244469970464706,
        0.1128939837217331,
        0.0660858079791069,
        -0.03738045692443848,
        -0.13877849280834198,
        -0.06679163128137589,
        -0.045319102704524994,
        0.0758373886346817,
        -0.07422710955142975,
        0.04173527657985687,
        -0.18682900071144104,
        0.07004361599683762,
        0.04690513014793396,
        -0.07223541289567947,
        0.18202044069766998,
        -0.07921718806028366,
        0.016841864213347435,
        0.0477382056415081,
        0.05948556214570999,
        -0.036507900804281235,
        -0.22108018398284912,
        0.021870285272598267,
        0.20538565516471863,
        -0.07492341846227646,
        -0.06103267893195152,
        -0.08321158587932587,
        -0.0834626629948616,
        0.01044941321015358,
        0.08198313415050507,
        0.026342375203967094,
        -0.05730964243412018,
        -0.1804240196943283,
        0.20924592018127441,
        0.024713100865483284,
        -0.010609635151922703,
        -0.08497551828622818,
        -0.11549333482980728,
        -0.1895558387041092,
        -0.020767129957675934,
        -0.12447922676801682,
        -0.08391598612070084,
        -0.10822328925132751,
        -0.0350729338824749,
        0.01736663281917572,
        0.03313562646508217,
        -0.09548189491033554,
        0.016147200018167496,
        -0.042540863156318665,
        -0.14871622622013092,
        -0.02102833427488804,
        0.0928630381822586,
        0.0626213401556015
      ],
      "sha256_16": "da3b805b483c58f7"
    },
    "model.model.encoder.layer.0.attention.col_attention.out.dense.bias": {
      "shape": [
        512
      ],
      "dtype": "torch.float32",
      "mean": -5.587935447692871e-09,
      "std": 1.681011438369751,
      "absmax": 4.608486175537109,
      "slice": [
        1.4447675943374634,
        3.55619478225708,
        2.4220402240753174,
        1.7534137964248657,
        -2.447174549102783,
        -0.8037201762199402,
        -2.661740303039551,
        -0.6237318515777588,
        -1.1819579601287842,
        -0.8057630658149719,
        -0.21199995279312134,
        1.3220646381378174,
        1.8257949352264404,
        1.100609540939331,
        -0.5855299830436707,
        -1.0446507930755615,
        0.8689426183700562,
        -0.053223006427288055,
        0.8185585737228394,
        -1.7961516380310059,
        -0.9450255632400513,
        1.0639681816101074,
        0.4930802583694458,
        1.921738862991333,
        -0.05378713086247444,
        4.201686382293701,
        0.5791946649551392,
        -2.7034735679626465,
        0.2496134638786316,
        3.930251121520996,
        2.4943125247955322,
        -3.3840491771698,
        -0.07493796944618225,
        -0.49975264072418213,
        0.08941873908042908,
        -1.9232112169265747,
        -0.5072780847549438,
        -1.1874834299087524,
        0.9194145202636719,
        -2.732692241668701,
        1.3493928909301758,
        -2.647791862487793,
        2.1973538398742676,
        -0.8998509049415588,
        2.832679271697998,
        -0.19107142090797424,
        3.2401328086853027,
        -0.8455071449279785,
        -0.8978335857391357,
        -2.686967611312866,
        -0.26085466146469116,
        1.2828346490859985,
        -1.549574851989746,
        -1.0699074268341064,
        -0.8615856170654297,
        0.1777142882347107,
        -0.11298298835754395,
        1.342012643814087,
        -0.24396368861198425,
        3.1596288681030273,
        -1.3919672966003418,
        -0.9855582118034363,
        -1.0137293338775635,
        2.259744882583618
      ],
      "sha256_16": "13e180bc063ed907"
    },
    "model.model.encoder.layer.0.attention.col_attention.out.LayerNorm.weight": {
      "shape": [
        512
      ],
      "dtype": "torch.float32",
      "mean": -0.16272488236427307,
      "std": 1.3343422412872314,
      "absmax": 5.690613269805908,
      "slice": [
        1.231225848197937,
        1.3684582710266113,
        2.3197247982025146,
        -4.300509452819824,
        1.7852061986923218,
        0.69178706407547,
        -3.1358532905578613,
        -0.30920711159706116,
        0.7264308333396912,
        -0.34476232528686523,
        -1.608207106590271,
        0.6039205193519592,
        1.1973425149917603,
        0.2556331753730774,
        -1.288541316986084,
        0.24818141758441925,
        0.47737300395965576,
        0.24563604593276978,
        0.64292973279953,
        -0.6405849456787109,
        0.3583058714866638,
        0.5202440023422241,
        -0.7191783785820007,
        1.429953932762146,
        -1.0541303157806396,
        -0.1686970591545105,
        0.3523128926753998,
        -1.4532670974731445,
        -1.711003065109253,
        -3.2526845932006836,
        2.833888053894043,
        3.9805402755737305,
        -1.3139865398406982,
        -0.5938891172409058,
        -1.4768648147583008,
        0.4537167549133301,
        -0.36192137002944946,
        1.1477622985839844,
        -1.1537305116653442,
        0.5088646411895752,
        -0.6952405571937561,
        2.5914306640625,
        -0.44457191228866577,
        0.5094689130783081,
        -1.3869459629058838,
        -0.9002931118011475,
        1.6475553512573242,
        0.2984461188316345,
        -1.8518249988555908,
        0.9425101280212402,
        -0.6927599310874939,
        -1.244864583015442,
        0.7859917879104614,
        -0.26640212535858154,
        -1.6305592060089111,
        -0.1683834195137024,
        -0.3895646929740906,
        -0.9095615744590759,
        0.032959047704935074,
        -0.6639115214347839,
        -0.6434024572372437,
        -1.6052533388137817,
        -0.6972800493240356,
        -2.7133023738861084
      ],
      "sha256_16": "db612df0b374ca35"
    },
    "model.model.encoder.layer.0.attention.col_attention.out.LayerNorm.bias": {
      "shape": [
        512
      ],
      "dtype": "torch.float32",
      "mean": 0.006271298974752426,
      "std": 1.7071322202682495,
      "absmax": 4.636320114135742,
      "slice": [
        1.3754838705062866,
        3.5417139530181885,
        2.367405652999878,
        1.998114824295044,
        -2.3350958824157715,
        -0.6683900356292725,
        -2.728285789489746,
        -0.6310253143310547,
        -1.155071496963501,
        -0.842671275138855,
        -0.33004093170166016,
        1.3768078088760376,
        1.8174647092819214,
        1.115166187286377,
        -0.7467609643936157,
        -1.023859977722168,
        0.7382547855377197,
        0.08662624657154083,
        0.7279812097549438,
        -1.886061668395996,
        -0.822756290435791,
        1.112642765045166,
        0.6143661737442017,
        2.024934768676758,
        0.13621914386749268,
        4.358603477478027,
        0.45159652829170227,
        -2.8657326698303223,
        0.30758756399154663,
        4.13775634765625,
        2.4520819187164307,
        -3.2271831035614014,
        0.010278627276420593,
        -0.60197514295578,
        -0.08685015141963959,
        -1.9572162628173828,
        -0.4875548779964447,
        -1.133306622505188,
        0.9199985265731812,
        -2.8651468753814697,
        1.311016321182251,
        -2.5311803817749023,
        2.265653610229492,
        -0.8834577798843384,
        3.0209245681762695,
        -0.03204129636287689,
        3.251311779022217,
        -0.7476171851158142,
        -1.1812115907669067,
        -2.726093292236328,
        -0.4133147895336151,
        1.2809761762619019,
        -1.5741628408432007,
        -0.9489805698394775,
        -0.9415838718414307,
        0.2243860810995102,
        -0.21273766458034515,
        1.3570984601974487,
        -0.4943689703941345,
        3.3309836387634277,
        -1.4464271068572998,
        -0.9527929425239563,
        -1.044801950454712,
        2.4843530654907227
      ],
      "sha256_16": "36884a2aa89723c0"
    },
    "model.model.encoder.layer.0.attention.col_attention.embed_positions.c": {
      "shape": [],
      "dtype": "torch.float32",
      "mean": 0.008454333059489727,
      "std": 0.0,
      "absmax": 0.008454333059489727,
      "slice": [
        0.008454333059489727
      ],
      "sha256_16": "7229ad487733e017"
    },
    "model.model.encoder.layer.0.attention.col_attention.embed_positions.mlp.0.weight": {
      "shape": [
        32,
        1
      ],
      "dtype": "torch.float32",
      "mean": -0.452708899974823,
      "std": 0.39026349782943726,
      "absmax": 0.9990811347961426,
      "slice": [
        -0.9990811347961426,
        -0.5727752447128296,
        -0.5003995895385742,
        -0.33746257424354553,
        -0.6154841780662537,
        0.20084822177886963,
        -0.6069914698600769,
        -0.4246038794517517,
        -0.7316765785217285,
        -0.5980356335639954,
        -0.7531768083572388,
        0.21826045215129852,
        -0.9309918284416199,
        -0.5873368382453918,
        0.2719327509403229,
        -0.6340839266777039,
        -0.4698745906352997,
        -0.6694308519363403,
        -0.3581448197364807,
        -0.9890729784965515,
        0.24277815222740173,
        -0.8547927737236023,
        -0.47932446002960205,
        -0.5187229514122009,
        0.17481322586536407,
        -0.7835471034049988,
        0.19947755336761475,
        -0.5896854996681213,
        -0.8466582894325256,
        -0.761434018611908,
        0.19960373640060425,
        -0.3816106617450714
      ],
      "sha256_16": "ddd9b764390acb12"
    },
    "model.model.encoder.layer.0.attention.col_attention.embed_positions.mlp.2.weight": {
      "shape": [
        1,
        32
      ],
      "dtype": "torch.float32",
      "mean": -0.3599412739276886,
      "std": 0.3921213150024414,
      "absmax": 0.8672656416893005,
      "slice": [
        -0.6842857599258423,
        -0.4741646647453308,
        -0.5050486922264099,
        -0.32121220231056213,
        -0.6549818515777588,
        0.41652339696884155,
        -0.6474815607070923,
        -0.3721865713596344,
        -0.5524084568023682,
        -0.6304479837417603,
        -0.8672656416893005,
        0.3707733452320099,
        -0.6414573788642883,
        -0.4790104925632477,
        0.277849018573761,
        -0.6648844480514526,
        -0.4638829231262207,
        -0.7215122580528259,
        -0.34242162108421326,
        -0.6796998381614685,
        0.2611446976661682,
        -0.6082215905189514,
        -0.4839617609977722,
        -0.5273460745811462,
        0.45330551266670227,
        -0.5799586772918701,
        0.4207383692264557,
        -0.4780850112438202,
        -0.6239274740219116,
        -0.5674771666526794,
        0.21549665927886963,
        -0.36262208223342896
      ],
      "sha256_16": "76fd6f3109c82cb2"
    },
    "model.model.encoder.layer.0.intermediate.dense.weight": {
      "shape": [
        2048,
        512
      ],
      "dtype": "torch.float32",
      "mean": 7.035960152279586e-06,
      "std": 0.18977795541286469,
      "absmax": 5.553375720977783,
      "slice": [
        -0.02300107292830944,
        -0.10144151747226715,
        0.1337367594242096,
        -0.17799913883209229,
        -0.038293637335300446,
        -0.09727062284946442,
        0.025687428191304207,
        -0.019280249252915382,
        0.07851120829582214,
        -0.03853439912199974,
        0.12062905728816986,
        0.0151062635704875,
        0.08950250595808029,
        -0.004577568266540766,
        0.17239847779273987,
        0.10087596625089645,
        -0.04925093427300453,
        -0.05264577269554138,
        0.03338700905442238,
        -0.003014707937836647,
        -0.04206868261098862,
        0.12682828307151794,
        -0.0988796055316925,
        0.14661282300949097,
        -0.15141518414020538,
        -0.04454224929213524,
        0.14797306060791016,
        -0.02314765937626362,
        -0.041319794952869415,
        -0.12029656022787094,
        -0.11343008279800415,
        0.009838485158979893,
        -0.08824505656957626,
        0.05589282140135765,
        0.07227855920791626,
        0.019730592146515846,
        -0.023636765778064728,
        -0.013214804232120514,
        0.04935624450445175,
        0.07611570507287979,
        -0.08048469573259354,
        -0.09258891642093658,
        -0.06508518010377884,
        -0.1153707429766655,
        0.014135291799902916,
        -0.014415904879570007,
        0.0729123130440712,
        -0.15246796607971191,
        0.012246971018612385,
        -0.03595300391316414,
        0.10808607190847397,
        0.13215138018131256,
        0.014791861176490784,
        0.12594032287597656,
        0.016280094161629677,
        -0.11496428400278091,
        0.07958463579416275,
        0.12615443766117096,
        0.0005014020716771483,
        -0.02928806096315384,
        -0.017249692231416702,
        -0.01600174978375435,
        0.01516703050583601,
        -0.06246621534228325
      ],
      "sha256_16": "9f9bcee362bbaf30"
    },
    "model.model.encoder.layer.0.intermediate.dense.bias": {
      "shape": [
        2048
      ],
      "dtype": "torch.float32",
      "mean": -0.04208475351333618,
      "std": 0.2143201231956482,
      "absmax": 1.367703914642334,
      "slice": [
        0.04530598223209381,
        0.00843089260160923,
        -0.3236522972583771,
        -0.004455041140317917,
        0.11306050419807434,
        -0.13218353688716888,
        -0.00923171453177929,
        -0.3331872820854187,
        -0.3629654347896576,
        0.2428458034992218,
        -0.2415175437927246,
        0.23208105564117432,
        0.08105232566595078,
        0.02452371083199978,
        -0.11412522196769714,
        -0.740883469581604,
        -0.20370358228683472,
        0.0019383938051760197,
        -0.3422969579696655,
        -0.04382634535431862,
        0.013092687353491783,
        -0.2333296835422516,
        -0.09855042397975922,
        -0.08105632662773132,
        -0.4566744565963745,
        -0.0169824305921793,
        -0.07526123523712158,
        0.028638135641813278,
        -0.045013751834630966,
        -0.4619242548942566,
        -0.23160487413406372,
        -0.33150607347488403,
        0.0073850806802511215,
        -0.06726815551519394,
        -0.12065213918685913,
        0.015025394037365913,
        0.04252111166715622,
        0.1874595731496811,
        -0.03937257081270218,
        0.08595801144838333,
        -0.16756661236286163,
        -0.1656568944454193,
        0.059764400124549866,
        0.028872394934296608,
        0.00599314970895648,
        -0.05911749601364136,
        -1.1329525709152222,
        0.09589600563049316,
        -0.0005176737904548645,
        0.00744418241083622,
        -0.33825281262397766,
        0.03207038342952728,
        0.14434100687503815,
        0.2830180823802948,
        0.05686800181865692,
        0.020537517964839935,
        0.3189391493797302,
        0.04352575168013573,
        -0.4433438181877136,
        -0.17372103035449982,
        0.031171154230833054,
        -0.21265561878681183,
        0.03488100692629814,
        -0.07494723796844482
      ],
      "sha256_16": "50a30ec1ad13ca43"
    },
    "model.model.encoder.layer.0.output.dense.weight": {
      "shape": [
        512,
        2048
      ],
      "dtype": "torch.float32",
      "mean": -8.731149137020111e-11,
      "std": 0.21850378811359406,
      "absmax": 4.839600563049316,
      "slice": [
        -0.08045847713947296,
        0.04567832499742508,
        0.2177770733833313,
        -0.056351739913225174,
        -0.024943633005023003,
        -0.0729290172457695,
        -0.12058989703655243,
        0.04816943407058716,
        0.8116536736488342,
        -0.06594965606927872,
        0.0895969495177269,
        0.026554487645626068,
        -0.0489872582256794,
        -0.013954395428299904,
        -0.10909288376569748,
        0.018447915092110634,
        0.03244909644126892,
        -0.04370558261871338,
        0.048916883766651154,
        -0.05169638246297836,
        -0.008155508898198605,
        -0.05150619521737099,
        -0.08654354512691498,
        -0.06944523751735687,
        -0.014411850832402706,
        0.12183979153633118,
        -0.036891400814056396,
        -0.03581276163458824,
        -0.07378964871168137,
        -0.06676948070526123,
        -0.09480845183134079,
        0.07403493672609329,
        0.2417854219675064,
        -0.0661388412117958,
        0.052942875772714615,
        -0.027412021532654762,
        -0.09836071729660034,
        -0.05065668001770973,
        -0.08529163897037506,
        -0.09679578989744186,
        -0.025266487151384354,
        0.30314868688583374,
        -0.09392200410366058,
        -0.09931421279907227,
        -0.10461574792861938,
        -0.04437735676765442,
        0.03883310779929161,
        -0.033241357654333115,
        -0.05592010170221329,
        -0.022581065073609352,
        0.375866562128067,
        -0.03380924463272095,
        -0.0402023047208786,
        0.012589294463396072,
        -0.10800331830978394,
        -0.09320256859064102,
        -0.04251818358898163,
        -0.10543107986450195,
        0.08976749330759048,
        -0.06114724650979042,
        -0.1004880741238594,
        -0.06865754723548889,
        -0.085401751101017,
        -0.0583164282143116
      ],
      "sha256_16": "a2dcd6478b770c22"
    },
    "model.model.encoder.layer.0.output.dense.bias": {
      "shape": [
        512
      ],
      "dtype": "torch.float32",
      "mean": 0.0,
      "std": 1.6409729719161987,
      "absmax": 5.050060272216797,
      "slice": [
        0.7973156571388245,
        3.3438496589660645,
        2.533005714416504,
        1.7166526317596436,
        -2.010823965072632,
        -0.30719423294067383,
        -2.8102359771728516,
        -0.6891350746154785,
        -0.40039753913879395,
        -1.3526233434677124,
        -0.24139827489852905,
        1.792905569076538,
        1.2162933349609375,
        1.420865535736084,
        -1.0826693773269653,
        -0.5385122895240784,
        0.4464123249053955,
        -0.025686852633953094,
        0.36033570766448975,
        -1.7511979341506958,
        -0.3295363783836365,
        1.6459522247314453,
        0.5216295123100281,
        1.7023626565933228,
        0.42579221725463867,
        3.9078855514526367,
        0.35569998621940613,
        -2.9821512699127197,
        0.6416722536087036,
        3.784184455871582,
        2.138967514038086,
        -2.9165761470794678,
        -0.30244794487953186,
        -0.6461161971092224,
        -0.36245059967041016,
        -1.685048222541809,
        0.027018457651138306,
        -0.7989861965179443,
        1.172882318496704,
        -2.961451530456543,
        0.9519622325897217,
        -2.038369655609131,
        1.596400260925293,
        -0.8273186683654785,
        2.982846975326538,
        0.6089687347412109,
        3.3239121437072754,
        -1.1411223411560059,
        -1.4417622089385986,
        -2.216559648513794,
        -0.6042234897613525,
        1.417565107345581,
        -1.3896855115890503,
        -0.5059198141098022,
        -1.7080307006835938,
        0.018527880311012268,
        -0.7799383401870728,
        1.5524946451187134,
        -0.30904877185821533,
        3.2077903747558594,
        -1.4354770183563232,
        -1.1009266376495361,
        -0.6347135305404663,
        2.5783188343048096
      ],
      "sha256_16": "cfe64b8200da5472"
    },
    "model.model.encoder.layer.0.output.LayerNorm.weight": {
      "shape": [
        512
      ],
      "dtype": "torch.float32",
      "mean": -0.13649407029151917,
      "std": 1.5643956661224365,
      "absmax": 8.93018627166748,
      "slice": [
        0.46321189403533936,
        1.9267876148223877,
        4.470544338226318,
        -4.873051643371582,
        1.7973535060882568,
        0.33286598324775696,
        -3.6403186321258545,
        -0.9502267837524414,
        0.6996954679489136,
        0.9886916875839233,
        -0.595195472240448,
        0.346427321434021,
        0.8821511268615723,
        0.6748781204223633,
        -1.5969382524490356,
        0.3641897439956665,
        -0.6917120218276978,
        -0.3253900110721588,
        0.31429895758628845,
        -1.0967655181884766,
        0.005208309274166822,
        0.48115721344947815,
        -0.8677171468734741,
        1.9808350801467896,
        -1.2063910961151123,
        -0.5767006874084473,
        0.4509834945201874,
        -0.38564684987068176,
        -1.6962991952896118,
        -3.36226224899292,
        3.0259475708007812,
        4.540572166442871,
        -0.4340204894542694,
        -0.41573479771614075,
        -1.684050440788269,
        0.08765050768852234,
        -0.1856539249420166,
        1.4174927473068237,
        -0.43795692920684814,
        0.7693485021591187,
        -0.5986629724502563,
        2.4523820877075195,
        -1.098393201828003,
        0.4537511467933655,
        -1.0714092254638672,
        -1.9740204811096191,
        1.6997740268707275,
        1.3537877798080444,
        -3.0079643726348877,
        1.2780449390411377,
        -0.5975143909454346,
        -2.1372790336608887,
        0.7179099917411804,
        -0.14006993174552917,
        -1.9158536195755005,
        0.17024348676204681,
        -0.5177215337753296,
        0.07961714267730713,
        -2.1356201171875,
        -1.2991955280303955,
        -0.6763440370559692,
        -1.8327773809432983,
        -1.082310438156128,
        -2.3079869747161865
      ],
      "sha256_16": "ed71682f2d23b708"
    },
    "model.model.encoder.layer.0.output.LayerNorm.bias": {
      "shape": [
        512
      ],
      "dtype": "torch.float32",
      "mean": -0.019951270893216133,
      "std": 2.0485286712646484,
      "absmax": 6.040832996368408,
      "slice": [
        0.8506579995155334,
        3.411885976791382,
        3.476555109024048,
        2.4969966411590576,
        -2.132479667663574,
        -0.35336706042289734,
        -3.0394067764282227,
        -0.8762622475624084,
        -0.28811168670654297,
        -1.892698049545288,
        -0.19146497547626495,
        2.1322855949401855,
        1.5549404621124268,
        1.9506767988204956,
        -1.2789812088012695,
        -0.4830012619495392,
        0.22748629748821259,
        0.17959298193454742,
        -0.045605286955833435,
        -2.2354815006256104,
        -0.33404070138931274,
        2.103923797607422,
        0.7149631977081299,
        2.678903579711914,
        0.8924386501312256,
        4.897651195526123,
        0.3974112272262573,
        -3.840256929397583,
        0.64885413646698,
        4.58761739730835,
        2.608494281768799,
        -3.5471434593200684,
        -0.3972594439983368,
        -1.1343861818313599,
        -0.5702049732208252,
        -2.0093305110931396,
        -0.029680833220481873,
        -1.0494409799575806,
        1.142655372619629,
        -3.7536752223968506,
        1.1123661994934082,
        -2.349787950515747,
        2.0932271480560303,
        -1.0361040830612183,
        3.867919921875,
        1.2903563976287842,
        3.999896287918091,
        -1.2140145301818848,
        -2.463651418685913,
        -2.6185126304626465,
        -0.5735078454017639,
        1.556372880935669,
        -1.941245198249817,
        -0.4843710660934448,
        -2.498234272003174,
        0.12944142520427704,
        -0.9250829219818115,
        1.6680190563201904,
        -1.2889699935913086,
        3.940417528152466,
        -1.6440283060073853,
        -0.8405721187591553,
        -0.6533423066139221,
        3.2492973804473877
      ],
      "sha256_16": "06b556975def3bae"
    },
    "model.model.encoder.layer.1.attention.row_attention.self.query.weight": {
      "shape": [
        256,
        512
      ],
      "dtype": "torch.float32",
      "mean": 5.92286596656777e-06,
      "std": 0.5292365550994873,
      "absmax": 7.751460552215576,
      "slice": [
        1.8522403240203857,
        -0.28163522481918335,
        1.202349305152893,
        -0.3167407512664795,
        -0.8984549045562744,
        -0.15358997881412506,
        1.4513957500457764,
        1.3306435346603394,
        -0.4942651391029358,
        -1.3165814876556396,
        1.5654945373535156,
        0.8084385395050049,
        0.15581835806369781,
        0.8871121406555176,
        0.7909266352653503,
        -0.5393149256706238,
        1.3516736030578613,
        -0.08108655363321304,
        -0.3611838221549988,
        1.0299144983291626,
        -0.19010882079601288,
        -1.26138174533844,
        -0.31780219078063965,
        0.7132041454315186,
        0.7768400311470032,
        0.4799167215824127,
        0.5384095907211304,
        -0.2882315516471863,
        0.13475340604782104,
        -1.2875808477401733,
        1.4866795539855957,
        -2.057363271713257,
        -0.6076006293296814,
        -0.72047358751297,
        1.4951872825622559,
        0.08285145461559296,
        -0.8982389569282532,
        -1.0108983516693115,
        -0.8887980580329895,
        -1.017295002937317,
        0.6995957493782043,
        -0.7145127654075623,
        0.18526174128055573,
        0.1440490186214447,
        -1.1266661882400513,
        -0.007680553011596203,
        -0.4985179603099823,
        -0.3981188237667084,
        0.22563126683235168,
        -0.016941586509346962,
        0.8699151277542114,
        -1.1128109693527222,
        -0.30400145053863525,
        -0.5201358795166016,
        -0.4899270832538605,
        0.33455342054367065,
        1.1146963834762573,
        -0.7218353152275085,
        0.26823949813842773,
        -0.6168556809425354,
        0.8854374289512634,
        1.1213366985321045,
        -0.13819676637649536,
        0.11569581925868988
      ],
      "sha256_16": "6170e0d9c3705213"
    },
    "model.model.encoder.layer.1.attention.row_attention.self.query.bias": {
      "shape": [
        256
      ],
      "dtype": "torch.float32",
      "mean": 0.012007622979581356,
      "std": 0.6478093266487122,
      "absmax": 3.6908304691314697,
      "slice": [
        0.7717105150222778,
        0.4178561568260193,
        0.9329890608787537,
        0.019199173897504807,
        0.004749849438667297,
        0.5159256458282471,
        -0.44601649045944214,
        -0.240215003490448,
        -0.2933650612831116,
        -0.3893768787384033,
        -0.09212382137775421,
        -0.21544425189495087,
        0.24910299479961395,
        0.2958660423755646,
        0.2507511377334595,
        -0.6815004348754883,
        -1.0755856037139893,
        -0.49863380193710327,
        -0.5358015298843384,
        0.24016690254211426,
        0.5356706380844116,
        0.4185146391391754,
        0.10452204942703247,
        1.1510270833969116,
        0.4581126570701599,
        -0.5930387377738953,
        -0.6545528173446655,
        -1.5113873481750488,
        0.5549593567848206,
        -0.41673579812049866,
        -0.15333692729473114,
        -0.4051681160926819,
        -0.1359749585390091,
        0.004468152299523354,
        0.07031096518039703,
        -0.4878225326538086,
        -0.0036862497217953205,
        -0.20269328355789185,
        -0.2232181429862976,
        0.4281821846961975,
        -0.3875267505645752,
        -0.03291001543402672,
        0.19755174219608307,
        -0.3217296004295349,
        -1.2891908884048462,
        -0.8831936120986938,
        0.1124228686094284,
        -0.25215619802474976,
        0.16900889575481415,
        -0.4740847945213318,
        0.12226145714521408,
        -0.2127479612827301,
        -1.6029828786849976,
        -0.019768372178077698,
        -0.06166774779558182,
        -0.22331324219703674,
        -0.39172542095184326,
        -1.6888976097106934,
        0.08423170447349548,
        0.014194091781973839,
        2.232485294342041,
        0.48597288131713867,
        0.9000614881515503,
        0.5950748920440674
      ],
      "sha256_16": "da0175c05bf8e8c8"
    },
    "model.model.encoder.layer.1.attention.row_attention.self.key.weight": {
      "shape": [
        256,
        512
      ],
      "dtype": "torch.float32",
      "mean": -2.7285568648949265e-07,
      "std": 0.5389495491981506,
      "absmax": 15.984452247619629,
      "slice": [
        -0.1294666826725006,
        0.38581591844558716,
        -0.7204946875572205,
        -0.21876095235347748,
        -0.04850232973694801,
        0.06485205888748169,
        -0.5755249261856079,
        -0.0575840026140213,
        -0.13817785680294037,
        0.4607873857021332,
        -0.44103214144706726,
        0.024964796379208565,
        -0.1569214016199112,
        -0.27371564507484436,
        -0.3558582067489624,
        -0.12189304828643799,
        0.0966634526848793,
        -0.0443013571202755,
        0.22639232873916626,
        -0.05741088464856148,
        -0.024650737643241882,
        -0.0833917036652565,
        0.10201714932918549,
        -0.6688042283058167,
        -0.2859566807746887,
        -0.20792260766029358,
        -0.2191038429737091,
        0.2586964964866638,
        0.21191348135471344,
        0.06694355607032776,
        -0.3484017252922058,
        0.3757272958755493,
        0.24530424177646637,
        0.41249316930770874,
        0.016576718538999557,
        0.10111964493989944,
        0.20880825817584991,
        0.4674842357635498,
        0.3425825536251068,
        0.17285102605819702,
        -0.17593948543071747,
        0.07401904463768005,
        -0.0947088971734047,
        -0.01694292575120926,
        -0.15994064509868622,
        -0.37561511993408203,
        0.04493280127644539,
        0.042343657463788986,
        0.3802131712436676,
        -0.02785239741206169,
        -0.40513941645622253,
        -0.006082233507186174,
        0.3667292296886444,
        0.2547197937965393,
        0.42617541551589966,
        -0.1636795848608017,
        -0.24597956240177155,
        0.23110437393188477,
        0.7089576721191406,
        0.07303356379270554,
        -0.24651624262332916,
        -0.6697676181793213,
        -0.14151686429977417,
        -0.11679011583328247
      ],
      "sha256_16": "f4785e4d5dc1f2f3"
    },
    "model.model.encoder.layer.1.attention.row_attention.self.key.bias": {
      "shape": [
        256
      ],
      "dtype": "torch.float32",
      "mean": 0.0036308642011135817,
      "std": 0.10763727873563766,
      "absmax": 0.7010228037834167,
      "slice": [
        -0.08107591420412064,
        0.39003241062164307,
        0.6059349775314331,
        0.7010228037834167,
        -0.049116700887680054,
        0.19972515106201172,
        -0.29818233847618103,
        -0.29038184881210327,
        -0.3980679512023926,
        -0.06468626856803894,
        -0.1436532884836197,
        0.24144110083580017,
        -0.24321751296520233,
        -0.11454027891159058,
        -0.04442034661769867,
        0.11134851723909378,
        0.08018095046281815,
        -0.14306682348251343,
        -0.04309191554784775,
        -0.09022626280784607,
        -0.08512122184038162,
        -0.07701141387224197,
        0.11585603654384613,
        -0.0299556702375412,
        0.004051348194479942,
        0.006203394383192062,
        -0.06567129492759705,
        0.07385368645191193,
        0.024023035541176796,
        -0.024682994931936264,
        -0.002700516954064369,
        0.013775073923170567,
        0.008450508117675781,
        -0.002567516639828682,
        0.0006651058793067932,
        -0.005373720079660416,
        -0.00015866756439208984,
        0.004279658198356628,
        0.007886996492743492,
        0.0004093386232852936,
        0.000787932425737381,
        0.005289547145366669,
        0.0018374305218458176,
        0.0006630681455135345,
        0.002431590110063553,
        0.006323538720607758,
        0.0008179396390914917,
        0.0007599405944347382,
        -0.000291675329208374,
        0.00015563145279884338,
        0.0003366991877555847,
        -0.001441270112991333,
        0.00010494887828826904,
        0.003341228934004903,
        0.000599101185798645,
        0.001093689352273941,
        -0.001245414838194847,
        -0.00012528151273727417,
        -6.572157144546509e-05,
        -0.0005092043429613113,
        0.0003521144390106201,
        -0.0009730160236358643,
        0.00014337897300720215,
        -0.00035764090716838837
      ],
      "sha256_16": "643875c57f1ff9ca"
    },
    "model.model.encoder.layer.1.attention.row_attention.self.value.weight": {
      "shape": [
        256,
        512
      ],
      "dtype": "torch.float32",
      "mean": -1.3397992006503046e-05,
      "std": 0.9425181150436401,
      "absmax": 10.191166877746582,
      "slice": [
        -0.06977715343236923,
        -0.42377617955207825,
        0.9053913354873657,
        -0.18045659363269806,
        0.0022669965401291847,
        -0.15960800647735596,
        0.27976053953170776,
        -0.2793707251548767,
        0.2003028243780136,
        -0.19594551622867584,
        0.3969792425632477,
        -0.011442771181464195,
        0.32247936725616455,
        0.2001347839832306,
        0.5857771635055542,
        0.21654362976551056,
        -0.3956141173839569,
        0.05237092822790146,
        -0.09892552345991135,
        -0.07178683578968048,
        -0.313424676656723,
        0.34875500202178955,
        -0.2549784481525421,
        0.7620238661766052,
        -0.14848685264587402,
        -0.005302525125443935,
        0.41388610005378723,
        -0.25390467047691345,
        -0.35117197036743164,
        0.22752529382705688,
        0.09714552760124207,
        -0.1916027069091797,
        -0.16722062230110168,
        -0.07843977212905884,
        0.04974158853292465,
        -0.18313339352607727,
        -0.038999903947114944,
        -0.5470499396324158,
        -0.012025410309433937,
        -0.017198629677295685,
        -0.005942163523286581,
        -0.28915145993232727,
        -0.0348808690905571,
        -0.15154995024204254,
        0.23655836284160614,
        0.2516826093196869,
        0.2956041991710663,
        -0.3962732255458832,
        -0.2265806943178177,
        -0.11061803996562958,
        0.4546710252761841,
        0.4366862177848816,
        -0.3581750690937042,
        -0.05881508067250252,
        -0.2978525161743164,
        0.030669355764985085,
        0.18739330768585205,
        0.08425860852003098,
        -0.5005046725273132,
        0.0077989245764911175,
        -0.14347514510154724,
        0.23277582228183746,
        0.25203871726989746,
        0.15373557806015015
      ],
      "sha256_16": "a53396ee7230d160"
    },
    "model.model.encoder.layer.1.attention.row_attention.self.value.bias": {
      "shape": [
        256
      ],
      "dtype": "torch.float32",
      "mean": -0.04894749075174332,
      "std": 1.2955034971237183,
      "absmax": 4.259502410888672,
      "slice": [
        0.18981021642684937,
        0.6142473220825195,
        -0.4792232811450958,
        -0.8836715221405029,
        1.478490948677063,
        0.7392663955688477,
        -0.6451845765113831,
        -0.22046783566474915,
        -0.4130038022994995,
        -1.3029701709747314,
        0.5742439031600952,
        -1.3311657905578613,
        -0.4048289358615875,
        0.914147138595581,
        0.5949723720550537,
        0.9403861165046692,
        0.5856921076774597,
        1.133772373199463,
        -0.44245442748069763,
        -0.1782735288143158,
        -0.4827478528022766,
        -1.1989247798919678,
        -0.19409489631652832,
        0.3820139467716217,
        2.398540496826172,
        0.9085344076156616,
        1.6005438566207886,
        0.4404672086238861,
        -1.4971928596496582,
        0.622334361076355,
        -0.4547511041164398,
        1.4119253158569336,
        -0.8274577260017395,
        -0.8685402870178223,
        -0.08254362642765045,
        -0.8957715630531311,
        -1.0226304531097412,
        -1.788804054260254,
        0.9045299887657166,
        0.7694815397262573,
        -0.06256915628910065,
        1.4480955600738525,
        0.7340558171272278,
        1.6665114164352417,
        -0.5629080533981323,
        -0.018317811191082,
        -1.2871694564819336,
        -0.18703767657279968,
        0.36513787508010864,
        0.006013303995132446,
        -1.8681559562683105,
        -1.1027072668075562,
        -2.6215007305145264,
        -0.10424058139324188,
        -0.5805212259292603,
        0.38276633620262146,
        -0.8755502700805664,
        -1.5337754487991333,
        0.2691730856895447,
        0.4670928716659546,
        1.222025990486145,
        -1.4109976291656494,
        -1.256786584854126,
        0.3503306210041046
      ],
      "sha256_16": "b489ea58f720be71"
    },
    "model.model.encoder.layer.1.attention.row_attention.out.dense.weight": {
      "shape": [
        512,
        256
      ],
      "dtype": "torch.float32",
      "mean": 1.1641532182693481e-09,
      "std": 1.6852883100509644,
      "absmax": 16.254812240600586,
      "slice": [
        0.2831825613975525,
        0.23858866095542908,
        0.5609104037284851,
        -0.2952418625354767,
        0.20344948768615723,
        0.29689502716064453,
        -0.643658459186554,
        0.006313385907560587,
        -0.5018665194511414,
        -0.5893234014511108,
        0.7158282399177551,
        -0.20128928124904633,
        0.22798681259155273,
        0.7404385805130005,
        -0.025353819131851196,
        -0.262778639793396,
        0.0696621760725975,
        -0.5824682712554932,
        -0.16474884748458862,
        -0.8455352783203125,
        -0.1678948700428009,
        -0.15372732281684875,
        -0.5110889077186584,
        -0.3450593650341034,
        0.351406991481781,
        0.5233943462371826,
        -0.512291669845581,
        -0.37278568744659424,
        -0.09966515749692917,
        0.1762172281742096,
        0.06389335542917252,
        -0.06203124672174454,
        -0.802763819694519,
        -0.32867246866226196,
        0.11646361649036407,
        0.2865493595600128,
        -0.3235965967178345,
        -0.8320451378822327,
        0.23351842164993286,
        -0.31387943029403687,
        0.07230807095766068,
        0.7149543166160583,
        -0.04149090126156807,
        0.7110491991043091,
        0.1386898308992386,
        -0.7372162938117981,
        -0.10321666300296783,
        0.7844643592834473,
        -0.031353920698165894,
        0.01836893893778324,
        -0.06446803361177444,
        -0.1996489018201828,
        -0.5049068927764893,
        -0.048469625413417816,
        -0.05351240560412407,
        -0.6336612701416016,
        -0.4837374985218048,
        0.08468270301818848,
        0.496200293302536,
        0.4275752902030945,
        0.49998340010643005,
        -0.5984386205673218,
        -0.00439308350905776,
        0.6271581649780273
      ],
      "sha256_16": "7ad96226e5b3569d"
    },
    "model.model.encoder.layer.1.attention.row_attention.out.dense.bias": {
      "shape": [
        512
      ],
      "dtype": "torch.float32",
      "mean": -1.5832483768463135e-08,
      "std": 2.031635046005249,
      "absmax": 7.827467918395996,
      "slice": [
        0.48243340849876404,
        2.28944993019104,
        3.561351776123047,
        2.5934808254241943,
        -1.276136875152588,
        -0.6775238513946533,
        -2.22031569480896,
        1.580460548400879,
        1.0932307243347168,
        -3.1789393424987793,
        0.9398597478866577,
        3.6377782821655273,
        1.0067812204360962,
        1.6713037490844727,
        -1.5072535276412964,
        0.10656435042619705,
        1.0412434339523315,
        0.07847139239311218,
        -0.055240899324417114,
        -1.8248710632324219,
        -0.5965294241905212,
        1.2826077938079834,
        1.2295433282852173,
        3.3125078678131104,
        0.996964156627655,
        5.1465044021606445,
        -0.5266355276107788,
        -4.020644187927246,
        0.9750339984893799,
        2.8285396099090576,
        3.2972676753997803,
        -3.9228930473327637,
        1.3676954507827759,
        -0.10051180422306061,
        0.7265486717224121,
        -1.3395940065383911,
        2.1952919960021973,
        -1.058470606803894,
        0.3330082297325134,
        -4.8057427406311035,
        0.9747100472450256,
        -2.3018126487731934,
        1.1703026294708252,
        -1.299383282661438,
        3.2514467239379883,
        1.4801099300384521,
        2.482388973236084,
        -2.710279941558838,
        -2.2885310649871826,
        -1.085453748703003,
        -0.077157162129879,
        -0.601360559463501,
        -2.7890052795410156,
        -1.036885142326355,
        -2.424985885620117,
        0.00380021333694458,
        -1.3573042154312134,
        0.3387618064880371,
        -1.1619820594787598,
        1.9958393573760986,
        -0.999937117099762,
        0.20253941416740417,
        -2.2846202850341797,
        2.628427505493164
      ],
      "sha256_16": "f68a4291c73ffe54"
    },
    "model.model.encoder.layer.1.attention.row_attention.out.LayerNorm.weight": {
      "shape": [
        512
      ],
      "dtype": "torch.float32",
      "mean": 0.004327956587076187,
      "std": 1.9388619661331177,
      "absmax": 13.232487678527832,
      "slice": [
        0.07421523332595825,
        -0.6984437704086304,
        6.15117073059082,
        -5.984105587005615,
        1.169074296951294,
        1.155036449432373,
        -4.795697212219238,
        -0.13506804406642914,
        -1.0442485809326172,
        2.09340763092041,
        0.6824254989624023,
        2.373352527618408,
        0.3431355953216553,
        1.7557350397109985,
        -2.557300329208374,
        -0.12337464094161987,
        -0.2042940855026245,
        -0.14420217275619507,
        -0.017586667090654373,
        -0.06636831909418106,
        0.28302809596061707,
        0.5701449513435364,
        -1.0532623529434204,
        2.6943159103393555,
        -0.643354058265686,
        -0.9686279892921448,
        -0.23804409801959991,
        -2.0810091495513916,
        -1.3613234758377075,
        -1.8998053073883057,
        1.4072332382202148,
        2.431533098220825,
        -1.9659963846206665,
        -0.044973697513341904,
        0.5747810006141663,
        -0.3004096448421478,
        -2.617408037185669,
        0.861832320690155,
        -0.47413015365600586,
        -0.17726194858551025,
        -0.4480007290840149,
        -0.1482187807559967,
        0.05599339306354523,
        -0.3045944571495056,
        -2.1988298892974854,
        -1.0864051580429077,
        0.4783569574356079,
        0.4316752552986145,
        -2.065760850906372,
        0.8343058824539185,
        -0.06252454966306686,
        -2.011230230331421,
        -0.4047420620918274,
        0.7044727802276611,
        -2.3885252475738525,
        0.48455196619033813,
        -1.3350318670272827,
        -0.5897699594497681,
        -1.470421314239502,
        0.1949840784072876,
        -0.9667354822158813,
        -1.4104387760162354,
        0.3097808361053467,
        -2.808074951171875
      ],
      "sha256_16": "958b4e3bafbbc1c2"
    },
    "model.model.encoder.layer.1.attention.row_attention.out.LayerNorm.bias": {
      "shape": [
        512
      ],
      "dtype": "torch.float32",
      "mean": 0.002265946939587593,
      "std": 2.5388126373291016,
      "absmax": 9.680622100830078,
      "slice": [
        0.5385717749595642,
        2.893110513687134,
        4.356531143188477,
        3.148280382156372,
        -1.5877209901809692,
        -0.7756961584091187,
        -2.919266700744629,
        2.001284599304199,
        1.3477821350097656,
        -3.943197727203369,
        1.1345629692077637,
        4.656893730163574,
        1.1926255226135254,
        2.0026285648345947,
        -1.8810734748840332,
        0.18122965097427368,
        1.2559928894042969,
        0.09260739386081696,
        0.017297469079494476,
        -2.335679769515991,
        -0.80148845911026,
        1.5704134702682495,
        1.452181100845337,
        4.07275915145874,
        1.2547485828399658,
        6.396310329437256,
        -0.6594997048377991,
        -5.129058837890625,
        1.1963013410568237,
        3.608065605163574,
        4.155191898345947,
        -4.811460971832275,
        1.829321265220642,
        -0.08551450818777084,
        0.8621820211410522,
        -1.7538683414459229,
        2.8513920307159424,
        -1.416962742805481,
        0.46915656328201294,
        -6.014708518981934,
        1.0982491970062256,
        -2.881321907043457,
        1.3747645616531372,
        -1.6299717426300049,
        4.038589000701904,
        1.7498972415924072,
        3.078047513961792,
        -3.479464530944824,
        -2.705533027648926,
        -1.393854022026062,
        -0.1634470373392105,
        -0.6623904705047607,
        -3.488144874572754,
        -1.3228117227554321,
        -2.99436616897583,
        -0.0008610188961029053,
        -1.720787763595581,
        0.4048379063606262,
        -1.3345361948013306,
        2.5093307495117188,
        -1.3462796211242676,
        0.15147748589515686,
        -2.95969557762146,
        3.3894851207733154
      ],
      "sha256_16": "c9c0e1bbfa586062"
    },
    "model.model.encoder.layer.1.attention.col_attention.self.query.weight": {
      "shape": [
        256,
        512
      ],
      "dtype": "torch.float32",
      "mean": 8.94664026418468e-07,
      "std": 0.07784387469291687,
      "absmax": 0.583149790763855,
      "slice": [
        -0.02708723582327366,
        -0.06219979003071785,
        0.06972522288560867,
        -0.13063043355941772,
        -0.046698588877916336,
        -0.02714448608458042,
        0.028109634295105934,
        -0.02620179019868374,
        -0.04134293273091316,
        -0.05889313668012619,
        0.05510153993964195,
        0.02737312763929367,
        -0.005193484015762806,
        0.027258984744548798,
        0.09874115884304047,
        -0.05850553512573242,
        -0.01941494829952717,
        -0.02955496869981289,
        0.0024863197468221188,
        0.032241709530353546,
        -0.11348751932382584,
        0.018084712326526642,
        -0.015141338109970093,
        0.05288310721516609,
        -0.07070852071046829,
        0.0063950056210160255,
        0.0946662425994873,
        0.02631031721830368,
        0.0033063909504562616,
        -0.03662873059511185,
        -0.05471807345747948,
        -0.01960751973092556,
        -0.03552103415131569,
        0.050869327038526535,
        0.06216150522232056,
        0.012167676351964474,
        -0.0485229454934597,
        -0.03287871554493904,
        -0.017660098150372505,
        -0.03505881503224373,
        -0.01437696348875761,
        0.021306293085217476,
        -0.009206213988363743,
        -0.07247307151556015,
        -0.01759198307991028,
        -0.07666364312171936,
        -0.03534877300262451,
        -0.006620950996875763,
        0.03561793267726898,
        -0.01762039214372635,
        0.10517897456884384,
        0.03092155046761036,
        0.04982367530465126,
        0.07069471478462219,
        0.06973446905612946,
        -0.0049784244038164616,
        -0.0014345970703288913,
        0.10036875307559967,
        0.030838027596473694,
        0.016275495290756226,
        -0.017392292618751526,
        -0.03796805441379547,
        -0.03800845146179199,
        -0.08681201189756393
      ],
      "sha256_16": "8d94d8842386d35c"
    },
    "model.model.encoder.layer.1.attention.col_attention.self.query.bias": {
      "shape": [
        256
      ],
      "dtype": "torch.float32",
      "mean": -0.0013644455466419458,
      "std": 0.0636150985956192,
      "absmax": 0.1608789563179016,
      "slice": [
        0.04637405648827553,
        -0.06373115628957748,
        -0.03992953523993492,
        0.014938903972506523,
        -0.011212693527340889,
        -0.015260678716003895,
        -0.025124922394752502,
        -0.009636749513447285,
        -0.025464456528425217,
        0.034774214029312134,
        -0.03956053778529167,
        -0.026784777641296387,
        0.0315522700548172,
        -0.028797361999750137,
        0.043667443096637726,
        0.026086285710334778,
        0.02756577357649803,
        0.02703370526432991,
        0.06484314799308777,
        -0.014601820148527622,
        0.03136345371603966,
        -0.041491229087114334,
        0.05833104997873306,
        0.03425924479961395,
        0.027862323448061943,
        0.05946104973554611,
        -0.0013504470698535442,
        -0.026002680882811546,
        0.020790819078683853,
        0.02889396995306015,
        -0.01144220307469368,
        -0.014156821183860302,
        0.033117614686489105,
        -0.0784735232591629,
        0.002397773787379265,
        -0.00036807963624596596,
        0.04043746739625931,
        -0.009980585426092148,
        -1.6002857591956854e-05,
        0.04061621427536011,
        -0.0032845251262187958,
        0.014686809852719307,
        -0.010745271109044552,
        -0.028737880289554596,
        -0.01703634485602379,
        -0.0408637560904026,
        -0.08398580551147461,
        0.036011334508657455,
        0.011503666639328003,
        -0.01679564267396927,
        -0.026471436023712158,
        0.010329268872737885,
        0.0390661247074604,
        -0.02110360749065876,
        -0.013683026656508446,
        -0.011280475184321404,
        -0.026156486943364143,
        -0.07606261968612671,
        0.02616742253303528,
        0.06254127621650696,
        -0.046750739216804504,
        -0.04660817235708237,
        0.034242890775203705,
        0.03011532500386238
      ],
      "sha256_16": "cf589543fee7246e"
    },
    "model.model.encoder.layer.1.attention.col_attention.self.key.weight": {
      "shape": [
        256,
        512
      ],
      "dtype": "torch.float32",
      "mean": -0.00036988442298024893,
      "std": 0.04244754835963249,
      "absmax": 0.3923068344593048,
      "slice": [
        -0.01410079374909401,
        0.006186801008880138,
        0.0006396243115887046,
        -0.001046512508764863,
        0.0034649563021957874,
        -0.01671643555164337,
        0.0006799730472266674,
        -0.005170556716620922,
        -0.0026914707850664854,
        0.020506756380200386,
        0.008576013147830963,
        -0.010413572192192078,
        0.01644878089427948,
        -0.010719100013375282,
        0.014409413561224937,
        0.016975414007902145,
        0.014589153230190277,
        -0.00792293343693018,
        0.006602820008993149,
        0.00192405772395432,
        -0.009174824692308903,
        0.008147438988089561,
        0.004334591329097748,
        0.012691838666796684,
        0.01652420312166214,
        0.0072286734357476234,
        0.005976038984954357,
        -0.007602003403007984,
        0.013531112112104893,
        0.0031977633479982615,
        -0.01560930721461773,
        -0.01590157113969326,
        0.007513178046792746,
        -0.005513143725693226,
        -0.012687543407082558,
        0.008709698915481567,
        0.012145020067691803,
        0.00813463144004345,
        0.009393421933054924,
        -0.0030954612884670496,
        0.004420381039381027,
        0.0021679820492863655,
        -0.0010929199634119868,
        -0.00241147936321795,
        -0.008570091798901558,
        0.014236693270504475,
        0.008844180032610893,
        -0.0011251084506511688,
        0.0073767127469182014,
        0.01575254462659359,
        -0.006623884662985802,
        0.007716921158134937,
        0.00823642872273922,
        0.008318990468978882,
        0.017967643216252327,
        0.011381134390830994,
        0.010622411966323853,
        -0.004228478763252497,
        -0.005821526981890202,
        0.013309739530086517,
        -0.015220729634165764,
        0.011536521837115288,
        0.0016128142597153783,
        0.0009512961842119694
      ],
      "sha256_16": "3deaea2b921ecb97"
    },
    "model.model.encoder.layer.1.attention.col_attention.self.key.bias": {
      "shape": [
        256
      ],
      "dtype": "torch.float32",
      "mean": 1.1603162874962436e-09,
      "std": 3.08496126422142e-08,
      "absmax": 1.4528632164001465e-07,
      "slice": [
        -1.8568243831396103e-08,
        -1.3322278391569853e-08,
        -1.6938429325819016e-08,
        1.0163057595491409e-07,
        3.637978807091713e-08,
        -6.752088665962219e-09,
        -3.67872416973114e-08,
        -9.66247171163559e-09,
        5.9371814131736755e-09,
        7.450580596923828e-09,
        -1.6065314412117004e-08,
        -1.3737007975578308e-08,
        1.210719347000122e-08,
        2.3283064365386963e-10,
        -2.232263796031475e-08,
        -1.4289980754256248e-08,
        -1.8510036170482635e-08,
        1.335865817964077e-08,
        1.4842953532934189e-08,
        1.4813849702477455e-08,
        3.041350282728672e-09,
        1.996522769331932e-08,
        -9.16188582777977e-08,
        1.2165401130914688e-08,
        -2.421438694000244e-08,
        6.979098543524742e-08,
        -1.4260876923799515e-08,
        -1.1117663234472275e-08,
        -1.8044374883174896e-09,
        -3.2378011383116245e-08,
        2.1886080503463745e-08,
        -1.367880031466484e-09,
        -2.7532223612070084e-08,
        -1.7462298274040222e-09,
        -4.575122147798538e-08,
        9.604264050722122e-09,
        -6.955815479159355e-09,
        -1.2165401130914688e-08,
        -1.525040715932846e-08,
        -1.4901161193847656e-08,
        -6.752088665962219e-09,
        -1.7113052308559418e-08,
        -5.791662260890007e-09,
        2.759043127298355e-08,
        1.210719347000122e-08,
        3.550667315721512e-08,
        1.7578713595867157e-08,
        -2.5494955480098724e-08,
        1.1583324521780014e-08,
        1.705484464764595e-08,
        -4.6566128730773926e-08,
        -2.9103830456733704e-11,
        -1.257285475730896e-08,
        2.287561073899269e-08,
        5.704350769519806e-08,
        8.527422323822975e-09,
        -9.080395102500916e-09,
        3.259629011154175e-08,
        2.1653249859809875e-08,
        1.807347871363163e-08,
        1.1059455573558807e-08,
        -6.6356733441352844e-09,
        -3.2014213502407074e-08,
        7.334165275096893e-09
      ],
      "sha256_16": "a0b0fe076675b589"
    },
    "model.model.encoder.layer.1.attention.col_attention.self.value.weight": {
      "shape": [
        256,
        512
      ],
      "dtype": "torch.float32",
      "mean": -6.726807623635978e-05,
      "std": 0.03179727867245674,
      "absmax": 0.26433154940605164,
      "slice": [
        0.05395245924592018,
        -0.1003103256225586,
        -0.032523512840270996,
        0.016461342573165894,
        0.1954159289598465,
        0.08345750719308853,
        0.03341968357563019,
        0.03830144926905632,
        0.03269961476325989,
        0.003477618796750903,
        -0.08236443251371384,
        0.05495017021894455,
        -0.07070653140544891,
        -0.00555846281349659,
        0.0067465342581272125,
        -0.024261727929115295,
        -0.09327808022499084,
        0.07378559559583664,
        0.07108128070831299,
        -0.06710006296634674,
        -0.08628523349761963,
        -0.033238381147384644,
        0.1127072423696518,
        0.024058014154434204,
        0.09634318947792053,
        0.01707962341606617,
        0.025977451354265213,
        -0.052592843770980835,
        0.029844490811228752,
        -0.021046213805675507,
        -0.01738222874701023,
        -0.016341760754585266,
        0.057021353393793106,
        -0.16183112561702728,
        -0.061602916568517685,
        0.05930309370160103,
        -0.09700839221477509,
        -0.04034173861145973,
        0.008262984454631805,
        0.052435725927352905,
        0.0022861086763441563,
        -0.08700087666511536,
        0.06159459799528122,
        0.0011208236683160067,
        -0.10960914939641953,
        0.0074163745157420635,
        0.01539002638310194,
        0.08337899297475815,
        -0.004263681825250387,
        -0.03764635697007179,
        -0.06421070545911789,
        0.008104030042886734,
        0.03090849332511425,
        0.10756127536296844,
        0.03729249909520149,
        0.04618478938937187,
